=== Run information ===

Scheme:       weka.classifiers.trees.J48 -C 0.25 -M 2
Relation:     dataset_file-weka.filters.supervised.instance.SMOTE-C0-K10-P3000.0-S1
Instances:    120277
Attributes:   12
              comm
              adev
              ddev
              exp
              oexp
              modd
              mods
              nloc
              cyco
              addl
              reml
              label
Test mode:    split 75.0% train, remainder test

=== Classifier model (full training set) ===

J48 pruned tree
------------------

addl <= 1
|   addl <= 0
|   |   comm <= 2.499919: clean (10282.0/1.0)
|   |   comm > 2.499919
|   |   |   nloc <= 23.496103
|   |   |   |   modd <= 3.499886
|   |   |   |   |   ddev <= 4.499853: clean (30.0)
|   |   |   |   |   ddev > 4.499853
|   |   |   |   |   |   oexp <= 3.49998: clean (10.0)
|   |   |   |   |   |   oexp > 3.49998: defective (55.0/1.0)
|   |   |   |   modd > 3.499886: clean (181.0)
|   |   |   nloc > 23.496103: clean (486.0)
|   addl > 0
|   |   addl <= 0.991495: defective (232.0)
|   |   addl > 0.991495
|   |   |   mods <= 2451
|   |   |   |   comm <= 1.005015
|   |   |   |   |   mods <= 2238.424194
|   |   |   |   |   |   nloc <= 42.81022
|   |   |   |   |   |   |   mods <= 1598.975652
|   |   |   |   |   |   |   |   mods <= 332.989112
|   |   |   |   |   |   |   |   |   mods <= 264.748667: clean (197.0/1.0)
|   |   |   |   |   |   |   |   |   mods > 264.748667
|   |   |   |   |   |   |   |   |   |   ddev <= 1.499691
|   |   |   |   |   |   |   |   |   |   |   nloc <= 4.573996: clean (20.0)
|   |   |   |   |   |   |   |   |   |   |   nloc > 4.573996
|   |   |   |   |   |   |   |   |   |   |   |   mods <= 325.439313
|   |   |   |   |   |   |   |   |   |   |   |   |   mods <= 318.187294
|   |   |   |   |   |   |   |   |   |   |   |   |   |   nloc <= 12.619141: defective (12.0)
|   |   |   |   |   |   |   |   |   |   |   |   |   |   nloc > 12.619141: clean (4.0)
|   |   |   |   |   |   |   |   |   |   |   |   |   mods > 318.187294: clean (7.0)
|   |   |   |   |   |   |   |   |   |   |   |   mods > 325.439313: defective (31.0/3.0)
|   |   |   |   |   |   |   |   |   |   ddev > 1.499691: clean (23.0)
|   |   |   |   |   |   |   |   mods > 332.989112
|   |   |   |   |   |   |   |   |   nloc <= 31.498322: clean (1140.0/1.0)
|   |   |   |   |   |   |   |   |   nloc > 31.498322
|   |   |   |   |   |   |   |   |   |   exp <= 1.151952: clean (185.0/3.0)
|   |   |   |   |   |   |   |   |   |   exp > 1.151952
|   |   |   |   |   |   |   |   |   |   |   exp <= 1.968226: defective (6.0)
|   |   |   |   |   |   |   |   |   |   |   exp > 1.968226: clean (14.0)
|   |   |   |   |   |   |   mods > 1598.975652
|   |   |   |   |   |   |   |   ddev <= 2.036244: clean (460.0/9.0)
|   |   |   |   |   |   |   |   ddev > 2.036244
|   |   |   |   |   |   |   |   |   mods <= 1662.497127
|   |   |   |   |   |   |   |   |   |   nloc <= 22
|   |   |   |   |   |   |   |   |   |   |   nloc <= 16.099207: clean (4.0/1.0)
|   |   |   |   |   |   |   |   |   |   |   nloc > 16.099207: defective (58.0/1.0)
|   |   |   |   |   |   |   |   |   |   nloc > 22: clean (9.0)
|   |   |   |   |   |   |   |   |   mods > 1662.497127: clean (53.0/6.0)
|   |   |   |   |   |   nloc > 42.81022
|   |   |   |   |   |   |   mods <= 1888.471035
|   |   |   |   |   |   |   |   cyco <= 115.461476
|   |   |   |   |   |   |   |   |   mods <= 140.385612
|   |   |   |   |   |   |   |   |   |   mods <= 121.12704: clean (140.0/1.0)
|   |   |   |   |   |   |   |   |   |   mods > 121.12704
|   |   |   |   |   |   |   |   |   |   |   mods <= 131.919758: defective (5.0)
|   |   |   |   |   |   |   |   |   |   |   mods > 131.919758: clean (16.0/1.0)
|   |   |   |   |   |   |   |   |   mods > 140.385612: clean (4070.0/16.0)
|   |   |   |   |   |   |   |   cyco > 115.461476
|   |   |   |   |   |   |   |   |   nloc <= 2433
|   |   |   |   |   |   |   |   |   |   exp <= 1.181178: clean (394.0/5.0)
|   |   |   |   |   |   |   |   |   |   exp > 1.181178
|   |   |   |   |   |   |   |   |   |   |   oexp <= 2.816234: defective (6.0)
|   |   |   |   |   |   |   |   |   |   |   oexp > 2.816234
|   |   |   |   |   |   |   |   |   |   |   |   oexp <= 11.727646: clean (45.0/1.0)
|   |   |   |   |   |   |   |   |   |   |   |   oexp > 11.727646
|   |   |   |   |   |   |   |   |   |   |   |   |   ddev <= 8: defective (4.0)
|   |   |   |   |   |   |   |   |   |   |   |   |   ddev > 8: clean (2.0)
|   |   |   |   |   |   |   |   |   nloc > 2433
|   |   |   |   |   |   |   |   |   |   nloc <= 2773
|   |   |   |   |   |   |   |   |   |   |   ddev <= 7.496436: clean (10.0)
|   |   |   |   |   |   |   |   |   |   |   ddev > 7.496436
|   |   |   |   |   |   |   |   |   |   |   |   cyco <= 598: defective (13.0/1.0)
|   |   |   |   |   |   |   |   |   |   |   |   cyco > 598: clean (4.0/1.0)
|   |   |   |   |   |   |   |   |   |   nloc > 2773: clean (21.0)
|   |   |   |   |   |   |   mods > 1888.471035
|   |   |   |   |   |   |   |   reml <= 0.974536
|   |   |   |   |   |   |   |   |   oexp <= 1.019146: clean (40.0/1.0)
|   |   |   |   |   |   |   |   |   oexp > 1.019146: defective (13.0)
|   |   |   |   |   |   |   |   reml > 0.974536
|   |   |   |   |   |   |   |   |   cyco <= 50.498459: clean (174.0)
|   |   |   |   |   |   |   |   |   cyco > 50.498459
|   |   |   |   |   |   |   |   |   |   mods <= 2189.091998: clean (80.0/1.0)
|   |   |   |   |   |   |   |   |   |   mods > 2189.091998: defective (8.0)
|   |   |   |   |   mods > 2238.424194
|   |   |   |   |   |   ddev <= 2.934389
|   |   |   |   |   |   |   nloc <= 52.493218
|   |   |   |   |   |   |   |   cyco <= 0.160523: clean (162.0/8.0)
|   |   |   |   |   |   |   |   cyco > 0.160523
|   |   |   |   |   |   |   |   |   ddev <= 2.082233: clean (76.0/1.0)
|   |   |   |   |   |   |   |   |   ddev > 2.082233: defective (8.0)
|   |   |   |   |   |   |   nloc > 52.493218: clean (686.0)
|   |   |   |   |   |   ddev > 2.934389: clean (3281.0/3.0)
|   |   |   |   comm > 1.005015
|   |   |   |   |   adev <= 1.996385: defective (133.0)
|   |   |   |   |   adev > 1.996385
|   |   |   |   |   |   nloc <= 33.808199
|   |   |   |   |   |   |   adev <= 2.000346: clean (574.0/15.0)
|   |   |   |   |   |   |   adev > 2.000346
|   |   |   |   |   |   |   |   modd <= 2.990899: defective (50.0)
|   |   |   |   |   |   |   |   modd > 2.990899
|   |   |   |   |   |   |   |   |   mods <= 1455.49966: clean (147.0/1.0)
|   |   |   |   |   |   |   |   |   mods > 1455.49966
|   |   |   |   |   |   |   |   |   |   mods <= 1459.296827
|   |   |   |   |   |   |   |   |   |   |   ddev <= 4: clean (7.0)
|   |   |   |   |   |   |   |   |   |   |   ddev > 4: defective (68.0/1.0)
|   |   |   |   |   |   |   |   |   |   mods > 1459.296827
|   |   |   |   |   |   |   |   |   |   |   nloc <= 20.188474: clean (77.0)
|   |   |   |   |   |   |   |   |   |   |   nloc > 20.188474
|   |   |   |   |   |   |   |   |   |   |   |   mods <= 1692.716313: clean (30.0)
|   |   |   |   |   |   |   |   |   |   |   |   mods > 1692.716313
|   |   |   |   |   |   |   |   |   |   |   |   |   mods <= 2048.115619
|   |   |   |   |   |   |   |   |   |   |   |   |   |   modd <= 3.055079: clean (5.0/1.0)
|   |   |   |   |   |   |   |   |   |   |   |   |   |   modd > 3.055079: defective (25.0/2.0)
|   |   |   |   |   |   |   |   |   |   |   |   |   mods > 2048.115619
|   |   |   |   |   |   |   |   |   |   |   |   |   |   nloc <= 22.49846
|   |   |   |   |   |   |   |   |   |   |   |   |   |   |   mods <= 2051.819369: clean (3.0/1.0)
|   |   |   |   |   |   |   |   |   |   |   |   |   |   |   mods > 2051.819369: defective (3.0)
|   |   |   |   |   |   |   |   |   |   |   |   |   |   nloc > 22.49846: clean (23.0)
|   |   |   |   |   |   nloc > 33.808199
|   |   |   |   |   |   |   mods <= 2188.92599
|   |   |   |   |   |   |   |   nloc <= 66.502136
|   |   |   |   |   |   |   |   |   mods <= 1455.313613: clean (301.0)
|   |   |   |   |   |   |   |   |   mods > 1455.313613
|   |   |   |   |   |   |   |   |   |   ddev <= 4.725101
|   |   |   |   |   |   |   |   |   |   |   ddev <= 3.063453: clean (110.0/4.0)
|   |   |   |   |   |   |   |   |   |   |   ddev > 3.063453
|   |   |   |   |   |   |   |   |   |   |   |   ddev <= 3.963611: defective (6.0)
|   |   |   |   |   |   |   |   |   |   |   |   ddev > 3.963611
|   |   |   |   |   |   |   |   |   |   |   |   |   ddev <= 4.173842: clean (30.0)
|   |   |   |   |   |   |   |   |   |   |   |   |   ddev > 4.173842: defective (7.0)
|   |   |   |   |   |   |   |   |   |   ddev > 4.725101: clean (76.0/1.0)
|   |   |   |   |   |   |   |   nloc > 66.502136: clean (2867.0/11.0)
|   |   |   |   |   |   |   mods > 2188.92599
|   |   |   |   |   |   |   |   mods <= 2447.116788
|   |   |   |   |   |   |   |   |   mods <= 2321.393271
|   |   |   |   |   |   |   |   |   |   adev <= 2.022277: clean (168.0/6.0)
|   |   |   |   |   |   |   |   |   |   adev > 2.022277
|   |   |   |   |   |   |   |   |   |   |   modd <= 2.928584: defective (23.0)
|   |   |   |   |   |   |   |   |   |   |   modd > 2.928584
|   |   |   |   |   |   |   |   |   |   |   |   mods <= 2237.848171: defective (4.0)
|   |   |   |   |   |   |   |   |   |   |   |   mods > 2237.848171
|   |   |   |   |   |   |   |   |   |   |   |   |   cyco <= 61: clean (50.0/1.0)
|   |   |   |   |   |   |   |   |   |   |   |   |   cyco > 61
|   |   |   |   |   |   |   |   |   |   |   |   |   |   cyco <= 78.939198: defective (5.0)
|   |   |   |   |   |   |   |   |   |   |   |   |   |   cyco > 78.939198: clean (16.0)
|   |   |   |   |   |   |   |   |   mods > 2321.393271: defective (11.0)
|   |   |   |   |   |   |   |   mods > 2447.116788: clean (133.0)
|   |   |   mods > 2451
|   |   |   |   mods <= 2636.895734
|   |   |   |   |   cyco <= 1.997927
|   |   |   |   |   |   oexp <= 2
|   |   |   |   |   |   |   ddev <= 2.999723
|   |   |   |   |   |   |   |   ddev <= 2.000766
|   |   |   |   |   |   |   |   |   nloc <= 328.17352
|   |   |   |   |   |   |   |   |   |   nloc <= 34.484235
|   |   |   |   |   |   |   |   |   |   |   ddev <= 1.968763
|   |   |   |   |   |   |   |   |   |   |   |   ddev <= 1.020016
|   |   |   |   |   |   |   |   |   |   |   |   |   nloc <= 19: clean (80.0/18.0)
|   |   |   |   |   |   |   |   |   |   |   |   |   nloc > 19: defective (80.0/29.0)
|   |   |   |   |   |   |   |   |   |   |   |   ddev > 1.020016: defective (29.0)
|   |   |   |   |   |   |   |   |   |   |   ddev > 1.968763
|   |   |   |   |   |   |   |   |   |   |   |   nloc <= 30: clean (109.0)
|   |   |   |   |   |   |   |   |   |   |   |   nloc > 30
|   |   |   |   |   |   |   |   |   |   |   |   |   mods <= 2509.356314: clean (4.0)
|   |   |   |   |   |   |   |   |   |   |   |   |   mods > 2509.356314: defective (13.0/4.0)
|   |   |   |   |   |   |   |   |   |   nloc > 34.484235
|   |   |   |   |   |   |   |   |   |   |   ddev <= 1.105319
|   |   |   |   |   |   |   |   |   |   |   |   nloc <= 105.492571
|   |   |   |   |   |   |   |   |   |   |   |   |   nloc <= 102.380933: clean (217.0/12.0)
|   |   |   |   |   |   |   |   |   |   |   |   |   nloc > 102.380933
|   |   |   |   |   |   |   |   |   |   |   |   |   |   nloc <= 103.939232: defective (5.0)
|   |   |   |   |   |   |   |   |   |   |   |   |   |   nloc > 103.939232
|   |   |   |   |   |   |   |   |   |   |   |   |   |   |   nloc <= 104.105692: clean (2.0)
|   |   |   |   |   |   |   |   |   |   |   |   |   |   |   nloc > 104.105692
|   |   |   |   |   |   |   |   |   |   |   |   |   |   |   |   nloc <= 104.742456: defective (4.0)
|   |   |   |   |   |   |   |   |   |   |   |   |   |   |   |   nloc > 104.742456: clean (4.0/1.0)
|   |   |   |   |   |   |   |   |   |   |   |   nloc > 105.492571: clean (319.0/1.0)
|   |   |   |   |   |   |   |   |   |   |   ddev > 1.105319
|   |   |   |   |   |   |   |   |   |   |   |   ddev <= 1.923267: defective (19.0)
|   |   |   |   |   |   |   |   |   |   |   |   ddev > 1.923267
|   |   |   |   |   |   |   |   |   |   |   |   |   nloc <= 224.478405: clean (118.0)
|   |   |   |   |   |   |   |   |   |   |   |   |   nloc > 224.478405
|   |   |   |   |   |   |   |   |   |   |   |   |   |   cyco <= 0.107335
|   |   |   |   |   |   |   |   |   |   |   |   |   |   |   mods <= 2460.061286: clean (45.0/2.0)
|   |   |   |   |   |   |   |   |   |   |   |   |   |   |   mods > 2460.061286: defective (7.0/1.0)
|   |   |   |   |   |   |   |   |   |   |   |   |   |   cyco > 0.107335: defective (4.0)
|   |   |   |   |   |   |   |   |   nloc > 328.17352
|   |   |   |   |   |   |   |   |   |   mods <= 2458.369723
|   |   |   |   |   |   |   |   |   |   |   reml <= 1.032384
|   |   |   |   |   |   |   |   |   |   |   |   ddev <= 1.999609
|   |   |   |   |   |   |   |   |   |   |   |   |   ddev <= 1.001842
|   |   |   |   |   |   |   |   |   |   |   |   |   |   nloc <= 1730
|   |   |   |   |   |   |   |   |   |   |   |   |   |   |   nloc <= 907
|   |   |   |   |   |   |   |   |   |   |   |   |   |   |   |   nloc <= 835.662372: clean (333.0/104.0)
|   |   |   |   |   |   |   |   |   |   |   |   |   |   |   |   nloc > 835.662372: defective (50.0/16.0)
|   |   |   |   |   |   |   |   |   |   |   |   |   |   |   nloc > 907
|   |   |   |   |   |   |   |   |   |   |   |   |   |   |   |   nloc <= 1349.42939: clean (56.0)
|   |   |   |   |   |   |   |   |   |   |   |   |   |   |   |   nloc > 1349.42939
|   |   |   |   |   |   |   |   |   |   |   |   |   |   |   |   |   nloc <= 1456.414981: defective (8.0/2.0)
|   |   |   |   |   |   |   |   |   |   |   |   |   |   |   |   |   nloc > 1456.414981: clean (15.0)
|   |   |   |   |   |   |   |   |   |   |   |   |   |   nloc > 1730
|   |   |   |   |   |   |   |   |   |   |   |   |   |   |   nloc <= 1922: defective (78.0/8.0)
|   |   |   |   |   |   |   |   |   |   |   |   |   |   |   nloc > 1922: clean (37.0/7.0)
|   |   |   |   |   |   |   |   |   |   |   |   |   ddev > 1.001842: defective (247.0)
|   |   |   |   |   |   |   |   |   |   |   |   ddev > 1.999609
|   |   |   |   |   |   |   |   |   |   |   |   |   comm <= 1.499881
|   |   |   |   |   |   |   |   |   |   |   |   |   |   nloc <= 1586
|   |   |   |   |   |   |   |   |   |   |   |   |   |   |   nloc <= 1197.409015
|   |   |   |   |   |   |   |   |   |   |   |   |   |   |   |   nloc <= 389.300373: defective (48.0/10.0)
|   |   |   |   |   |   |   |   |   |   |   |   |   |   |   |   nloc > 389.300373
|   |   |   |   |   |   |   |   |   |   |   |   |   |   |   |   |   nloc <= 880: clean (72.0/1.0)
|   |   |   |   |   |   |   |   |   |   |   |   |   |   |   |   |   nloc > 880
|   |   |   |   |   |   |   |   |   |   |   |   |   |   |   |   |   |   nloc <= 932
|   |   |   |   |   |   |   |   |   |   |   |   |   |   |   |   |   |   |   nloc <= 888.256257: clean (3.0/1.0)
|   |   |   |   |   |   |   |   |   |   |   |   |   |   |   |   |   |   |   nloc > 888.256257: defective (7.0)
|   |   |   |   |   |   |   |   |   |   |   |   |   |   |   |   |   |   nloc > 932: clean (17.0)
|   |   |   |   |   |   |   |   |   |   |   |   |   |   |   nloc > 1197.409015: defective (52.0/18.0)
|   |   |   |   |   |   |   |   |   |   |   |   |   |   nloc > 1586: clean (32.0)
|   |   |   |   |   |   |   |   |   |   |   |   |   comm > 1.499881: clean (27.0)
|   |   |   |   |   |   |   |   |   |   |   reml > 1.032384: defective (35.0/1.0)
|   |   |   |   |   |   |   |   |   |   mods > 2458.369723
|   |   |   |   |   |   |   |   |   |   |   mods <= 2559.491662: defective (110.0/1.0)
|   |   |   |   |   |   |   |   |   |   |   mods > 2559.491662
|   |   |   |   |   |   |   |   |   |   |   |   nloc <= 580: defective (37.0/1.0)
|   |   |   |   |   |   |   |   |   |   |   |   nloc > 580: clean (16.0/2.0)
|   |   |   |   |   |   |   |   ddev > 2.000766: defective (227.0)
|   |   |   |   |   |   |   ddev > 2.999723
|   |   |   |   |   |   |   |   reml <= 0.982548
|   |   |   |   |   |   |   |   |   reml <= 0.014138: clean (69.0/3.0)
|   |   |   |   |   |   |   |   |   reml > 0.014138: defective (79.0)
|   |   |   |   |   |   |   |   reml > 0.982548
|   |   |   |   |   |   |   |   |   cyco <= 0.001855
|   |   |   |   |   |   |   |   |   |   mods <= 2559.74113
|   |   |   |   |   |   |   |   |   |   |   mods <= 2467.042593
|   |   |   |   |   |   |   |   |   |   |   |   ddev <= 3.983369
|   |   |   |   |   |   |   |   |   |   |   |   |   ddev <= 3.020588
|   |   |   |   |   |   |   |   |   |   |   |   |   |   reml <= 1.396604: clean (102.0/4.0)
|   |   |   |   |   |   |   |   |   |   |   |   |   |   reml > 1.396604: defective (3.0)
|   |   |   |   |   |   |   |   |   |   |   |   |   ddev > 3.020588: defective (19.0)
|   |   |   |   |   |   |   |   |   |   |   |   ddev > 3.983369: clean (95.0/4.0)
|   |   |   |   |   |   |   |   |   |   |   mods > 2467.042593: defective (32.0)
|   |   |   |   |   |   |   |   |   |   mods > 2559.74113
|   |   |   |   |   |   |   |   |   |   |   ddev <= 3.998385
|   |   |   |   |   |   |   |   |   |   |   |   ddev <= 3.032092: clean (573.0/14.0)
|   |   |   |   |   |   |   |   |   |   |   |   ddev > 3.032092: defective (30.0)
|   |   |   |   |   |   |   |   |   |   |   ddev > 3.998385
|   |   |   |   |   |   |   |   |   |   |   |   nloc <= 884.72272: clean (574.0/2.0)
|   |   |   |   |   |   |   |   |   |   |   |   nloc > 884.72272
|   |   |   |   |   |   |   |   |   |   |   |   |   nloc <= 922.450175
|   |   |   |   |   |   |   |   |   |   |   |   |   |   ddev <= 6: defective (11.0/2.0)
|   |   |   |   |   |   |   |   |   |   |   |   |   |   ddev > 6: clean (2.0)
|   |   |   |   |   |   |   |   |   |   |   |   |   nloc > 922.450175: clean (127.0/2.0)
|   |   |   |   |   |   |   |   |   cyco > 0.001855
|   |   |   |   |   |   |   |   |   |   cyco <= 0.961816: defective (20.0)
|   |   |   |   |   |   |   |   |   |   cyco > 0.961816: clean (13.0/1.0)
|   |   |   |   |   |   oexp > 2
|   |   |   |   |   |   |   exp <= 1.996687
|   |   |   |   |   |   |   |   comm <= 1.000552: clean (62.0)
|   |   |   |   |   |   |   |   comm > 1.000552
|   |   |   |   |   |   |   |   |   adev <= 1.999675: defective (395.0)
|   |   |   |   |   |   |   |   |   adev > 1.999675
|   |   |   |   |   |   |   |   |   |   exp <= 1.001033
|   |   |   |   |   |   |   |   |   |   |   nloc <= 1121.91454
|   |   |   |   |   |   |   |   |   |   |   |   nloc <= 686.2357
|   |   |   |   |   |   |   |   |   |   |   |   |   oexp <= 2.923252: defective (12.0)
|   |   |   |   |   |   |   |   |   |   |   |   |   oexp > 2.923252
|   |   |   |   |   |   |   |   |   |   |   |   |   |   oexp <= 17.486159
|   |   |   |   |   |   |   |   |   |   |   |   |   |   |   oexp <= 3.038673: clean (19.0)
|   |   |   |   |   |   |   |   |   |   |   |   |   |   |   oexp > 3.038673
|   |   |   |   |   |   |   |   |   |   |   |   |   |   |   |   oexp <= 3.915613: defective (14.0)
|   |   |   |   |   |   |   |   |   |   |   |   |   |   |   |   oexp > 3.915613
|   |   |   |   |   |   |   |   |   |   |   |   |   |   |   |   |   adev <= 2.615448
|   |   |   |   |   |   |   |   |   |   |   |   |   |   |   |   |   |   nloc <= 101
|   |   |   |   |   |   |   |   |   |   |   |   |   |   |   |   |   |   |   nloc <= 96.133339: clean (20.0/1.0)
|   |   |   |   |   |   |   |   |   |   |   |   |   |   |   |   |   |   |   nloc > 96.133339: defective (7.0)
|   |   |   |   |   |   |   |   |   |   |   |   |   |   |   |   |   |   nloc > 101
|   |   |   |   |   |   |   |   |   |   |   |   |   |   |   |   |   |   |   oexp <= 4.324468: clean (29.0/2.0)
|   |   |   |   |   |   |   |   |   |   |   |   |   |   |   |   |   |   |   oexp > 4.324468: defective (8.0/1.0)
|   |   |   |   |   |   |   |   |   |   |   |   |   |   |   |   |   adev > 2.615448: clean (30.0/2.0)
|   |   |   |   |   |   |   |   |   |   |   |   |   |   oexp > 17.486159: defective (10.0)
|   |   |   |   |   |   |   |   |   |   |   |   nloc > 686.2357
|   |   |   |   |   |   |   |   |   |   |   |   |   modd <= 2.499681: defective (86.0/5.0)
|   |   |   |   |   |   |   |   |   |   |   |   |   modd > 2.499681: clean (7.0)
|   |   |   |   |   |   |   |   |   |   |   nloc > 1121.91454: clean (33.0/1.0)
|   |   |   |   |   |   |   |   |   |   exp > 1.001033: defective (56.0)
|   |   |   |   |   |   |   exp > 1.996687: clean (116.0)
|   |   |   |   |   cyco > 1.997927
|   |   |   |   |   |   mods <= 2462.467
|   |   |   |   |   |   |   nloc <= 95.96205
|   |   |   |   |   |   |   |   adev <= 3.1125
|   |   |   |   |   |   |   |   |   comm <= 1.065058: clean (73.0/16.0)
|   |   |   |   |   |   |   |   |   comm > 1.065058
|   |   |   |   |   |   |   |   |   |   oexp <= 3.818077: defective (6.0)
|   |   |   |   |   |   |   |   |   |   oexp > 3.818077: clean (10.0)
|   |   |   |   |   |   |   |   adev > 3.1125: defective (6.0)
|   |   |   |   |   |   |   nloc > 95.96205: clean (97.0)
|   |   |   |   |   |   mods > 2462.467: clean (457.0)
|   |   |   |   mods > 2636.895734: clean (5636.0/1.0)
addl > 1
|   addl <= 1.999299: defective (2137.0)
|   addl > 1.999299
|   |   cyco <= 0
|   |   |   mods <= 2633.307914
|   |   |   |   addl <= 2.000543
|   |   |   |   |   exp <= 3.948092
|   |   |   |   |   |   reml <= 1.050487
|   |   |   |   |   |   |   mods <= 1598.975652: clean (925.0/7.0)
|   |   |   |   |   |   |   mods > 1598.975652
|   |   |   |   |   |   |   |   mods <= 1699.413508
|   |   |   |   |   |   |   |   |   nloc <= 19
|   |   |   |   |   |   |   |   |   |   ddev <= 2.236027
|   |   |   |   |   |   |   |   |   |   |   mods <= 1694.250655: clean (7.0/1.0)
|   |   |   |   |   |   |   |   |   |   |   mods > 1694.250655: defective (2.0)
|   |   |   |   |   |   |   |   |   |   ddev > 2.236027: defective (7.0)
|   |   |   |   |   |   |   |   |   nloc > 19: clean (46.0/1.0)
|   |   |   |   |   |   |   |   mods > 1699.413508
|   |   |   |   |   |   |   |   |   exp <= 1.921281
|   |   |   |   |   |   |   |   |   |   exp <= 1.169004: clean (79.0/3.0)
|   |   |   |   |   |   |   |   |   |   exp > 1.169004: defective (5.0)
|   |   |   |   |   |   |   |   |   exp > 1.921281: clean (308.0/3.0)
|   |   |   |   |   |   reml > 1.050487
|   |   |   |   |   |   |   oexp <= 16.497738
|   |   |   |   |   |   |   |   oexp <= 3.002709: clean (64.0)
|   |   |   |   |   |   |   |   oexp > 3.002709
|   |   |   |   |   |   |   |   |   oexp <= 4.984912
|   |   |   |   |   |   |   |   |   |   oexp <= 3.952439: defective (5.0)
|   |   |   |   |   |   |   |   |   |   oexp > 3.952439
|   |   |   |   |   |   |   |   |   |   |   oexp <= 4.140892: clean (7.0/1.0)
|   |   |   |   |   |   |   |   |   |   |   oexp > 4.140892: defective (3.0)
|   |   |   |   |   |   |   |   |   oexp > 4.984912
|   |   |   |   |   |   |   |   |   |   nloc <= 30.224288
|   |   |   |   |   |   |   |   |   |   |   ddev <= 4.499853: clean (25.0/3.0)
|   |   |   |   |   |   |   |   |   |   |   ddev > 4.499853: defective (9.0/1.0)
|   |   |   |   |   |   |   |   |   |   nloc > 30.224288
|   |   |   |   |   |   |   |   |   |   |   reml <= 2.098751: clean (102.0/1.0)
|   |   |   |   |   |   |   |   |   |   |   reml > 2.098751
|   |   |   |   |   |   |   |   |   |   |   |   exp <= 3.281236: clean (13.0/1.0)
|   |   |   |   |   |   |   |   |   |   |   |   exp > 3.281236: defective (2.0)
|   |   |   |   |   |   |   oexp > 16.497738: clean (107.0)
|   |   |   |   |   exp > 3.948092
|   |   |   |   |   |   modd <= 10.198108: clean (1669.0/7.0)
|   |   |   |   |   |   modd > 10.198108
|   |   |   |   |   |   |   comm <= 8.504879
|   |   |   |   |   |   |   |   mods <= 958.269966: defective (6.0)
|   |   |   |   |   |   |   |   mods > 958.269966: clean (3.0)
|   |   |   |   |   |   |   comm > 8.504879: clean (38.0)
|   |   |   |   addl > 2.000543
|   |   |   |   |   addl <= 2.998959: defective (612.0)
|   |   |   |   |   addl > 2.998959
|   |   |   |   |   |   reml <= 0
|   |   |   |   |   |   |   mods <= 1706.404898
|   |   |   |   |   |   |   |   mods <= 1692.039181
|   |   |   |   |   |   |   |   |   mods <= 140.385612
|   |   |   |   |   |   |   |   |   |   addl <= 4.95788
|   |   |   |   |   |   |   |   |   |   |   nloc <= 47.486026
|   |   |   |   |   |   |   |   |   |   |   |   mods <= 25: clean (3.0)
|   |   |   |   |   |   |   |   |   |   |   |   mods > 25: defective (41.0/4.0)
|   |   |   |   |   |   |   |   |   |   |   nloc > 47.486026: clean (9.0)
|   |   |   |   |   |   |   |   |   |   addl > 4.95788
|   |   |   |   |   |   |   |   |   |   |   addl <= 13.497806
|   |   |   |   |   |   |   |   |   |   |   |   oexp <= 11.031685
|   |   |   |   |   |   |   |   |   |   |   |   |   addl <= 11.234434
|   |   |   |   |   |   |   |   |   |   |   |   |   |   exp <= 9.451901: clean (28.0)
|   |   |   |   |   |   |   |   |   |   |   |   |   |   exp > 9.451901
|   |   |   |   |   |   |   |   |   |   |   |   |   |   |   exp <= 9.962446: defective (2.0)
|   |   |   |   |   |   |   |   |   |   |   |   |   |   |   exp > 9.962446: clean (7.0)
|   |   |   |   |   |   |   |   |   |   |   |   |   addl > 11.234434: defective (2.0)
|   |   |   |   |   |   |   |   |   |   |   |   oexp > 11.031685
|   |   |   |   |   |   |   |   |   |   |   |   |   nloc <= 27.771337: clean (6.0)
|   |   |   |   |   |   |   |   |   |   |   |   |   nloc > 27.771337: defective (14.0/3.0)
|   |   |   |   |   |   |   |   |   |   |   addl > 13.497806: clean (57.0/1.0)
|   |   |   |   |   |   |   |   |   mods > 140.385612
|   |   |   |   |   |   |   |   |   |   modd <= 1.008819
|   |   |   |   |   |   |   |   |   |   |   addl <= 54.497656
|   |   |   |   |   |   |   |   |   |   |   |   mods <= 497.657521
|   |   |   |   |   |   |   |   |   |   |   |   |   mods <= 442.801902
|   |   |   |   |   |   |   |   |   |   |   |   |   |   mods <= 257.499906
|   |   |   |   |   |   |   |   |   |   |   |   |   |   |   mods <= 221.460925: clean (50.0)
|   |   |   |   |   |   |   |   |   |   |   |   |   |   |   mods > 221.460925
|   |   |   |   |   |   |   |   |   |   |   |   |   |   |   |   ddev <= 1.239672: clean (20.0/1.0)
|   |   |   |   |   |   |   |   |   |   |   |   |   |   |   |   ddev > 1.239672
|   |   |   |   |   |   |   |   |   |   |   |   |   |   |   |   |   mods <= 241.765742
|   |   |   |   |   |   |   |   |   |   |   |   |   |   |   |   |   |   mods <= 236.015859: defective (2.0)
|   |   |   |   |   |   |   |   |   |   |   |   |   |   |   |   |   |   mods > 236.015859: clean (5.0/1.0)
|   |   |   |   |   |   |   |   |   |   |   |   |   |   |   |   |   mods > 241.765742: defective (5.0)
|   |   |   |   |   |   |   |   |   |   |   |   |   |   mods > 257.499906: clean (378.0/1.0)
|   |   |   |   |   |   |   |   |   |   |   |   |   mods > 442.801902
|   |   |   |   |   |   |   |   |   |   |   |   |   |   mods <= 456.417157: defective (10.0)
|   |   |   |   |   |   |   |   |   |   |   |   |   |   mods > 456.417157
|   |   |   |   |   |   |   |   |   |   |   |   |   |   |   mods <= 462.499803: clean (48.0/1.0)
|   |   |   |   |   |   |   |   |   |   |   |   |   |   |   mods > 462.499803
|   |   |   |   |   |   |   |   |   |   |   |   |   |   |   |   mods <= 466.768938: clean (21.0)
|   |   |   |   |   |   |   |   |   |   |   |   |   |   |   |   mods > 466.768938: defective (3.0)
|   |   |   |   |   |   |   |   |   |   |   |   mods > 497.657521: clean (1966.0/25.0)
|   |   |   |   |   |   |   |   |   |   |   addl > 54.497656
|   |   |   |   |   |   |   |   |   |   |   |   mods <= 1214.719069
|   |   |   |   |   |   |   |   |   |   |   |   |   exp <= 58.499922
|   |   |   |   |   |   |   |   |   |   |   |   |   |   exp <= 48.25997: defective (4.0)
|   |   |   |   |   |   |   |   |   |   |   |   |   |   exp > 48.25997: clean (29.0/1.0)
|   |   |   |   |   |   |   |   |   |   |   |   |   exp > 58.499922: clean (548.0/18.0)
|   |   |   |   |   |   |   |   |   |   |   |   mods > 1214.719069
|   |   |   |   |   |   |   |   |   |   |   |   |   mods <= 1456.940148
|   |   |   |   |   |   |   |   |   |   |   |   |   |   mods <= 1454.084774
|   |   |   |   |   |   |   |   |   |   |   |   |   |   |   mods <= 1416.577526: defective (8.0/1.0)
|   |   |   |   |   |   |   |   |   |   |   |   |   |   |   mods > 1416.577526
|   |   |   |   |   |   |   |   |   |   |   |   |   |   |   |   mods <= 1445.381499: clean (16.0)
|   |   |   |   |   |   |   |   |   |   |   |   |   |   |   |   mods > 1445.381499
|   |   |   |   |   |   |   |   |   |   |   |   |   |   |   |   |   exp <= 187
|   |   |   |   |   |   |   |   |   |   |   |   |   |   |   |   |   |   exp <= 63.104144: clean (3.0/1.0)
|   |   |   |   |   |   |   |   |   |   |   |   |   |   |   |   |   |   exp > 63.104144: defective (3.0)
|   |   |   |   |   |   |   |   |   |   |   |   |   |   |   |   |   exp > 187: clean (3.0)
|   |   |   |   |   |   |   |   |   |   |   |   |   |   mods > 1454.084774: defective (6.0)
|   |   |   |   |   |   |   |   |   |   |   |   |   mods > 1456.940148: clean (63.0/3.0)
|   |   |   |   |   |   |   |   |   |   modd > 1.008819
|   |   |   |   |   |   |   |   |   |   |   modd <= 1.979405: defective (47.0)
|   |   |   |   |   |   |   |   |   |   |   modd > 1.979405
|   |   |   |   |   |   |   |   |   |   |   |   modd <= 2.040544
|   |   |   |   |   |   |   |   |   |   |   |   |   ddev <= 2.499862: clean (580.0/2.0)
|   |   |   |   |   |   |   |   |   |   |   |   |   ddev > 2.499862
|   |   |   |   |   |   |   |   |   |   |   |   |   |   mods <= 1044.447452: clean (67.0)
|   |   |   |   |   |   |   |   |   |   |   |   |   |   mods > 1044.447452
|   |   |   |   |   |   |   |   |   |   |   |   |   |   |   mods <= 1395.624475
|   |   |   |   |   |   |   |   |   |   |   |   |   |   |   |   nloc <= 58.491611
|   |   |   |   |   |   |   |   |   |   |   |   |   |   |   |   |   mods <= 1084.189321: clean (3.0/1.0)
|   |   |   |   |   |   |   |   |   |   |   |   |   |   |   |   |   mods > 1084.189321: defective (9.0/1.0)
|   |   |   |   |   |   |   |   |   |   |   |   |   |   |   |   nloc > 58.491611: clean (10.0)
|   |   |   |   |   |   |   |   |   |   |   |   |   |   |   mods > 1395.624475: clean (28.0)
|   |   |   |   |   |   |   |   |   |   |   |   modd > 2.040544
|   |   |   |   |   |   |   |   |   |   |   |   |   modd <= 2.995402: defective (33.0)
|   |   |   |   |   |   |   |   |   |   |   |   |   modd > 2.995402
|   |   |   |   |   |   |   |   |   |   |   |   |   |   comm <= 1.9871
|   |   |   |   |   |   |   |   |   |   |   |   |   |   |   comm <= 1.037179
|   |   |   |   |   |   |   |   |   |   |   |   |   |   |   |   exp <= 119.487798: clean (31.0)
|   |   |   |   |   |   |   |   |   |   |   |   |   |   |   |   exp > 119.487798
|   |   |   |   |   |   |   |   |   |   |   |   |   |   |   |   |   oexp <= 472.269897: defective (4.0)
|   |   |   |   |   |   |   |   |   |   |   |   |   |   |   |   |   oexp > 472.269897
|   |   |   |   |   |   |   |   |   |   |   |   |   |   |   |   |   |   mods <= 1573: clean (17.0)
|   |   |   |   |   |   |   |   |   |   |   |   |   |   |   |   |   |   mods > 1573: defective (3.0/1.0)
|   |   |   |   |   |   |   |   |   |   |   |   |   |   |   comm > 1.037179: defective (4.0)
|   |   |   |   |   |   |   |   |   |   |   |   |   |   comm > 1.9871
|   |   |   |   |   |   |   |   |   |   |   |   |   |   |   adev <= 2.628505
|   |   |   |   |   |   |   |   |   |   |   |   |   |   |   |   comm <= 2.373226: clean (38.0)
|   |   |   |   |   |   |   |   |   |   |   |   |   |   |   |   comm > 2.373226: defective (3.0)
|   |   |   |   |   |   |   |   |   |   |   |   |   |   |   adev > 2.628505: clean (478.0/4.0)
|   |   |   |   |   |   |   |   mods > 1692.039181
|   |   |   |   |   |   |   |   |   nloc <= 59.87081
|   |   |   |   |   |   |   |   |   |   nloc <= 2.484653: clean (8.0)
|   |   |   |   |   |   |   |   |   |   nloc > 2.484653
|   |   |   |   |   |   |   |   |   |   |   adev <= 1.999675
|   |   |   |   |   |   |   |   |   |   |   |   comm <= 1.008141
|   |   |   |   |   |   |   |   |   |   |   |   |   nloc <= 28
|   |   |   |   |   |   |   |   |   |   |   |   |   |   ddev <= 1.969745: defective (38.0/2.0)
|   |   |   |   |   |   |   |   |   |   |   |   |   |   ddev > 1.969745: clean (2.0)
|   |   |   |   |   |   |   |   |   |   |   |   |   nloc > 28: clean (9.0/1.0)
|   |   |   |   |   |   |   |   |   |   |   |   comm > 1.008141: defective (36.0)
|   |   |   |   |   |   |   |   |   |   |   adev > 1.999675
|   |   |   |   |   |   |   |   |   |   |   |   ddev <= 2.499862: clean (11.0)
|   |   |   |   |   |   |   |   |   |   |   |   ddev > 2.499862: defective (5.0/1.0)
|   |   |   |   |   |   |   |   |   nloc > 59.87081: clean (20.0)
|   |   |   |   |   |   |   mods > 1706.404898: clean (1957.0/8.0)
|   |   |   |   |   |   reml > 0
|   |   |   |   |   |   |   reml <= 0.998683: defective (488.0)
|   |   |   |   |   |   |   reml > 0.998683
|   |   |   |   |   |   |   |   addl <= 3.006744
|   |   |   |   |   |   |   |   |   mods <= 1445.381499: clean (922.0/3.0)
|   |   |   |   |   |   |   |   |   mods > 1445.381499
|   |   |   |   |   |   |   |   |   |   oexp <= 5.498026
|   |   |   |   |   |   |   |   |   |   |   nloc <= 94
|   |   |   |   |   |   |   |   |   |   |   |   exp <= 3.955909
|   |   |   |   |   |   |   |   |   |   |   |   |   exp <= 3.128612
|   |   |   |   |   |   |   |   |   |   |   |   |   |   reml <= 2.116393
|   |   |   |   |   |   |   |   |   |   |   |   |   |   |   ddev <= 2.096635: clean (15.0)
|   |   |   |   |   |   |   |   |   |   |   |   |   |   |   ddev > 2.096635
|   |   |   |   |   |   |   |   |   |   |   |   |   |   |   |   mods <= 1736.358585
|   |   |   |   |   |   |   |   |   |   |   |   |   |   |   |   |   mods <= 1572.387251: clean (4.0)
|   |   |   |   |   |   |   |   |   |   |   |   |   |   |   |   |   mods > 1572.387251: defective (8.0)
|   |   |   |   |   |   |   |   |   |   |   |   |   |   |   |   mods > 1736.358585: clean (19.0/3.0)
|   |   |   |   |   |   |   |   |   |   |   |   |   |   reml > 2.116393: defective (5.0/1.0)
|   |   |   |   |   |   |   |   |   |   |   |   |   exp > 3.128612: defective (3.0)
|   |   |   |   |   |   |   |   |   |   |   |   exp > 3.955909: clean (46.0/3.0)
|   |   |   |   |   |   |   |   |   |   |   nloc > 94: clean (135.0/2.0)
|   |   |   |   |   |   |   |   |   |   oexp > 5.498026
|   |   |   |   |   |   |   |   |   |   |   ddev <= 2.108079: clean (229.0)
|   |   |   |   |   |   |   |   |   |   |   ddev > 2.108079
|   |   |   |   |   |   |   |   |   |   |   |   modd <= 3.799668
|   |   |   |   |   |   |   |   |   |   |   |   |   adev <= 2.014681: clean (138.0/3.0)
|   |   |   |   |   |   |   |   |   |   |   |   |   adev > 2.014681
|   |   |   |   |   |   |   |   |   |   |   |   |   |   nloc <= 20: defective (7.0/1.0)
|   |   |   |   |   |   |   |   |   |   |   |   |   |   nloc > 20: clean (36.0/1.0)
|   |   |   |   |   |   |   |   |   |   |   |   modd > 3.799668: clean (144.0)
|   |   |   |   |   |   |   |   addl > 3.006744
|   |   |   |   |   |   |   |   |   addl <= 3.997331: defective (344.0)
|   |   |   |   |   |   |   |   |   addl > 3.997331
|   |   |   |   |   |   |   |   |   |   ddev <= 6.994649
|   |   |   |   |   |   |   |   |   |   |   ddev <= 6.003218
|   |   |   |   |   |   |   |   |   |   |   |   nloc <= 24972
|   |   |   |   |   |   |   |   |   |   |   |   |   mods <= 2312.82482
|   |   |   |   |   |   |   |   |   |   |   |   |   |   comm <= 1.999925
|   |   |   |   |   |   |   |   |   |   |   |   |   |   |   adev <= 1.000601
|   |   |   |   |   |   |   |   |   |   |   |   |   |   |   |   oexp <= 4.770109: defective (26.0)
|   |   |   |   |   |   |   |   |   |   |   |   |   |   |   |   oexp > 4.770109
|   |   |   |   |   |   |   |   |   |   |   |   |   |   |   |   |   reml <= 363
|   |   |   |   |   |   |   |   |   |   |   |   |   |   |   |   |   |   addl <= 4.00473
|   |   |   |   |   |   |   |   |   |   |   |   |   |   |   |   |   |   |   oexp <= 15.494593: clean (387.0/2.0)
|   |   |   |   |   |   |   |   |   |   |   |   |   |   |   |   |   |   |   oexp > 15.494593
|   |   |   |   |   |   |   |   |   |   |   |   |   |   |   |   |   |   |   |   mods <= 1490.808123: clean (22.0)
|   |   |   |   |   |   |   |   |   |   |   |   |   |   |   |   |   |   |   |   mods > 1490.808123: defective (5.0/1.0)
|   |   |   |   |   |   |   |   |   |   |   |   |   |   |   |   |   |   addl > 4.00473
|   |   |   |   |   |   |   |   |   |   |   |   |   |   |   |   |   |   |   addl <= 4.979218: defective (46.0)
|   |   |   |   |   |   |   |   |   |   |   |   |   |   |   |   |   |   |   addl > 4.979218
|   |   |   |   |   |   |   |   |   |   |   |   |   |   |   |   |   |   |   |   addl <= 5.011072: clean (288.0/3.0)
|   |   |   |   |   |   |   |   |   |   |   |   |   |   |   |   |   |   |   |   addl > 5.011072
|   |   |   |   |   |   |   |   |   |   |   |   |   |   |   |   |   |   |   |   |   addl <= 5.985205: defective (33.0)
|   |   |   |   |   |   |   |   |   |   |   |   |   |   |   |   |   |   |   |   |   addl > 5.985205
|   |   |   |   |   |   |   |   |   |   |   |   |   |   |   |   |   |   |   |   |   |   mods <= 462.499803
|   |   |   |   |   |   |   |   |   |   |   |   |   |   |   |   |   |   |   |   |   |   |   nloc <= 15.462568
|   |   |   |   |   |   |   |   |   |   |   |   |   |   |   |   |   |   |   |   |   |   |   |   modd <= 1.024599: clean (14.0)
|   |   |   |   |   |   |   |   |   |   |   |   |   |   |   |   |   |   |   |   |   |   |   |   modd > 1.024599
|   |   |   |   |   |   |   |   |   |   |   |   |   |   |   |   |   |   |   |   |   |   |   |   |   exp <= 379: defective (15.0)
|   |   |   |   |   |   |   |   |   |   |   |   |   |   |   |   |   |   |   |   |   |   |   |   |   exp > 379: clean (2.0)
|   |   |   |   |   |   |   |   |   |   |   |   |   |   |   |   |   |   |   |   |   |   |   nloc > 15.462568
|   |   |   |   |   |   |   |   |   |   |   |   |   |   |   |   |   |   |   |   |   |   |   |   addl <= 50.138276: clean (337.0)
|   |   |   |   |   |   |   |   |   |   |   |   |   |   |   |   |   |   |   |   |   |   |   |   addl > 50.138276
|   |   |   |   |   |   |   |   |   |   |   |   |   |   |   |   |   |   |   |   |   |   |   |   |   exp <= 286.293554
|   |   |   |   |   |   |   |   |   |   |   |   |   |   |   |   |   |   |   |   |   |   |   |   |   |   ddev <= 3: defective (5.0)
|   |   |   |   |   |   |   |   |   |   |   |   |   |   |   |   |   |   |   |   |   |   |   |   |   |   ddev > 3: clean (2.0)
|   |   |   |   |   |   |   |   |   |   |   |   |   |   |   |   |   |   |   |   |   |   |   |   |   exp > 286.293554
|   |   |   |   |   |   |   |   |   |   |   |   |   |   |   |   |   |   |   |   |   |   |   |   |   |   exp <= 65172.970831: clean (46.0)
|   |   |   |   |   |   |   |   |   |   |   |   |   |   |   |   |   |   |   |   |   |   |   |   |   |   exp > 65172.970831
|   |   |   |   |   |   |   |   |   |   |   |   |   |   |   |   |   |   |   |   |   |   |   |   |   |   |   oexp <= 529.188883: defective (5.0)
|   |   |   |   |   |   |   |   |   |   |   |   |   |   |   |   |   |   |   |   |   |   |   |   |   |   |   oexp > 529.188883: clean (11.0)
|   |   |   |   |   |   |   |   |   |   |   |   |   |   |   |   |   |   |   |   |   |   mods > 462.499803
|   |   |   |   |   |   |   |   |   |   |   |   |   |   |   |   |   |   |   |   |   |   |   mods <= 589.021113
|   |   |   |   |   |   |   |   |   |   |   |   |   |   |   |   |   |   |   |   |   |   |   |   mods <= 506.34625
|   |   |   |   |   |   |   |   |   |   |   |   |   |   |   |   |   |   |   |   |   |   |   |   |   reml <= 47.495502
|   |   |   |   |   |   |   |   |   |   |   |   |   |   |   |   |   |   |   |   |   |   |   |   |   |   modd <= 1.268851
|   |   |   |   |   |   |   |   |   |   |   |   |   |   |   |   |   |   |   |   |   |   |   |   |   |   |   oexp <= 41.015207
|   |   |   |   |   |   |   |   |   |   |   |   |   |   |   |   |   |   |   |   |   |   |   |   |   |   |   |   mods <= 482.50589
|   |   |   |   |   |   |   |   |   |   |   |   |   |   |   |   |   |   |   |   |   |   |   |   |   |   |   |   |   nloc <= 205.064644: clean (7.0)
|   |   |   |   |   |   |   |   |   |   |   |   |   |   |   |   |   |   |   |   |   |   |   |   |   |   |   |   |   nloc > 205.064644: defective (2.0)
|   |   |   |   |   |   |   |   |   |   |   |   |   |   |   |   |   |   |   |   |   |   |   |   |   |   |   |   mods > 482.50589: clean (59.0/1.0)
|   |   |   |   |   |   |   |   |   |   |   |   |   |   |   |   |   |   |   |   |   |   |   |   |   |   |   oexp > 41.015207
|   |   |   |   |   |   |   |   |   |   |   |   |   |   |   |   |   |   |   |   |   |   |   |   |   |   |   |   exp <= 812.061214
|   |   |   |   |   |   |   |   |   |   |   |   |   |   |   |   |   |   |   |   |   |   |   |   |   |   |   |   |   nloc <= 111.912996
|   |   |   |   |   |   |   |   |   |   |   |   |   |   |   |   |   |   |   |   |   |   |   |   |   |   |   |   |   |   oexp <= 48.742636
|   |   |   |   |   |   |   |   |   |   |   |   |   |   |   |   |   |   |   |   |   |   |   |   |   |   |   |   |   |   |   oexp <= 47.827748: defective (5.0/1.0)
|   |   |   |   |   |   |   |   |   |   |   |   |   |   |   |   |   |   |   |   |   |   |   |   |   |   |   |   |   |   |   oexp > 47.827748: clean (5.0)
|   |   |   |   |   |   |   |   |   |   |   |   |   |   |   |   |   |   |   |   |   |   |   |   |   |   |   |   |   |   oexp > 48.742636: defective (10.0/1.0)
|   |   |   |   |   |   |   |   |   |   |   |   |   |   |   |   |   |   |   |   |   |   |   |   |   |   |   |   |   nloc > 111.912996: clean (7.0)
|   |   |   |   |   |   |   |   |   |   |   |   |   |   |   |   |   |   |   |   |   |   |   |   |   |   |   |   exp > 812.061214: clean (22.0)
|   |   |   |   |   |   |   |   |   |   |   |   |   |   |   |   |   |   |   |   |   |   |   |   |   |   modd > 1.268851
|   |   |   |   |   |   |   |   |   |   |   |   |   |   |   |   |   |   |   |   |   |   |   |   |   |   |   oexp <= 44.955273: defective (6.0)
|   |   |   |   |   |   |   |   |   |   |   |   |   |   |   |   |   |   |   |   |   |   |   |   |   |   |   oexp > 44.955273: clean (2.0)
|   |   |   |   |   |   |   |   |   |   |   |   |   |   |   |   |   |   |   |   |   |   |   |   |   reml > 47.495502
|   |   |   |   |   |   |   |   |   |   |   |   |   |   |   |   |   |   |   |   |   |   |   |   |   |   oexp <= 121: defective (76.0/7.0)
|   |   |   |   |   |   |   |   |   |   |   |   |   |   |   |   |   |   |   |   |   |   |   |   |   |   oexp > 121: clean (25.0/1.0)
|   |   |   |   |   |   |   |   |   |   |   |   |   |   |   |   |   |   |   |   |   |   |   |   mods > 506.34625: defective (36.0)
|   |   |   |   |   |   |   |   |   |   |   |   |   |   |   |   |   |   |   |   |   |   |   mods > 589.021113
|   |   |   |   |   |   |   |   |   |   |   |   |   |   |   |   |   |   |   |   |   |   |   |   reml <= 5.964916
|   |   |   |   |   |   |   |   |   |   |   |   |   |   |   |   |   |   |   |   |   |   |   |   |   reml <= 1.004303
|   |   |   |   |   |   |   |   |   |   |   |   |   |   |   |   |   |   |   |   |   |   |   |   |   |   nloc <= 6.650961
|   |   |   |   |   |   |   |   |   |   |   |   |   |   |   |   |   |   |   |   |   |   |   |   |   |   |   mods <= 1403.200944: clean (3.0)
|   |   |   |   |   |   |   |   |   |   |   |   |   |   |   |   |   |   |   |   |   |   |   |   |   |   |   mods > 1403.200944: defective (5.0/1.0)
|   |   |   |   |   |   |   |   |   |   |   |   |   |   |   |   |   |   |   |   |   |   |   |   |   |   nloc > 6.650961: clean (159.0/4.0)
|   |   |   |   |   |   |   |   |   |   |   |   |   |   |   |   |   |   |   |   |   |   |   |   |   reml > 1.004303
|   |   |   |   |   |   |   |   |   |   |   |   |   |   |   |   |   |   |   |   |   |   |   |   |   |   reml <= 1.976839: defective (41.0)
|   |   |   |   |   |   |   |   |   |   |   |   |   |   |   |   |   |   |   |   |   |   |   |   |   |   reml > 1.976839
|   |   |   |   |   |   |   |   |   |   |   |   |   |   |   |   |   |   |   |   |   |   |   |   |   |   |   reml <= 2: clean (116.0/2.0)
|   |   |   |   |   |   |   |   |   |   |   |   |   |   |   |   |   |   |   |   |   |   |   |   |   |   |   reml > 2
|   |   |   |   |   |   |   |   |   |   |   |   |   |   |   |   |   |   |   |   |   |   |   |   |   |   |   |   reml <= 2.988633: defective (39.0)
|   |   |   |   |   |   |   |   |   |   |   |   |   |   |   |   |   |   |   |   |   |   |   |   |   |   |   |   reml > 2.988633
|   |   |   |   |   |   |   |   |   |   |   |   |   |   |   |   |   |   |   |   |   |   |   |   |   |   |   |   |   reml <= 5.00426
|   |   |   |   |   |   |   |   |   |   |   |   |   |   |   |   |   |   |   |   |   |   |   |   |   |   |   |   |   |   reml <= 4.993727
|   |   |   |   |   |   |   |   |   |   |   |   |   |   |   |   |   |   |   |   |   |   |   |   |   |   |   |   |   |   |   reml <= 4.013591
|   |   |   |   |   |   |   |   |   |   |   |   |   |   |   |   |   |   |   |   |   |   |   |   |   |   |   |   |   |   |   |   reml <= 3.996941
|   |   |   |   |   |   |   |   |   |   |   |   |   |   |   |   |   |   |   |   |   |   |   |   |   |   |   |   |   |   |   |   |   reml <= 3.002509
|   |   |   |   |   |   |   |   |   |   |   |   |   |   |   |   |   |   |   |   |   |   |   |   |   |   |   |   |   |   |   |   |   |   oexp <= 9.498583
|   |   |   |   |   |   |   |   |   |   |   |   |   |   |   |   |   |   |   |   |   |   |   |   |   |   |   |   |   |   |   |   |   |   |   nloc <= 172: clean (12.0/1.0)
|   |   |   |   |   |   |   |   |   |   |   |   |   |   |   |   |   |   |   |   |   |   |   |   |   |   |   |   |   |   |   |   |   |   |   nloc > 172: defective (9.0)
|   |   |   |   |   |   |   |   |   |   |   |   |   |   |   |   |   |   |   |   |   |   |   |   |   |   |   |   |   |   |   |   |   |   oexp > 9.498583: clean (80.0/1.0)
|   |   |   |   |   |   |   |   |   |   |   |   |   |   |   |   |   |   |   |   |   |   |   |   |   |   |   |   |   |   |   |   |   reml > 3.002509: defective (30.0)
|   |   |   |   |   |   |   |   |   |   |   |   |   |   |   |   |   |   |   |   |   |   |   |   |   |   |   |   |   |   |   |   reml > 3.996941: clean (79.0/4.0)
|   |   |   |   |   |   |   |   |   |   |   |   |   |   |   |   |   |   |   |   |   |   |   |   |   |   |   |   |   |   |   reml > 4.013591: defective (21.0)
|   |   |   |   |   |   |   |   |   |   |   |   |   |   |   |   |   |   |   |   |   |   |   |   |   |   |   |   |   |   reml > 4.993727: clean (71.0/2.0)
|   |   |   |   |   |   |   |   |   |   |   |   |   |   |   |   |   |   |   |   |   |   |   |   |   |   |   |   |   reml > 5.00426: defective (18.0)
|   |   |   |   |   |   |   |   |   |   |   |   |   |   |   |   |   |   |   |   |   |   |   |   reml > 5.964916
|   |   |   |   |   |   |   |   |   |   |   |   |   |   |   |   |   |   |   |   |   |   |   |   |   mods <= 657.204482
|   |   |   |   |   |   |   |   |   |   |   |   |   |   |   |   |   |   |   |   |   |   |   |   |   |   mods <= 618.019882
|   |   |   |   |   |   |   |   |   |   |   |   |   |   |   |   |   |   |   |   |   |   |   |   |   |   |   nloc <= 136.573158: clean (53.0)
|   |   |   |   |   |   |   |   |   |   |   |   |   |   |   |   |   |   |   |   |   |   |   |   |   |   |   nloc > 136.573158
|   |   |   |   |   |   |   |   |   |   |   |   |   |   |   |   |   |   |   |   |   |   |   |   |   |   |   |   reml <= 10.496989: clean (19.0)
|   |   |   |   |   |   |   |   |   |   |   |   |   |   |   |   |   |   |   |   |   |   |   |   |   |   |   |   reml > 10.496989
|   |   |   |   |   |   |   |   |   |   |   |   |   |   |   |   |   |   |   |   |   |   |   |   |   |   |   |   |   exp <= 825.116914
|   |   |   |   |   |   |   |   |   |   |   |   |   |   |   |   |   |   |   |   |   |   |   |   |   |   |   |   |   |   oexp <= 24.574842: clean (6.0)
|   |   |   |   |   |   |   |   |   |   |   |   |   |   |   |   |   |   |   |   |   |   |   |   |   |   |   |   |   |   oexp > 24.574842
|   |   |   |   |   |   |   |   |   |   |   |   |   |   |   |   |   |   |   |   |   |   |   |   |   |   |   |   |   |   |   nloc <= 355.490182: defective (21.0/1.0)
|   |   |   |   |   |   |   |   |   |   |   |   |   |   |   |   |   |   |   |   |   |   |   |   |   |   |   |   |   |   |   nloc > 355.490182: clean (9.0/2.0)
|   |   |   |   |   |   |   |   |   |   |   |   |   |   |   |   |   |   |   |   |   |   |   |   |   |   |   |   |   exp > 825.116914
|   |   |   |   |   |   |   |   |   |   |   |   |   |   |   |   |   |   |   |   |   |   |   |   |   |   |   |   |   |   addl <= 365.009363: clean (31.0)
|   |   |   |   |   |   |   |   |   |   |   |   |   |   |   |   |   |   |   |   |   |   |   |   |   |   |   |   |   |   addl > 365.009363: defective (2.0)
|   |   |   |   |   |   |   |   |   |   |   |   |   |   |   |   |   |   |   |   |   |   |   |   |   |   mods > 618.019882: defective (10.0)
|   |   |   |   |   |   |   |   |   |   |   |   |   |   |   |   |   |   |   |   |   |   |   |   |   mods > 657.204482
|   |   |   |   |   |   |   |   |   |   |   |   |   |   |   |   |   |   |   |   |   |   |   |   |   |   nloc <= 50.955799
|   |   |   |   |   |   |   |   |   |   |   |   |   |   |   |   |   |   |   |   |   |   |   |   |   |   |   mods <= 1658.487866
|   |   |   |   |   |   |   |   |   |   |   |   |   |   |   |   |   |   |   |   |   |   |   |   |   |   |   |   reml <= 18.487574
|   |   |   |   |   |   |   |   |   |   |   |   |   |   |   |   |   |   |   |   |   |   |   |   |   |   |   |   |   addl <= 15.062886
|   |   |   |   |   |   |   |   |   |   |   |   |   |   |   |   |   |   |   |   |   |   |   |   |   |   |   |   |   |   mods <= 1488.048445: clean (79.0/4.0)
|   |   |   |   |   |   |   |   |   |   |   |   |   |   |   |   |   |   |   |   |   |   |   |   |   |   |   |   |   |   mods > 1488.048445
|   |   |   |   |   |   |   |   |   |   |   |   |   |   |   |   |   |   |   |   |   |   |   |   |   |   |   |   |   |   |   modd <= 1.028098
|   |   |   |   |   |   |   |   |   |   |   |   |   |   |   |   |   |   |   |   |   |   |   |   |   |   |   |   |   |   |   |   ddev <= 2.499862: clean (14.0/1.0)
|   |   |   |   |   |   |   |   |   |   |   |   |   |   |   |   |   |   |   |   |   |   |   |   |   |   |   |   |   |   |   |   ddev > 2.499862: defective (5.0/1.0)
|   |   |   |   |   |   |   |   |   |   |   |   |   |   |   |   |   |   |   |   |   |   |   |   |   |   |   |   |   |   |   modd > 1.028098: defective (5.0)
|   |   |   |   |   |   |   |   |   |   |   |   |   |   |   |   |   |   |   |   |   |   |   |   |   |   |   |   |   addl > 15.062886
|   |   |   |   |   |   |   |   |   |   |   |   |   |   |   |   |   |   |   |   |   |   |   |   |   |   |   |   |   |   exp <= 222.718389: defective (23.0/4.0)
|   |   |   |   |   |   |   |   |   |   |   |   |   |   |   |   |   |   |   |   |   |   |   |   |   |   |   |   |   |   exp > 222.718389
|   |   |   |   |   |   |   |   |   |   |   |   |   |   |   |   |   |   |   |   |   |   |   |   |   |   |   |   |   |   |   mods <= 911.360606: clean (14.0/1.0)
|   |   |   |   |   |   |   |   |   |   |   |   |   |   |   |   |   |   |   |   |   |   |   |   |   |   |   |   |   |   |   mods > 911.360606
|   |   |   |   |   |   |   |   |   |   |   |   |   |   |   |   |   |   |   |   |   |   |   |   |   |   |   |   |   |   |   |   reml <= 10.496989: defective (5.0)
|   |   |   |   |   |   |   |   |   |   |   |   |   |   |   |   |   |   |   |   |   |   |   |   |   |   |   |   |   |   |   |   reml > 10.496989
|   |   |   |   |   |   |   |   |   |   |   |   |   |   |   |   |   |   |   |   |   |   |   |   |   |   |   |   |   |   |   |   |   ddev <= 2.499862
|   |   |   |   |   |   |   |   |   |   |   |   |   |   |   |   |   |   |   |   |   |   |   |   |   |   |   |   |   |   |   |   |   |   exp <= 307.058407: clean (4.0/1.0)
|   |   |   |   |   |   |   |   |   |   |   |   |   |   |   |   |   |   |   |   |   |   |   |   |   |   |   |   |   |   |   |   |   |   exp > 307.058407: defective (4.0)
|   |   |   |   |   |   |   |   |   |   |   |   |   |   |   |   |   |   |   |   |   |   |   |   |   |   |   |   |   |   |   |   |   ddev > 2.499862: clean (6.0)
|   |   |   |   |   |   |   |   |   |   |   |   |   |   |   |   |   |   |   |   |   |   |   |   |   |   |   |   reml > 18.487574: clean (59.0/1.0)
|   |   |   |   |   |   |   |   |   |   |   |   |   |   |   |   |   |   |   |   |   |   |   |   |   |   |   mods > 1658.487866: clean (66.0)
|   |   |   |   |   |   |   |   |   |   |   |   |   |   |   |   |   |   |   |   |   |   |   |   |   |   nloc > 50.955799: clean (657.0/27.0)
|   |   |   |   |   |   |   |   |   |   |   |   |   |   |   |   |   reml > 363
|   |   |   |   |   |   |   |   |   |   |   |   |   |   |   |   |   |   ddev <= 2.908571
|   |   |   |   |   |   |   |   |   |   |   |   |   |   |   |   |   |   |   reml <= 1949
|   |   |   |   |   |   |   |   |   |   |   |   |   |   |   |   |   |   |   |   exp <= 695286
|   |   |   |   |   |   |   |   |   |   |   |   |   |   |   |   |   |   |   |   |   ddev <= 1.279454: clean (6.0)
|   |   |   |   |   |   |   |   |   |   |   |   |   |   |   |   |   |   |   |   |   ddev > 1.279454
|   |   |   |   |   |   |   |   |   |   |   |   |   |   |   |   |   |   |   |   |   |   ddev <= 1.963448: defective (8.0)
|   |   |   |   |   |   |   |   |   |   |   |   |   |   |   |   |   |   |   |   |   |   ddev > 1.963448
|   |   |   |   |   |   |   |   |   |   |   |   |   |   |   |   |   |   |   |   |   |   |   oexp <= 943: defective (10.0/1.0)
|   |   |   |   |   |   |   |   |   |   |   |   |   |   |   |   |   |   |   |   |   |   |   oexp > 943: clean (12.0)
|   |   |   |   |   |   |   |   |   |   |   |   |   |   |   |   |   |   |   |   exp > 695286
|   |   |   |   |   |   |   |   |   |   |   |   |   |   |   |   |   |   |   |   |   oexp <= 5169
|   |   |   |   |   |   |   |   |   |   |   |   |   |   |   |   |   |   |   |   |   |   mods <= 1503.77103: defective (57.0/1.0)
|   |   |   |   |   |   |   |   |   |   |   |   |   |   |   |   |   |   |   |   |   |   mods > 1503.77103
|   |   |   |   |   |   |   |   |   |   |   |   |   |   |   |   |   |   |   |   |   |   |   mods <= 1590.84736: defective (2.0)
|   |   |   |   |   |   |   |   |   |   |   |   |   |   |   |   |   |   |   |   |   |   |   mods > 1590.84736: clean (2.0)
|   |   |   |   |   |   |   |   |   |   |   |   |   |   |   |   |   |   |   |   |   oexp > 5169: clean (4.0/1.0)
|   |   |   |   |   |   |   |   |   |   |   |   |   |   |   |   |   |   |   reml > 1949: clean (17.0)
|   |   |   |   |   |   |   |   |   |   |   |   |   |   |   |   |   |   ddev > 2.908571: clean (39.0)
|   |   |   |   |   |   |   |   |   |   |   |   |   |   |   adev > 1.000601: defective (354.0)
|   |   |   |   |   |   |   |   |   |   |   |   |   |   comm > 1.999925
|   |   |   |   |   |   |   |   |   |   |   |   |   |   |   adev <= 1.991739: defective (66.0)
|   |   |   |   |   |   |   |   |   |   |   |   |   |   |   adev > 1.991739
|   |   |   |   |   |   |   |   |   |   |   |   |   |   |   |   modd <= 1.996664: defective (31.0)
|   |   |   |   |   |   |   |   |   |   |   |   |   |   |   |   modd > 1.996664
|   |   |   |   |   |   |   |   |   |   |   |   |   |   |   |   |   comm <= 2.025911
|   |   |   |   |   |   |   |   |   |   |   |   |   |   |   |   |   |   oexp <= 13.997219
|   |   |   |   |   |   |   |   |   |   |   |   |   |   |   |   |   |   |   mods <= 1454.045846: clean (128.0/2.0)
|   |   |   |   |   |   |   |   |   |   |   |   |   |   |   |   |   |   |   mods > 1454.045846
|   |   |   |   |   |   |   |   |   |   |   |   |   |   |   |   |   |   |   |   mods <= 1571.425739
|   |   |   |   |   |   |   |   |   |   |   |   |   |   |   |   |   |   |   |   |   ddev <= 2.773057
|   |   |   |   |   |   |   |   |   |   |   |   |   |   |   |   |   |   |   |   |   |   oexp <= 10.97058: defective (17.0)
|   |   |   |   |   |   |   |   |   |   |   |   |   |   |   |   |   |   |   |   |   |   oexp > 10.97058
|   |   |   |   |   |   |   |   |   |   |   |   |   |   |   |   |   |   |   |   |   |   |   mods <= 1456.284033: defective (5.0)
|   |   |   |   |   |   |   |   |   |   |   |   |   |   |   |   |   |   |   |   |   |   |   mods > 1456.284033: clean (4.0)
|   |   |   |   |   |   |   |   |   |   |   |   |   |   |   |   |   |   |   |   |   ddev > 2.773057: clean (2.0)
|   |   |   |   |   |   |   |   |   |   |   |   |   |   |   |   |   |   |   |   mods > 1571.425739
|   |   |   |   |   |   |   |   |   |   |   |   |   |   |   |   |   |   |   |   |   ddev <= 4.128433
|   |   |   |   |   |   |   |   |   |   |   |   |   |   |   |   |   |   |   |   |   |   exp <= 43: clean (46.0)
|   |   |   |   |   |   |   |   |   |   |   |   |   |   |   |   |   |   |   |   |   |   exp > 43
|   |   |   |   |   |   |   |   |   |   |   |   |   |   |   |   |   |   |   |   |   |   |   addl <= 14.497147: defective (2.0)
|   |   |   |   |   |   |   |   |   |   |   |   |   |   |   |   |   |   |   |   |   |   |   addl > 14.497147: clean (6.0)
|   |   |   |   |   |   |   |   |   |   |   |   |   |   |   |   |   |   |   |   |   ddev > 4.128433
|   |   |   |   |   |   |   |   |   |   |   |   |   |   |   |   |   |   |   |   |   |   mods <= 1774.386952: defective (4.0)
|   |   |   |   |   |   |   |   |   |   |   |   |   |   |   |   |   |   |   |   |   |   mods > 1774.386952: clean (12.0)
|   |   |   |   |   |   |   |   |   |   |   |   |   |   |   |   |   |   oexp > 13.997219
|   |   |   |   |   |   |   |   |   |   |   |   |   |   |   |   |   |   |   mods <= 2301.774549
|   |   |   |   |   |   |   |   |   |   |   |   |   |   |   |   |   |   |   |   exp <= 7.64038
|   |   |   |   |   |   |   |   |   |   |   |   |   |   |   |   |   |   |   |   |   mods <= 1459.296827
|   |   |   |   |   |   |   |   |   |   |   |   |   |   |   |   |   |   |   |   |   |   nloc <= 64.495388
|   |   |   |   |   |   |   |   |   |   |   |   |   |   |   |   |   |   |   |   |   |   |   reml <= 23.499637
|   |   |   |   |   |   |   |   |   |   |   |   |   |   |   |   |   |   |   |   |   |   |   |   mods <= 1454.817333: clean (52.0/4.0)
|   |   |   |   |   |   |   |   |   |   |   |   |   |   |   |   |   |   |   |   |   |   |   |   mods > 1454.817333
|   |   |   |   |   |   |   |   |   |   |   |   |   |   |   |   |   |   |   |   |   |   |   |   |   nloc <= 14.116722: clean (8.0/1.0)
|   |   |   |   |   |   |   |   |   |   |   |   |   |   |   |   |   |   |   |   |   |   |   |   |   nloc > 14.116722: defective (7.0/1.0)
|   |   |   |   |   |   |   |   |   |   |   |   |   |   |   |   |   |   |   |   |   |   |   reml > 23.499637: defective (9.0/1.0)
|   |   |   |   |   |   |   |   |   |   |   |   |   |   |   |   |   |   |   |   |   |   nloc > 64.495388: clean (97.0/2.0)
|   |   |   |   |   |   |   |   |   |   |   |   |   |   |   |   |   |   |   |   |   mods > 1459.296827: clean (120.0/1.0)
|   |   |   |   |   |   |   |   |   |   |   |   |   |   |   |   |   |   |   |   exp > 7.64038
|   |   |   |   |   |   |   |   |   |   |   |   |   |   |   |   |   |   |   |   |   addl <= 303.728169: clean (1459.0/10.0)
|   |   |   |   |   |   |   |   |   |   |   |   |   |   |   |   |   |   |   |   |   addl > 303.728169
|   |   |   |   |   |   |   |   |   |   |   |   |   |   |   |   |   |   |   |   |   |   nloc <= 615.419694
|   |   |   |   |   |   |   |   |   |   |   |   |   |   |   |   |   |   |   |   |   |   |   nloc <= 526.49197: clean (8.0)
|   |   |   |   |   |   |   |   |   |   |   |   |   |   |   |   |   |   |   |   |   |   |   nloc > 526.49197: defective (6.0)
|   |   |   |   |   |   |   |   |   |   |   |   |   |   |   |   |   |   |   |   |   |   nloc > 615.419694: clean (57.0)
|   |   |   |   |   |   |   |   |   |   |   |   |   |   |   |   |   |   |   mods > 2301.774549
|   |   |   |   |   |   |   |   |   |   |   |   |   |   |   |   |   |   |   |   ddev <= 3.731138
|   |   |   |   |   |   |   |   |   |   |   |   |   |   |   |   |   |   |   |   |   ddev <= 3.064095
|   |   |   |   |   |   |   |   |   |   |   |   |   |   |   |   |   |   |   |   |   |   reml <= 9.783239: clean (7.0)
|   |   |   |   |   |   |   |   |   |   |   |   |   |   |   |   |   |   |   |   |   |   reml > 9.783239: defective (2.0)
|   |   |   |   |   |   |   |   |   |   |   |   |   |   |   |   |   |   |   |   |   ddev > 3.064095: defective (5.0)
|   |   |   |   |   |   |   |   |   |   |   |   |   |   |   |   |   |   |   |   ddev > 3.731138: clean (35.0/1.0)
|   |   |   |   |   |   |   |   |   |   |   |   |   |   |   |   |   comm > 2.025911
|   |   |   |   |   |   |   |   |   |   |   |   |   |   |   |   |   |   comm <= 2.997517: defective (122.0)
|   |   |   |   |   |   |   |   |   |   |   |   |   |   |   |   |   |   comm > 2.997517
|   |   |   |   |   |   |   |   |   |   |   |   |   |   |   |   |   |   |   adev <= 2.997706: defective (28.0)
|   |   |   |   |   |   |   |   |   |   |   |   |   |   |   |   |   |   |   adev > 2.997706
|   |   |   |   |   |   |   |   |   |   |   |   |   |   |   |   |   |   |   |   mods <= 171.483114
|   |   |   |   |   |   |   |   |   |   |   |   |   |   |   |   |   |   |   |   |   ddev <= 1.972098
|   |   |   |   |   |   |   |   |   |   |   |   |   |   |   |   |   |   |   |   |   |   exp <= 14.668734: defective (26.0/2.0)
|   |   |   |   |   |   |   |   |   |   |   |   |   |   |   |   |   |   |   |   |   |   exp > 14.668734: clean (8.0)
|   |   |   |   |   |   |   |   |   |   |   |   |   |   |   |   |   |   |   |   |   ddev > 1.972098: clean (48.0/3.0)
|   |   |   |   |   |   |   |   |   |   |   |   |   |   |   |   |   |   |   |   mods > 171.483114
|   |   |   |   |   |   |   |   |   |   |   |   |   |   |   |   |   |   |   |   |   comm <= 3.00161: clean (900.0/15.0)
|   |   |   |   |   |   |   |   |   |   |   |   |   |   |   |   |   |   |   |   |   comm > 3.00161
|   |   |   |   |   |   |   |   |   |   |   |   |   |   |   |   |   |   |   |   |   |   adev <= 3.98639: defective (66.0)
|   |   |   |   |   |   |   |   |   |   |   |   |   |   |   |   |   |   |   |   |   |   adev > 3.98639
|   |   |   |   |   |   |   |   |   |   |   |   |   |   |   |   |   |   |   |   |   |   |   comm <= 13.247711
|   |   |   |   |   |   |   |   |   |   |   |   |   |   |   |   |   |   |   |   |   |   |   |   modd <= 14.259049
|   |   |   |   |   |   |   |   |   |   |   |   |   |   |   |   |   |   |   |   |   |   |   |   |   ddev <= 1.944559
|   |   |   |   |   |   |   |   |   |   |   |   |   |   |   |   |   |   |   |   |   |   |   |   |   |   nloc <= 56.471252: clean (162.0/1.0)
|   |   |   |   |   |   |   |   |   |   |   |   |   |   |   |   |   |   |   |   |   |   |   |   |   |   nloc > 56.471252
|   |   |   |   |   |   |   |   |   |   |   |   |   |   |   |   |   |   |   |   |   |   |   |   |   |   |   ddev <= 1.041018
|   |   |   |   |   |   |   |   |   |   |   |   |   |   |   |   |   |   |   |   |   |   |   |   |   |   |   |   mods <= 1171.808001
|   |   |   |   |   |   |   |   |   |   |   |   |   |   |   |   |   |   |   |   |   |   |   |   |   |   |   |   |   comm <= 3.831363: defective (5.0)
|   |   |   |   |   |   |   |   |   |   |   |   |   |   |   |   |   |   |   |   |   |   |   |   |   |   |   |   |   comm > 3.831363
|   |   |   |   |   |   |   |   |   |   |   |   |   |   |   |   |   |   |   |   |   |   |   |   |   |   |   |   |   |   mods <= 1092.817604: clean (74.0/2.0)
|   |   |   |   |   |   |   |   |   |   |   |   |   |   |   |   |   |   |   |   |   |   |   |   |   |   |   |   |   |   mods > 1092.817604: defective (5.0/1.0)
|   |   |   |   |   |   |   |   |   |   |   |   |   |   |   |   |   |   |   |   |   |   |   |   |   |   |   |   mods > 1171.808001
|   |   |   |   |   |   |   |   |   |   |   |   |   |   |   |   |   |   |   |   |   |   |   |   |   |   |   |   |   exp <= 97.174733: clean (59.0)
|   |   |   |   |   |   |   |   |   |   |   |   |   |   |   |   |   |   |   |   |   |   |   |   |   |   |   |   |   exp > 97.174733
|   |   |   |   |   |   |   |   |   |   |   |   |   |   |   |   |   |   |   |   |   |   |   |   |   |   |   |   |   |   nloc <= 92: defective (6.0)
|   |   |   |   |   |   |   |   |   |   |   |   |   |   |   |   |   |   |   |   |   |   |   |   |   |   |   |   |   |   nloc > 92
|   |   |   |   |   |   |   |   |   |   |   |   |   |   |   |   |   |   |   |   |   |   |   |   |   |   |   |   |   |   |   nloc <= 5646.912298: clean (33.0/1.0)
|   |   |   |   |   |   |   |   |   |   |   |   |   |   |   |   |   |   |   |   |   |   |   |   |   |   |   |   |   |   |   nloc > 5646.912298: defective (4.0/1.0)
|   |   |   |   |   |   |   |   |   |   |   |   |   |   |   |   |   |   |   |   |   |   |   |   |   |   |   ddev > 1.041018: defective (15.0)
|   |   |   |   |   |   |   |   |   |   |   |   |   |   |   |   |   |   |   |   |   |   |   |   |   ddev > 1.944559
|   |   |   |   |   |   |   |   |   |   |   |   |   |   |   |   |   |   |   |   |   |   |   |   |   |   adev <= 8.087091
|   |   |   |   |   |   |   |   |   |   |   |   |   |   |   |   |   |   |   |   |   |   |   |   |   |   |   comm <= 4.880468
|   |   |   |   |   |   |   |   |   |   |   |   |   |   |   |   |   |   |   |   |   |   |   |   |   |   |   |   modd <= 4.239169: clean (341.0/11.0)
|   |   |   |   |   |   |   |   |   |   |   |   |   |   |   |   |   |   |   |   |   |   |   |   |   |   |   |   modd > 4.239169
|   |   |   |   |   |   |   |   |   |   |   |   |   |   |   |   |   |   |   |   |   |   |   |   |   |   |   |   |   adev <= 4.217486: clean (51.0/1.0)
|   |   |   |   |   |   |   |   |   |   |   |   |   |   |   |   |   |   |   |   |   |   |   |   |   |   |   |   |   adev > 4.217486: defective (7.0)
|   |   |   |   |   |   |   |   |   |   |   |   |   |   |   |   |   |   |   |   |   |   |   |   |   |   |   comm > 4.880468: clean (749.0/13.0)
|   |   |   |   |   |   |   |   |   |   |   |   |   |   |   |   |   |   |   |   |   |   |   |   |   |   adev > 8.087091
|   |   |   |   |   |   |   |   |   |   |   |   |   |   |   |   |   |   |   |   |   |   |   |   |   |   |   modd <= 8.997893: defective (11.0)
|   |   |   |   |   |   |   |   |   |   |   |   |   |   |   |   |   |   |   |   |   |   |   |   |   |   |   modd > 8.997893: clean (262.0/3.0)
|   |   |   |   |   |   |   |   |   |   |   |   |   |   |   |   |   |   |   |   |   |   |   |   modd > 14.259049
|   |   |   |   |   |   |   |   |   |   |   |   |   |   |   |   |   |   |   |   |   |   |   |   |   adev <= 14.119345
|   |   |   |   |   |   |   |   |   |   |   |   |   |   |   |   |   |   |   |   |   |   |   |   |   |   nloc <= 119.121768: clean (23.0)
|   |   |   |   |   |   |   |   |   |   |   |   |   |   |   |   |   |   |   |   |   |   |   |   |   |   nloc > 119.121768
|   |   |   |   |   |   |   |   |   |   |   |   |   |   |   |   |   |   |   |   |   |   |   |   |   |   |   adev <= 8.135035: clean (4.0)
|   |   |   |   |   |   |   |   |   |   |   |   |   |   |   |   |   |   |   |   |   |   |   |   |   |   |   adev > 8.135035
|   |   |   |   |   |   |   |   |   |   |   |   |   |   |   |   |   |   |   |   |   |   |   |   |   |   |   |   comm <= 9.490533: defective (4.0)
|   |   |   |   |   |   |   |   |   |   |   |   |   |   |   |   |   |   |   |   |   |   |   |   |   |   |   |   comm > 9.490533: clean (3.0)
|   |   |   |   |   |   |   |   |   |   |   |   |   |   |   |   |   |   |   |   |   |   |   |   |   adev > 14.119345: defective (8.0)
|   |   |   |   |   |   |   |   |   |   |   |   |   |   |   |   |   |   |   |   |   |   |   comm > 13.247711
|   |   |   |   |   |   |   |   |   |   |   |   |   |   |   |   |   |   |   |   |   |   |   |   modd <= 13.823839: defective (23.0)
|   |   |   |   |   |   |   |   |   |   |   |   |   |   |   |   |   |   |   |   |   |   |   |   modd > 13.823839
|   |   |   |   |   |   |   |   |   |   |   |   |   |   |   |   |   |   |   |   |   |   |   |   |   nloc <= 102.728248
|   |   |   |   |   |   |   |   |   |   |   |   |   |   |   |   |   |   |   |   |   |   |   |   |   |   adev <= 13.003508: defective (4.0)
|   |   |   |   |   |   |   |   |   |   |   |   |   |   |   |   |   |   |   |   |   |   |   |   |   |   adev > 13.003508
|   |   |   |   |   |   |   |   |   |   |   |   |   |   |   |   |   |   |   |   |   |   |   |   |   |   |   ddev <= 5.815886
|   |   |   |   |   |   |   |   |   |   |   |   |   |   |   |   |   |   |   |   |   |   |   |   |   |   |   |   ddev <= 5.189156
|   |   |   |   |   |   |   |   |   |   |   |   |   |   |   |   |   |   |   |   |   |   |   |   |   |   |   |   |   mods <= 1317.679633: clean (16.0)
|   |   |   |   |   |   |   |   |   |   |   |   |   |   |   |   |   |   |   |   |   |   |   |   |   |   |   |   |   mods > 1317.679633
|   |   |   |   |   |   |   |   |   |   |   |   |   |   |   |   |   |   |   |   |   |   |   |   |   |   |   |   |   |   mods <= 1569.820287: defective (9.0/1.0)
|   |   |   |   |   |   |   |   |   |   |   |   |   |   |   |   |   |   |   |   |   |   |   |   |   |   |   |   |   |   mods > 1569.820287: clean (18.0/1.0)
|   |   |   |   |   |   |   |   |   |   |   |   |   |   |   |   |   |   |   |   |   |   |   |   |   |   |   |   ddev > 5.189156: defective (4.0)
|   |   |   |   |   |   |   |   |   |   |   |   |   |   |   |   |   |   |   |   |   |   |   |   |   |   |   ddev > 5.815886: clean (8.0)
|   |   |   |   |   |   |   |   |   |   |   |   |   |   |   |   |   |   |   |   |   |   |   |   |   nloc > 102.728248
|   |   |   |   |   |   |   |   |   |   |   |   |   |   |   |   |   |   |   |   |   |   |   |   |   |   mods <= 488.498763
|   |   |   |   |   |   |   |   |   |   |   |   |   |   |   |   |   |   |   |   |   |   |   |   |   |   |   comm <= 29.827951: clean (13.0)
|   |   |   |   |   |   |   |   |   |   |   |   |   |   |   |   |   |   |   |   |   |   |   |   |   |   |   comm > 29.827951
|   |   |   |   |   |   |   |   |   |   |   |   |   |   |   |   |   |   |   |   |   |   |   |   |   |   |   |   oexp <= 474: defective (5.0)
|   |   |   |   |   |   |   |   |   |   |   |   |   |   |   |   |   |   |   |   |   |   |   |   |   |   |   |   oexp > 474: clean (3.0)
|   |   |   |   |   |   |   |   |   |   |   |   |   |   |   |   |   |   |   |   |   |   |   |   |   |   mods > 488.498763
|   |   |   |   |   |   |   |   |   |   |   |   |   |   |   |   |   |   |   |   |   |   |   |   |   |   |   nloc <= 10877: clean (231.0/3.0)
|   |   |   |   |   |   |   |   |   |   |   |   |   |   |   |   |   |   |   |   |   |   |   |   |   |   |   nloc > 10877
|   |   |   |   |   |   |   |   |   |   |   |   |   |   |   |   |   |   |   |   |   |   |   |   |   |   |   |   ddev <= 1.591349: defective (2.0)
|   |   |   |   |   |   |   |   |   |   |   |   |   |   |   |   |   |   |   |   |   |   |   |   |   |   |   |   ddev > 1.591349
|   |   |   |   |   |   |   |   |   |   |   |   |   |   |   |   |   |   |   |   |   |   |   |   |   |   |   |   |   adev <= 11.925971: defective (2.0)
|   |   |   |   |   |   |   |   |   |   |   |   |   |   |   |   |   |   |   |   |   |   |   |   |   |   |   |   |   adev > 11.925971: clean (10.0/1.0)
|   |   |   |   |   |   |   |   |   |   |   |   |   mods > 2312.82482
|   |   |   |   |   |   |   |   |   |   |   |   |   |   mods <= 2448.825767: defective (72.0)
|   |   |   |   |   |   |   |   |   |   |   |   |   |   mods > 2448.825767
|   |   |   |   |   |   |   |   |   |   |   |   |   |   |   nloc <= 449.77013
|   |   |   |   |   |   |   |   |   |   |   |   |   |   |   |   reml <= 2.884884
|   |   |   |   |   |   |   |   |   |   |   |   |   |   |   |   |   ddev <= 1.910432
|   |   |   |   |   |   |   |   |   |   |   |   |   |   |   |   |   |   oexp <= 24.499127
|   |   |   |   |   |   |   |   |   |   |   |   |   |   |   |   |   |   |   comm <= 1.004737: clean (4.0)
|   |   |   |   |   |   |   |   |   |   |   |   |   |   |   |   |   |   |   comm > 1.004737: defective (21.0/1.0)
|   |   |   |   |   |   |   |   |   |   |   |   |   |   |   |   |   |   oexp > 24.499127: clean (8.0)
|   |   |   |   |   |   |   |   |   |   |   |   |   |   |   |   |   ddev > 1.910432
|   |   |   |   |   |   |   |   |   |   |   |   |   |   |   |   |   |   ddev <= 3.026286: clean (60.0/1.0)
|   |   |   |   |   |   |   |   |   |   |   |   |   |   |   |   |   |   ddev > 3.026286
|   |   |   |   |   |   |   |   |   |   |   |   |   |   |   |   |   |   |   reml <= 2.12542
|   |   |   |   |   |   |   |   |   |   |   |   |   |   |   |   |   |   |   |   ddev <= 3.790502: defective (2.0)
|   |   |   |   |   |   |   |   |   |   |   |   |   |   |   |   |   |   |   |   ddev > 3.790502: clean (25.0/2.0)
|   |   |   |   |   |   |   |   |   |   |   |   |   |   |   |   |   |   |   reml > 2.12542: defective (3.0)
|   |   |   |   |   |   |   |   |   |   |   |   |   |   |   |   reml > 2.884884: clean (168.0)
|   |   |   |   |   |   |   |   |   |   |   |   |   |   |   nloc > 449.77013
|   |   |   |   |   |   |   |   |   |   |   |   |   |   |   |   ddev <= 3.973116
|   |   |   |   |   |   |   |   |   |   |   |   |   |   |   |   |   ddev <= 3.000481
|   |   |   |   |   |   |   |   |   |   |   |   |   |   |   |   |   |   ddev <= 2.994748
|   |   |   |   |   |   |   |   |   |   |   |   |   |   |   |   |   |   |   ddev <= 2.018755
|   |   |   |   |   |   |   |   |   |   |   |   |   |   |   |   |   |   |   |   ddev <= 1.978485
|   |   |   |   |   |   |   |   |   |   |   |   |   |   |   |   |   |   |   |   |   comm <= 1.068471: clean (2.0)
|   |   |   |   |   |   |   |   |   |   |   |   |   |   |   |   |   |   |   |   |   comm > 1.068471: defective (36.0)
|   |   |   |   |   |   |   |   |   |   |   |   |   |   |   |   |   |   |   |   ddev > 1.978485
|   |   |   |   |   |   |   |   |   |   |   |   |   |   |   |   |   |   |   |   |   mods <= 2456.513039: defective (7.0/1.0)
|   |   |   |   |   |   |   |   |   |   |   |   |   |   |   |   |   |   |   |   |   mods > 2456.513039: clean (31.0/3.0)
|   |   |   |   |   |   |   |   |   |   |   |   |   |   |   |   |   |   |   ddev > 2.018755: defective (74.0)
|   |   |   |   |   |   |   |   |   |   |   |   |   |   |   |   |   |   ddev > 2.994748
|   |   |   |   |   |   |   |   |   |   |   |   |   |   |   |   |   |   |   oexp <= 92.224953
|   |   |   |   |   |   |   |   |   |   |   |   |   |   |   |   |   |   |   |   mods <= 2454.499259: clean (5.0)
|   |   |   |   |   |   |   |   |   |   |   |   |   |   |   |   |   |   |   |   mods > 2454.499259
|   |   |   |   |   |   |   |   |   |   |   |   |   |   |   |   |   |   |   |   |   nloc <= 1223
|   |   |   |   |   |   |   |   |   |   |   |   |   |   |   |   |   |   |   |   |   |   nloc <= 1099.523047: clean (19.0/1.0)
|   |   |   |   |   |   |   |   |   |   |   |   |   |   |   |   |   |   |   |   |   |   nloc > 1099.523047: defective (8.0/1.0)
|   |   |   |   |   |   |   |   |   |   |   |   |   |   |   |   |   |   |   |   |   nloc > 1223: clean (10.0)
|   |   |   |   |   |   |   |   |   |   |   |   |   |   |   |   |   |   |   oexp > 92.224953: defective (19.0/1.0)
|   |   |   |   |   |   |   |   |   |   |   |   |   |   |   |   |   ddev > 3.000481: defective (38.0)
|   |   |   |   |   |   |   |   |   |   |   |   |   |   |   |   ddev > 3.973116
|   |   |   |   |   |   |   |   |   |   |   |   |   |   |   |   |   ddev <= 4.02533: clean (53.0/1.0)
|   |   |   |   |   |   |   |   |   |   |   |   |   |   |   |   |   ddev > 4.02533
|   |   |   |   |   |   |   |   |   |   |   |   |   |   |   |   |   |   ddev <= 4.971903: defective (23.0)
|   |   |   |   |   |   |   |   |   |   |   |   |   |   |   |   |   |   ddev > 4.971903
|   |   |   |   |   |   |   |   |   |   |   |   |   |   |   |   |   |   |   ddev <= 5.002864: clean (44.0/1.0)
|   |   |   |   |   |   |   |   |   |   |   |   |   |   |   |   |   |   |   ddev > 5.002864
|   |   |   |   |   |   |   |   |   |   |   |   |   |   |   |   |   |   |   |   ddev <= 5.988504: defective (28.0)
|   |   |   |   |   |   |   |   |   |   |   |   |   |   |   |   |   |   |   |   ddev > 5.988504
|   |   |   |   |   |   |   |   |   |   |   |   |   |   |   |   |   |   |   |   |   exp <= 4.499656
|   |   |   |   |   |   |   |   |   |   |   |   |   |   |   |   |   |   |   |   |   |   modd <= 3.499886: defective (3.0)
|   |   |   |   |   |   |   |   |   |   |   |   |   |   |   |   |   |   |   |   |   |   modd > 3.499886: clean (8.0/1.0)
|   |   |   |   |   |   |   |   |   |   |   |   |   |   |   |   |   |   |   |   |   exp > 4.499656: clean (33.0)
|   |   |   |   |   |   |   |   |   |   |   |   nloc > 24972
|   |   |   |   |   |   |   |   |   |   |   |   |   mods <= 1062.992428: clean (11.0)
|   |   |   |   |   |   |   |   |   |   |   |   |   mods > 1062.992428
|   |   |   |   |   |   |   |   |   |   |   |   |   |   mods <= 2453.174276
|   |   |   |   |   |   |   |   |   |   |   |   |   |   |   addl <= 965.391718
|   |   |   |   |   |   |   |   |   |   |   |   |   |   |   |   addl <= 64.508077
|   |   |   |   |   |   |   |   |   |   |   |   |   |   |   |   |   ddev <= 1.327051: clean (2.0)
|   |   |   |   |   |   |   |   |   |   |   |   |   |   |   |   |   ddev > 1.327051: defective (5.0)
|   |   |   |   |   |   |   |   |   |   |   |   |   |   |   |   addl > 64.508077: defective (75.0)
|   |   |   |   |   |   |   |   |   |   |   |   |   |   |   addl > 965.391718
|   |   |   |   |   |   |   |   |   |   |   |   |   |   |   |   comm <= 7.001915: clean (3.0)
|   |   |   |   |   |   |   |   |   |   |   |   |   |   |   |   comm > 7.001915: defective (3.0/1.0)
|   |   |   |   |   |   |   |   |   |   |   |   |   |   mods > 2453.174276: clean (5.0)
|   |   |   |   |   |   |   |   |   |   |   ddev > 6.003218: defective (68.0)
|   |   |   |   |   |   |   |   |   |   ddev > 6.994649
|   |   |   |   |   |   |   |   |   |   |   nloc <= 1741.909102
|   |   |   |   |   |   |   |   |   |   |   |   reml <= 61.644697
|   |   |   |   |   |   |   |   |   |   |   |   |   addl <= 4.126094: clean (235.0)
|   |   |   |   |   |   |   |   |   |   |   |   |   addl > 4.126094
|   |   |   |   |   |   |   |   |   |   |   |   |   |   reml <= 1.954061
|   |   |   |   |   |   |   |   |   |   |   |   |   |   |   reml <= 1.129475
|   |   |   |   |   |   |   |   |   |   |   |   |   |   |   |   nloc <= 72.313009
|   |   |   |   |   |   |   |   |   |   |   |   |   |   |   |   |   modd <= 3.199959: clean (11.0)
|   |   |   |   |   |   |   |   |   |   |   |   |   |   |   |   |   modd > 3.199959
|   |   |   |   |   |   |   |   |   |   |   |   |   |   |   |   |   |   ddev <= 7.496436: clean (3.0)
|   |   |   |   |   |   |   |   |   |   |   |   |   |   |   |   |   |   ddev > 7.496436
|   |   |   |   |   |   |   |   |   |   |   |   |   |   |   |   |   |   |   modd <= 16.301851: defective (10.0)
|   |   |   |   |   |   |   |   |   |   |   |   |   |   |   |   |   |   |   modd > 16.301851: clean (3.0/1.0)
|   |   |   |   |   |   |   |   |   |   |   |   |   |   |   |   nloc > 72.313009: clean (163.0/9.0)
|   |   |   |   |   |   |   |   |   |   |   |   |   |   |   reml > 1.129475: defective (10.0)
|   |   |   |   |   |   |   |   |   |   |   |   |   |   reml > 1.954061
|   |   |   |   |   |   |   |   |   |   |   |   |   |   |   mods <= 2467.933651
|   |   |   |   |   |   |   |   |   |   |   |   |   |   |   |   reml <= 5.995286
|   |   |   |   |   |   |   |   |   |   |   |   |   |   |   |   |   reml <= 3.003345: clean (244.0/6.0)
|   |   |   |   |   |   |   |   |   |   |   |   |   |   |   |   |   reml > 3.003345
|   |   |   |   |   |   |   |   |   |   |   |   |   |   |   |   |   |   reml <= 3.97331: defective (10.0)
|   |   |   |   |   |   |   |   |   |   |   |   |   |   |   |   |   |   reml > 3.97331
|   |   |   |   |   |   |   |   |   |   |   |   |   |   |   |   |   |   |   reml <= 5.027764
|   |   |   |   |   |   |   |   |   |   |   |   |   |   |   |   |   |   |   |   nloc <= 35.391424
|   |   |   |   |   |   |   |   |   |   |   |   |   |   |   |   |   |   |   |   |   comm <= 8.164534: defective (4.0/1.0)
|   |   |   |   |   |   |   |   |   |   |   |   |   |   |   |   |   |   |   |   |   comm > 8.164534: clean (4.0)
|   |   |   |   |   |   |   |   |   |   |   |   |   |   |   |   |   |   |   |   nloc > 35.391424: clean (180.0/2.0)
|   |   |   |   |   |   |   |   |   |   |   |   |   |   |   |   |   |   |   reml > 5.027764: defective (6.0)
|   |   |   |   |   |   |   |   |   |   |   |   |   |   |   |   reml > 5.995286: clean (557.0/10.0)
|   |   |   |   |   |   |   |   |   |   |   |   |   |   |   mods > 2467.933651
|   |   |   |   |   |   |   |   |   |   |   |   |   |   |   |   mods <= 2559.491662: defective (8.0)
|   |   |   |   |   |   |   |   |   |   |   |   |   |   |   |   mods > 2559.491662: clean (87.0/5.0)
|   |   |   |   |   |   |   |   |   |   |   |   reml > 61.644697
|   |   |   |   |   |   |   |   |   |   |   |   |   ddev <= 10.645881: clean (39.0/1.0)
|   |   |   |   |   |   |   |   |   |   |   |   |   ddev > 10.645881
|   |   |   |   |   |   |   |   |   |   |   |   |   |   exp <= 262.513813
|   |   |   |   |   |   |   |   |   |   |   |   |   |   |   comm <= 9.497427: defective (13.0)
|   |   |   |   |   |   |   |   |   |   |   |   |   |   |   comm > 9.497427: clean (3.0)
|   |   |   |   |   |   |   |   |   |   |   |   |   |   exp > 262.513813: clean (11.0)
|   |   |   |   |   |   |   |   |   |   |   nloc > 1741.909102: clean (650.0/1.0)
|   |   |   mods > 2633.307914: clean (4038.0/1.0)
|   |   cyco > 0
|   |   |   cyco <= 0.999841: defective (1036.0)
|   |   |   cyco > 0.999841
|   |   |   |   addl <= 2
|   |   |   |   |   exp <= 1.999837
|   |   |   |   |   |   exp <= 1.003432
|   |   |   |   |   |   |   nloc <= 38.82589
|   |   |   |   |   |   |   |   nloc <= 32: clean (12.0)
|   |   |   |   |   |   |   |   nloc > 32
|   |   |   |   |   |   |   |   |   comm <= 2.499919: clean (4.0)
|   |   |   |   |   |   |   |   |   comm > 2.499919: defective (73.0/1.0)
|   |   |   |   |   |   |   nloc > 38.82589
|   |   |   |   |   |   |   |   mods <= 2119.365132: clean (280.0)
|   |   |   |   |   |   |   |   mods > 2119.365132
|   |   |   |   |   |   |   |   |   mods <= 2241.090468
|   |   |   |   |   |   |   |   |   |   mods <= 2190.907864
|   |   |   |   |   |   |   |   |   |   |   ddev <= 1.92859
|   |   |   |   |   |   |   |   |   |   |   |   comm <= 3.499355: clean (4.0)
|   |   |   |   |   |   |   |   |   |   |   |   comm > 3.499355: defective (3.0)
|   |   |   |   |   |   |   |   |   |   |   ddev > 1.92859: clean (11.0/1.0)
|   |   |   |   |   |   |   |   |   |   mods > 2190.907864: defective (9.0)
|   |   |   |   |   |   |   |   |   mods > 2241.090468: clean (75.0/2.0)
|   |   |   |   |   |   exp > 1.003432: defective (49.0)
|   |   |   |   |   exp > 1.999837
|   |   |   |   |   |   reml <= 1.970345
|   |   |   |   |   |   |   reml <= 1.021147
|   |   |   |   |   |   |   |   mods <= 1110.855281: clean (341.0/2.0)
|   |   |   |   |   |   |   |   mods > 1110.855281
|   |   |   |   |   |   |   |   |   mods <= 1695.994729
|   |   |   |   |   |   |   |   |   |   nloc <= 53.495829
|   |   |   |   |   |   |   |   |   |   |   reml <= 0.941749
|   |   |   |   |   |   |   |   |   |   |   |   comm <= 1.499881
|   |   |   |   |   |   |   |   |   |   |   |   |   ddev <= 1.499691: clean (2.0)
|   |   |   |   |   |   |   |   |   |   |   |   |   ddev > 1.499691: defective (16.0/1.0)
|   |   |   |   |   |   |   |   |   |   |   |   comm > 1.499881: clean (3.0)
|   |   |   |   |   |   |   |   |   |   |   reml > 0.941749: clean (12.0)
|   |   |   |   |   |   |   |   |   |   nloc > 53.495829
|   |   |   |   |   |   |   |   |   |   |   oexp <= 13.499542
|   |   |   |   |   |   |   |   |   |   |   |   exp <= 2.13369: clean (131.0/3.0)
|   |   |   |   |   |   |   |   |   |   |   |   exp > 2.13369
|   |   |   |   |   |   |   |   |   |   |   |   |   comm <= 1.785898: defective (7.0)
|   |   |   |   |   |   |   |   |   |   |   |   |   comm > 1.785898: clean (39.0/3.0)
|   |   |   |   |   |   |   |   |   |   |   oexp > 13.499542
|   |   |   |   |   |   |   |   |   |   |   |   exp <= 2.499972: defective (5.0)
|   |   |   |   |   |   |   |   |   |   |   |   exp > 2.499972: clean (5.0)
|   |   |   |   |   |   |   |   |   mods > 1695.994729: clean (369.0/7.0)
|   |   |   |   |   |   |   reml > 1.021147: defective (66.0)
|   |   |   |   |   |   reml > 1.970345
|   |   |   |   |   |   |   modd <= 4.027156
|   |   |   |   |   |   |   |   reml <= 4.732915
|   |   |   |   |   |   |   |   |   reml <= 3.135352
|   |   |   |   |   |   |   |   |   |   reml <= 2.966558
|   |   |   |   |   |   |   |   |   |   |   mods <= 1510.048053
|   |   |   |   |   |   |   |   |   |   |   |   mods <= 1445.381499
|   |   |   |   |   |   |   |   |   |   |   |   |   mods <= 759.96954
|   |   |   |   |   |   |   |   |   |   |   |   |   |   mods <= 678.487614
|   |   |   |   |   |   |   |   |   |   |   |   |   |   |   ddev <= 3.702376
|   |   |   |   |   |   |   |   |   |   |   |   |   |   |   |   oexp <= 8.494388
|   |   |   |   |   |   |   |   |   |   |   |   |   |   |   |   |   ddev <= 1.499691
|   |   |   |   |   |   |   |   |   |   |   |   |   |   |   |   |   |   mods <= 211.893453
|   |   |   |   |   |   |   |   |   |   |   |   |   |   |   |   |   |   |   mods <= 144.76984: clean (9.0)
|   |   |   |   |   |   |   |   |   |   |   |   |   |   |   |   |   |   |   mods > 144.76984: defective (7.0)
|   |   |   |   |   |   |   |   |   |   |   |   |   |   |   |   |   |   mods > 211.893453: clean (47.0)
|   |   |   |   |   |   |   |   |   |   |   |   |   |   |   |   |   ddev > 1.499691: clean (83.0)
|   |   |   |   |   |   |   |   |   |   |   |   |   |   |   |   oexp > 8.494388
|   |   |   |   |   |   |   |   |   |   |   |   |   |   |   |   |   reml <= 2.268438: clean (13.0/1.0)
|   |   |   |   |   |   |   |   |   |   |   |   |   |   |   |   |   reml > 2.268438: defective (3.0)
|   |   |   |   |   |   |   |   |   |   |   |   |   |   |   ddev > 3.702376: clean (227.0)
|   |   |   |   |   |   |   |   |   |   |   |   |   |   mods > 678.487614
|   |   |   |   |   |   |   |   |   |   |   |   |   |   |   mods <= 694.487744
|   |   |   |   |   |   |   |   |   |   |   |   |   |   |   |   nloc <= 118.493159: defective (7.0/1.0)
|   |   |   |   |   |   |   |   |   |   |   |   |   |   |   |   nloc > 118.493159
|   |   |   |   |   |   |   |   |   |   |   |   |   |   |   |   |   nloc <= 589.332922: clean (6.0)
|   |   |   |   |   |   |   |   |   |   |   |   |   |   |   |   |   nloc > 589.332922: defective (2.0)
|   |   |   |   |   |   |   |   |   |   |   |   |   |   |   mods > 694.487744
|   |   |   |   |   |   |   |   |   |   |   |   |   |   |   |   mods <= 737.032589: clean (50.0)
|   |   |   |   |   |   |   |   |   |   |   |   |   |   |   |   mods > 737.032589
|   |   |   |   |   |   |   |   |   |   |   |   |   |   |   |   |   cyco <= 24.483856
|   |   |   |   |   |   |   |   |   |   |   |   |   |   |   |   |   |   nloc <= 240.204933: clean (6.0/1.0)
|   |   |   |   |   |   |   |   |   |   |   |   |   |   |   |   |   |   nloc > 240.204933: defective (9.0)
|   |   |   |   |   |   |   |   |   |   |   |   |   |   |   |   |   cyco > 24.483856: clean (22.0)
|   |   |   |   |   |   |   |   |   |   |   |   |   mods > 759.96954: clean (271.0/1.0)
|   |   |   |   |   |   |   |   |   |   |   |   mods > 1445.381499
|   |   |   |   |   |   |   |   |   |   |   |   |   mods <= 1454.848868: clean (41.0/3.0)
|   |   |   |   |   |   |   |   |   |   |   |   |   mods > 1454.848868
|   |   |   |   |   |   |   |   |   |   |   |   |   |   comm <= 1.101336: clean (3.0)
|   |   |   |   |   |   |   |   |   |   |   |   |   |   comm > 1.101336: defective (8.0/1.0)
|   |   |   |   |   |   |   |   |   |   |   mods > 1510.048053
|   |   |   |   |   |   |   |   |   |   |   |   adev <= 3.334824: clean (796.0/5.0)
|   |   |   |   |   |   |   |   |   |   |   |   adev > 3.334824
|   |   |   |   |   |   |   |   |   |   |   |   |   modd <= 3.667056: defective (3.0)
|   |   |   |   |   |   |   |   |   |   |   |   |   modd > 3.667056: clean (31.0/1.0)
|   |   |   |   |   |   |   |   |   |   reml > 2.966558: clean (166.0)
|   |   |   |   |   |   |   |   |   reml > 3.135352
|   |   |   |   |   |   |   |   |   |   reml <= 3.970234: defective (5.0)
|   |   |   |   |   |   |   |   |   |   reml > 3.970234
|   |   |   |   |   |   |   |   |   |   |   exp <= 18.49892: clean (63.0/2.0)
|   |   |   |   |   |   |   |   |   |   |   exp > 18.49892
|   |   |   |   |   |   |   |   |   |   |   |   ddev <= 9: clean (4.0)
|   |   |   |   |   |   |   |   |   |   |   |   ddev > 9: defective (2.0)
|   |   |   |   |   |   |   |   reml > 4.732915: clean (221.0)
|   |   |   |   |   |   |   modd > 4.027156
|   |   |   |   |   |   |   |   comm <= 4.571273
|   |   |   |   |   |   |   |   |   oexp <= 19.175391: defective (7.0)
|   |   |   |   |   |   |   |   |   oexp > 19.175391: clean (6.0/1.0)
|   |   |   |   |   |   |   |   comm > 4.571273
|   |   |   |   |   |   |   |   |   reml <= 3.499612
|   |   |   |   |   |   |   |   |   |   ddev <= 11.498071
|   |   |   |   |   |   |   |   |   |   |   nloc <= 2058
|   |   |   |   |   |   |   |   |   |   |   |   ddev <= 8.316052
|   |   |   |   |   |   |   |   |   |   |   |   |   nloc <= 83.429674
|   |   |   |   |   |   |   |   |   |   |   |   |   |   nloc <= 63: clean (6.0)
|   |   |   |   |   |   |   |   |   |   |   |   |   |   nloc > 63: defective (4.0/1.0)
|   |   |   |   |   |   |   |   |   |   |   |   |   nloc > 83.429674: clean (63.0/1.0)
|   |   |   |   |   |   |   |   |   |   |   |   ddev > 8.316052
|   |   |   |   |   |   |   |   |   |   |   |   |   reml <= 2.122575: clean (6.0)
|   |   |   |   |   |   |   |   |   |   |   |   |   reml > 2.122575
|   |   |   |   |   |   |   |   |   |   |   |   |   |   comm <= 6.649558: defective (5.0)
|   |   |   |   |   |   |   |   |   |   |   |   |   |   comm > 6.649558: clean (4.0/1.0)
|   |   |   |   |   |   |   |   |   |   |   nloc > 2058
|   |   |   |   |   |   |   |   |   |   |   |   nloc <= 2363.453583: defective (6.0)
|   |   |   |   |   |   |   |   |   |   |   |   nloc > 2363.453583: clean (5.0/1.0)
|   |   |   |   |   |   |   |   |   |   ddev > 11.498071: clean (54.0)
|   |   |   |   |   |   |   |   |   reml > 3.499612: clean (69.0)
|   |   |   |   addl > 2
|   |   |   |   |   addl <= 2.99996: defective (1257.0)
|   |   |   |   |   addl > 2.99996
|   |   |   |   |   |   addl <= 3
|   |   |   |   |   |   |   exp <= 11.579936
|   |   |   |   |   |   |   |   reml <= 1.007403: clean (636.0/16.0)
|   |   |   |   |   |   |   |   reml > 1.007403
|   |   |   |   |   |   |   |   |   reml <= 1.990875: defective (31.0)
|   |   |   |   |   |   |   |   |   reml > 1.990875
|   |   |   |   |   |   |   |   |   |   reml <= 2.045624: clean (364.0/4.0)
|   |   |   |   |   |   |   |   |   |   reml > 2.045624
|   |   |   |   |   |   |   |   |   |   |   reml <= 8.497003
|   |   |   |   |   |   |   |   |   |   |   |   exp <= 4.983246
|   |   |   |   |   |   |   |   |   |   |   |   |   reml <= 2.995126: defective (10.0)
|   |   |   |   |   |   |   |   |   |   |   |   |   reml > 2.995126
|   |   |   |   |   |   |   |   |   |   |   |   |   |   mods <= 172.427898
|   |   |   |   |   |   |   |   |   |   |   |   |   |   |   ddev <= 1.844505: defective (5.0)
|   |   |   |   |   |   |   |   |   |   |   |   |   |   |   ddev > 1.844505: clean (2.0)
|   |   |   |   |   |   |   |   |   |   |   |   |   |   mods > 172.427898: clean (232.0/6.0)
|   |   |   |   |   |   |   |   |   |   |   |   exp > 4.983246
|   |   |   |   |   |   |   |   |   |   |   |   |   mods <= 1516.267909
|   |   |   |   |   |   |   |   |   |   |   |   |   |   mods <= 1462
|   |   |   |   |   |   |   |   |   |   |   |   |   |   |   comm <= 1.076166: clean (184.0/3.0)
|   |   |   |   |   |   |   |   |   |   |   |   |   |   |   comm > 1.076166
|   |   |   |   |   |   |   |   |   |   |   |   |   |   |   |   comm <= 1.916276: defective (6.0)
|   |   |   |   |   |   |   |   |   |   |   |   |   |   |   |   comm > 1.916276: clean (76.0/3.0)
|   |   |   |   |   |   |   |   |   |   |   |   |   |   mods > 1462: defective (6.0)
|   |   |   |   |   |   |   |   |   |   |   |   |   mods > 1516.267909
|   |   |   |   |   |   |   |   |   |   |   |   |   |   nloc <= 119.488336
|   |   |   |   |   |   |   |   |   |   |   |   |   |   |   ddev <= 2.043329: clean (91.0/1.0)
|   |   |   |   |   |   |   |   |   |   |   |   |   |   |   ddev > 2.043329
|   |   |   |   |   |   |   |   |   |   |   |   |   |   |   |   ddev <= 2.895698: defective (4.0)
|   |   |   |   |   |   |   |   |   |   |   |   |   |   |   |   ddev > 2.895698
|   |   |   |   |   |   |   |   |   |   |   |   |   |   |   |   |   ddev <= 5.499683: clean (32.0/1.0)
|   |   |   |   |   |   |   |   |   |   |   |   |   |   |   |   |   ddev > 5.499683
|   |   |   |   |   |   |   |   |   |   |   |   |   |   |   |   |   |   ddev <= 6.499806: defective (6.0/1.0)
|   |   |   |   |   |   |   |   |   |   |   |   |   |   |   |   |   |   ddev > 6.499806: clean (5.0)
|   |   |   |   |   |   |   |   |   |   |   |   |   |   nloc > 119.488336: clean (276.0/4.0)
|   |   |   |   |   |   |   |   |   |   |   reml > 8.497003
|   |   |   |   |   |   |   |   |   |   |   |   mods <= 2119.365132: clean (29.0)
|   |   |   |   |   |   |   |   |   |   |   |   mods > 2119.365132
|   |   |   |   |   |   |   |   |   |   |   |   |   cyco <= 103.93306: clean (3.0)
|   |   |   |   |   |   |   |   |   |   |   |   |   cyco > 103.93306: defective (9.0/1.0)
|   |   |   |   |   |   |   exp > 11.579936
|   |   |   |   |   |   |   |   comm <= 2.363982: clean (377.0)
|   |   |   |   |   |   |   |   comm > 2.363982
|   |   |   |   |   |   |   |   |   mods <= 257.499906
|   |   |   |   |   |   |   |   |   |   mods <= 222.625246: clean (6.0)
|   |   |   |   |   |   |   |   |   |   mods > 222.625246: defective (4.0)
|   |   |   |   |   |   |   |   |   mods > 257.499906
|   |   |   |   |   |   |   |   |   |   oexp <= 5
|   |   |   |   |   |   |   |   |   |   |   nloc <= 1042.731286: clean (11.0)
|   |   |   |   |   |   |   |   |   |   |   nloc > 1042.731286
|   |   |   |   |   |   |   |   |   |   |   |   nloc <= 1778: defective (4.0)
|   |   |   |   |   |   |   |   |   |   |   |   nloc > 1778: clean (3.0)
|   |   |   |   |   |   |   |   |   |   oexp > 5: clean (161.0)
|   |   |   |   |   |   addl > 3
|   |   |   |   |   |   |   addl <= 3.999026: defective (1019.0)
|   |   |   |   |   |   |   addl > 3.999026
|   |   |   |   |   |   |   |   addl <= 4
|   |   |   |   |   |   |   |   |   mods <= 264.748667
|   |   |   |   |   |   |   |   |   |   mods <= 242.078275: clean (95.0/1.0)
|   |   |   |   |   |   |   |   |   |   mods > 242.078275
|   |   |   |   |   |   |   |   |   |   |   ddev <= 3.894805
|   |   |   |   |   |   |   |   |   |   |   |   reml <= 7.44976: defective (32.0/2.0)
|   |   |   |   |   |   |   |   |   |   |   |   reml > 7.44976: clean (3.0)
|   |   |   |   |   |   |   |   |   |   |   ddev > 3.894805: clean (14.0/1.0)
|   |   |   |   |   |   |   |   |   mods > 264.748667
|   |   |   |   |   |   |   |   |   |   nloc <= 1858
|   |   |   |   |   |   |   |   |   |   |   mods <= 971.380327: clean (538.0/1.0)
|   |   |   |   |   |   |   |   |   |   |   mods > 971.380327
|   |   |   |   |   |   |   |   |   |   |   |   nloc <= 349.481366
|   |   |   |   |   |   |   |   |   |   |   |   |   cyco <= 70.054443
|   |   |   |   |   |   |   |   |   |   |   |   |   |   reml <= 3.901223
|   |   |   |   |   |   |   |   |   |   |   |   |   |   |   reml <= 0.49999: clean (83.0)
|   |   |   |   |   |   |   |   |   |   |   |   |   |   |   reml > 0.49999
|   |   |   |   |   |   |   |   |   |   |   |   |   |   |   |   exp <= 6.959723
|   |   |   |   |   |   |   |   |   |   |   |   |   |   |   |   |   exp <= 3.499876: clean (47.0)
|   |   |   |   |   |   |   |   |   |   |   |   |   |   |   |   |   exp > 3.499876
|   |   |   |   |   |   |   |   |   |   |   |   |   |   |   |   |   |   reml <= 2.165733
|   |   |   |   |   |   |   |   |   |   |   |   |   |   |   |   |   |   |   comm <= 2.848426
|   |   |   |   |   |   |   |   |   |   |   |   |   |   |   |   |   |   |   |   adev <= 2.588595
|   |   |   |   |   |   |   |   |   |   |   |   |   |   |   |   |   |   |   |   |   modd <= 1.499735
|   |   |   |   |   |   |   |   |   |   |   |   |   |   |   |   |   |   |   |   |   |   nloc <= 132.453803
|   |   |   |   |   |   |   |   |   |   |   |   |   |   |   |   |   |   |   |   |   |   |   nloc <= 49: clean (10.0)
|   |   |   |   |   |   |   |   |   |   |   |   |   |   |   |   |   |   |   |   |   |   |   nloc > 49
|   |   |   |   |   |   |   |   |   |   |   |   |   |   |   |   |   |   |   |   |   |   |   |   ddev <= 2.499862: clean (4.0/1.0)
|   |   |   |   |   |   |   |   |   |   |   |   |   |   |   |   |   |   |   |   |   |   |   |   ddev > 2.499862: defective (7.0)
|   |   |   |   |   |   |   |   |   |   |   |   |   |   |   |   |   |   |   |   |   |   nloc > 132.453803: clean (22.0)
|   |   |   |   |   |   |   |   |   |   |   |   |   |   |   |   |   |   |   |   |   modd > 1.499735: clean (12.0)
|   |   |   |   |   |   |   |   |   |   |   |   |   |   |   |   |   |   |   |   adev > 2.588595: defective (3.0)
|   |   |   |   |   |   |   |   |   |   |   |   |   |   |   |   |   |   |   comm > 2.848426: clean (23.0/2.0)
|   |   |   |   |   |   |   |   |   |   |   |   |   |   |   |   |   |   reml > 2.165733
|   |   |   |   |   |   |   |   |   |   |   |   |   |   |   |   |   |   |   mods <= 1837.955492: clean (3.0)
|   |   |   |   |   |   |   |   |   |   |   |   |   |   |   |   |   |   |   mods > 1837.955492
|   |   |   |   |   |   |   |   |   |   |   |   |   |   |   |   |   |   |   |   adev <= 2.3051: clean (3.0/1.0)
|   |   |   |   |   |   |   |   |   |   |   |   |   |   |   |   |   |   |   |   adev > 2.3051: defective (13.0/1.0)
|   |   |   |   |   |   |   |   |   |   |   |   |   |   |   |   exp > 6.959723: clean (111.0/3.0)
|   |   |   |   |   |   |   |   |   |   |   |   |   |   reml > 3.901223: clean (286.0/3.0)
|   |   |   |   |   |   |   |   |   |   |   |   |   cyco > 70.054443
|   |   |   |   |   |   |   |   |   |   |   |   |   |   mods <= 2346.311852: clean (18.0)
|   |   |   |   |   |   |   |   |   |   |   |   |   |   mods > 2346.311852
|   |   |   |   |   |   |   |   |   |   |   |   |   |   |   mods <= 2454.499259: defective (8.0)
|   |   |   |   |   |   |   |   |   |   |   |   |   |   |   mods > 2454.499259: clean (2.0)
|   |   |   |   |   |   |   |   |   |   |   |   nloc > 349.481366: clean (536.0/4.0)
|   |   |   |   |   |   |   |   |   |   nloc > 1858
|   |   |   |   |   |   |   |   |   |   |   nloc <= 2000.497918
|   |   |   |   |   |   |   |   |   |   |   |   comm <= 5.499094: defective (22.0/1.0)
|   |   |   |   |   |   |   |   |   |   |   |   comm > 5.499094: clean (5.0)
|   |   |   |   |   |   |   |   |   |   |   nloc > 2000.497918
|   |   |   |   |   |   |   |   |   |   |   |   mods <= 2451.368151: clean (117.0/3.0)
|   |   |   |   |   |   |   |   |   |   |   |   mods > 2451.368151
|   |   |   |   |   |   |   |   |   |   |   |   |   mods <= 2457.846577: defective (6.0)
|   |   |   |   |   |   |   |   |   |   |   |   |   mods > 2457.846577: clean (13.0)
|   |   |   |   |   |   |   |   addl > 4
|   |   |   |   |   |   |   |   |   addl <= 4.998924: defective (1088.0)
|   |   |   |   |   |   |   |   |   addl > 4.998924
|   |   |   |   |   |   |   |   |   |   addl <= 5
|   |   |   |   |   |   |   |   |   |   |   exp <= 4.499656: clean (318.0/1.0)
|   |   |   |   |   |   |   |   |   |   |   exp > 4.499656
|   |   |   |   |   |   |   |   |   |   |   |   mods <= 1680.679659
|   |   |   |   |   |   |   |   |   |   |   |   |   mods <= 777: clean (409.0/8.0)
|   |   |   |   |   |   |   |   |   |   |   |   |   mods > 777
|   |   |   |   |   |   |   |   |   |   |   |   |   |   mods <= 1069.942148
|   |   |   |   |   |   |   |   |   |   |   |   |   |   |   comm <= 1.012639: clean (27.0/1.0)
|   |   |   |   |   |   |   |   |   |   |   |   |   |   |   comm > 1.012639
|   |   |   |   |   |   |   |   |   |   |   |   |   |   |   |   comm <= 1.962477: defective (15.0)
|   |   |   |   |   |   |   |   |   |   |   |   |   |   |   |   comm > 1.962477
|   |   |   |   |   |   |   |   |   |   |   |   |   |   |   |   |   comm <= 2.019061: clean (13.0)
|   |   |   |   |   |   |   |   |   |   |   |   |   |   |   |   |   comm > 2.019061
|   |   |   |   |   |   |   |   |   |   |   |   |   |   |   |   |   |   adev <= 2.954433: defective (10.0)
|   |   |   |   |   |   |   |   |   |   |   |   |   |   |   |   |   |   adev > 2.954433
|   |   |   |   |   |   |   |   |   |   |   |   |   |   |   |   |   |   |   cyco <= 32.490604: clean (15.0/1.0)
|   |   |   |   |   |   |   |   |   |   |   |   |   |   |   |   |   |   |   cyco > 32.490604
