=== Run information ===

Scheme:       weka.classifiers.trees.J48 -C 0.25 -M 2
Relation:     dataset_feat_evaluation_median_train-weka.filters.supervised.instance.SMOTE-C0-K5-P2000.0-S1
Instances:    90759
Attributes:   29
              comm
              adev
              ddev
              exp
              oexp
              modd
              mods
              nloc
              cyco
              faddl
              freml
              revi
              refa
              bugf
              auth
              addl
              addm
              adda
              reml
              remm
              rema
              cchl
              cchm
              ccha
              maxc
              avgc
              aage
              wage
              label
Test mode:    user supplied test set:  size unknown (reading incrementally)

=== Classifier model (full training set) ===

J48 pruned tree
------------------

adda <= 1
|   bugf <= 0.002471
|   |   maxc <= 55.493321
|   |   |   adda <= 0: clean (2458.0/2.0)
|   |   |   adda > 0
|   |   |   |   remm <= 0.001708: clean (651.0/2.0)
|   |   |   |   remm > 0.001708
|   |   |   |   |   wage <= 34.52
|   |   |   |   |   |   aage <= 13.36
|   |   |   |   |   |   |   maxc <= 54.106782
|   |   |   |   |   |   |   |   wage <= -0.455132
|   |   |   |   |   |   |   |   |   avgc <= 3.134129: clean (2.0)
|   |   |   |   |   |   |   |   |   avgc > 3.134129
|   |   |   |   |   |   |   |   |   |   avgc <= 18: defective (21.0)
|   |   |   |   |   |   |   |   |   |   avgc > 18: clean (2.0)
|   |   |   |   |   |   |   |   wage > -0.455132
|   |   |   |   |   |   |   |   |   rema <= 0.997914
|   |   |   |   |   |   |   |   |   |   revi <= 1.988343: defective (39.0)
|   |   |   |   |   |   |   |   |   |   revi > 1.988343
|   |   |   |   |   |   |   |   |   |   |   maxc <= 14.498219: clean (23.0)
|   |   |   |   |   |   |   |   |   |   |   maxc > 14.498219
|   |   |   |   |   |   |   |   |   |   |   |   maxc <= 16.499833: defective (10.0)
|   |   |   |   |   |   |   |   |   |   |   |   maxc > 16.499833: clean (9.0)
|   |   |   |   |   |   |   |   |   rema > 0.997914
|   |   |   |   |   |   |   |   |   |   avgc <= 3.978862
|   |   |   |   |   |   |   |   |   |   |   maxc <= 3.110438
|   |   |   |   |   |   |   |   |   |   |   |   wage <= 3.5
|   |   |   |   |   |   |   |   |   |   |   |   |   reml <= 1.499622
|   |   |   |   |   |   |   |   |   |   |   |   |   |   maxc <= 1.969388
|   |   |   |   |   |   |   |   |   |   |   |   |   |   |   wage <= 1.637742: clean (16.0/1.0)
|   |   |   |   |   |   |   |   |   |   |   |   |   |   |   wage > 1.637742: defective (38.0/10.0)
|   |   |   |   |   |   |   |   |   |   |   |   |   |   maxc > 1.969388
|   |   |   |   |   |   |   |   |   |   |   |   |   |   |   maxc <= 2.020826: clean (25.0)
|   |   |   |   |   |   |   |   |   |   |   |   |   |   |   maxc > 2.020826
|   |   |   |   |   |   |   |   |   |   |   |   |   |   |   |   maxc <= 2.974523: defective (6.0)
|   |   |   |   |   |   |   |   |   |   |   |   |   |   |   |   maxc > 2.974523: clean (20.0/1.0)
|   |   |   |   |   |   |   |   |   |   |   |   |   reml > 1.499622: clean (23.0)
|   |   |   |   |   |   |   |   |   |   |   |   wage > 3.5: clean (108.0)
|   |   |   |   |   |   |   |   |   |   |   maxc > 3.110438
|   |   |   |   |   |   |   |   |   |   |   |   revi <= 1.499825: defective (13.0)
|   |   |   |   |   |   |   |   |   |   |   |   revi > 1.499825: clean (7.0/1.0)
|   |   |   |   |   |   |   |   |   |   avgc > 3.978862
|   |   |   |   |   |   |   |   |   |   |   avgc <= 31.031959: clean (903.0/16.0)
|   |   |   |   |   |   |   |   |   |   |   avgc > 31.031959
|   |   |   |   |   |   |   |   |   |   |   |   auth <= 1.058976
|   |   |   |   |   |   |   |   |   |   |   |   |   maxc <= 39.311349
|   |   |   |   |   |   |   |   |   |   |   |   |   |   wage <= 4.925793
|   |   |   |   |   |   |   |   |   |   |   |   |   |   |   wage <= 1.159756: clean (7.0)
|   |   |   |   |   |   |   |   |   |   |   |   |   |   |   wage > 1.159756: defective (15.0/1.0)
|   |   |   |   |   |   |   |   |   |   |   |   |   |   wage > 4.925793: clean (22.0/1.0)
|   |   |   |   |   |   |   |   |   |   |   |   |   maxc > 39.311349: clean (152.0/2.0)
|   |   |   |   |   |   |   |   |   |   |   |   auth > 1.058976
|   |   |   |   |   |   |   |   |   |   |   |   |   revi <= 1.9756: defective (20.0)
|   |   |   |   |   |   |   |   |   |   |   |   |   revi > 1.9756: clean (2.0)
|   |   |   |   |   |   |   maxc > 54.106782
|   |   |   |   |   |   |   |   auth <= 1.499861
|   |   |   |   |   |   |   |   |   aage <= 1.018864: defective (15.0)
|   |   |   |   |   |   |   |   |   aage > 1.018864
|   |   |   |   |   |   |   |   |   |   revi <= 1.043585: clean (5.0)
|   |   |   |   |   |   |   |   |   |   revi > 1.043585: defective (17.0/1.0)
|   |   |   |   |   |   |   |   auth > 1.499861: clean (3.0)
|   |   |   |   |   |   aage > 13.36
|   |   |   |   |   |   |   reml <= 2.499953
|   |   |   |   |   |   |   |   wage <= 18.64
|   |   |   |   |   |   |   |   |   maxc <= 7.007638: clean (76.0/2.0)
|   |   |   |   |   |   |   |   |   maxc > 7.007638
|   |   |   |   |   |   |   |   |   |   maxc <= 12.499878
|   |   |   |   |   |   |   |   |   |   |   aage <= 16.72031
|   |   |   |   |   |   |   |   |   |   |   |   maxc <= 10.96242
|   |   |   |   |   |   |   |   |   |   |   |   |   maxc <= 8.27014
|   |   |   |   |   |   |   |   |   |   |   |   |   |   reml <= 1.27863: clean (2.0)
|   |   |   |   |   |   |   |   |   |   |   |   |   |   reml > 1.27863: defective (3.0)
|   |   |   |   |   |   |   |   |   |   |   |   |   maxc > 8.27014: defective (80.0)
|   |   |   |   |   |   |   |   |   |   |   |   maxc > 10.96242
|   |   |   |   |   |   |   |   |   |   |   |   |   maxc <= 11.067029: clean (6.0)
|   |   |   |   |   |   |   |   |   |   |   |   |   maxc > 11.067029
|   |   |   |   |   |   |   |   |   |   |   |   |   |   maxc <= 11.89108: defective (4.0)
|   |   |   |   |   |   |   |   |   |   |   |   |   |   maxc > 11.89108: clean (2.0)
|   |   |   |   |   |   |   |   |   |   |   aage > 16.72031
|   |   |   |   |   |   |   |   |   |   |   |   aage <= 17.852074: defective (365.0)
|   |   |   |   |   |   |   |   |   |   |   |   aage > 17.852074
|   |   |   |   |   |   |   |   |   |   |   |   |   revi <= 1.033685: clean (5.0)
|   |   |   |   |   |   |   |   |   |   |   |   |   revi > 1.033685: defective (24.0)
|   |   |   |   |   |   |   |   |   |   maxc > 12.499878
|   |   |   |   |   |   |   |   |   |   |   auth <= 1.127944
|   |   |   |   |   |   |   |   |   |   |   |   aage <= 17.824527: clean (88.0)
|   |   |   |   |   |   |   |   |   |   |   |   aage > 17.824527
|   |   |   |   |   |   |   |   |   |   |   |   |   aage <= 20.556212: clean (4.0)
|   |   |   |   |   |   |   |   |   |   |   |   |   aage > 20.556212: defective (2.0)
|   |   |   |   |   |   |   |   |   |   |   auth > 1.127944
|   |   |   |   |   |   |   |   |   |   |   |   rema <= 0.499926: clean (3.0)
|   |   |   |   |   |   |   |   |   |   |   |   rema > 0.499926: defective (56.0/19.0)
|   |   |   |   |   |   |   |   wage > 18.64
|   |   |   |   |   |   |   |   |   revi <= 1.005146
|   |   |   |   |   |   |   |   |   |   wage <= 21.784841
|   |   |   |   |   |   |   |   |   |   |   aage <= 21.36: clean (73.0)
|   |   |   |   |   |   |   |   |   |   |   aage > 21.36
|   |   |   |   |   |   |   |   |   |   |   |   avgc <= 14.585123: defective (11.0/1.0)
|   |   |   |   |   |   |   |   |   |   |   |   avgc > 14.585123: clean (3.0)
|   |   |   |   |   |   |   |   |   |   wage > 21.784841: clean (262.0/9.0)
|   |   |   |   |   |   |   |   |   revi > 1.005146
|   |   |   |   |   |   |   |   |   |   revi <= 1.995988: defective (46.0)
|   |   |   |   |   |   |   |   |   |   revi > 1.995988
|   |   |   |   |   |   |   |   |   |   |   avgc <= 11
|   |   |   |   |   |   |   |   |   |   |   |   reml <= 1.499622: clean (7.0)
|   |   |   |   |   |   |   |   |   |   |   |   reml > 1.499622
|   |   |   |   |   |   |   |   |   |   |   |   |   maxc <= 6.49871: clean (6.0)
|   |   |   |   |   |   |   |   |   |   |   |   |   maxc > 6.49871
|   |   |   |   |   |   |   |   |   |   |   |   |   |   aage <= 23.25: clean (2.0)
|   |   |   |   |   |   |   |   |   |   |   |   |   |   aage > 23.25: defective (24.0)
|   |   |   |   |   |   |   |   |   |   |   avgc > 11: clean (17.0)
|   |   |   |   |   |   |   reml > 2.499953
|   |   |   |   |   |   |   |   addl <= 1.967359
|   |   |   |   |   |   |   |   |   revi <= 1.141105: clean (36.0)
|   |   |   |   |   |   |   |   |   revi > 1.141105: defective (3.0)
|   |   |   |   |   |   |   |   addl > 1.967359: clean (122.0)
|   |   |   |   |   wage > 34.52: clean (366.0)
|   |   maxc > 55.493321: clean (12906.0/25.0)
|   bugf > 0.002471
|   |   bugf <= 0.998975: defective (218.0)
|   |   bugf > 0.998975
|   |   |   wage <= 11.440423
|   |   |   |   bugf <= 1.01097
|   |   |   |   |   ccha <= 0.003431
|   |   |   |   |   |   avgc <= 7.498731
|   |   |   |   |   |   |   avgc <= 5.225907: clean (266.0/1.0)
|   |   |   |   |   |   |   avgc > 5.225907
|   |   |   |   |   |   |   |   maxc <= 5.762888: defective (4.0)
|   |   |   |   |   |   |   |   maxc > 5.762888
|   |   |   |   |   |   |   |   |   maxc <= 6.104804: clean (25.0)
|   |   |   |   |   |   |   |   |   maxc > 6.104804
|   |   |   |   |   |   |   |   |   |   maxc <= 6.978184: defective (6.0)
|   |   |   |   |   |   |   |   |   |   maxc > 6.978184: clean (34.0/2.0)
|   |   |   |   |   |   avgc > 7.498731: clean (948.0/8.0)
|   |   |   |   |   ccha > 0.003431
|   |   |   |   |   |   ccha <= 0.987239: defective (18.0)
|   |   |   |   |   |   ccha > 0.987239: clean (120.0/5.0)
|   |   |   |   bugf > 1.01097
|   |   |   |   |   bugf <= 1.989297: defective (38.0)
|   |   |   |   |   bugf > 1.989297: clean (109.0/4.0)
|   |   |   wage > 11.440423
|   |   |   |   avgc <= 86.36731
|   |   |   |   |   cchl <= 0.03653
|   |   |   |   |   |   cchm <= 0.081108
|   |   |   |   |   |   |   maxc <= 4.499755
|   |   |   |   |   |   |   |   maxc <= 1.063091: clean (85.0/3.0)
|   |   |   |   |   |   |   |   maxc > 1.063091
|   |   |   |   |   |   |   |   |   maxc <= 1.921873: defective (5.0)
|   |   |   |   |   |   |   |   |   maxc > 1.921873
|   |   |   |   |   |   |   |   |   |   maxc <= 2.04052: clean (37.0)
|   |   |   |   |   |   |   |   |   |   maxc > 2.04052
|   |   |   |   |   |   |   |   |   |   |   maxc <= 2.82086: defective (4.0)
|   |   |   |   |   |   |   |   |   |   |   maxc > 2.82086
|   |   |   |   |   |   |   |   |   |   |   |   aage <= 18.86: clean (32.0/1.0)
|   |   |   |   |   |   |   |   |   |   |   |   aage > 18.86
|   |   |   |   |   |   |   |   |   |   |   |   |   aage <= 20.5: defective (10.0/1.0)
|   |   |   |   |   |   |   |   |   |   |   |   |   aage > 20.5: clean (37.0/2.0)
|   |   |   |   |   |   |   maxc > 4.499755
|   |   |   |   |   |   |   |   maxc <= 87: clean (591.0/1.0)
|   |   |   |   |   |   |   |   maxc > 87
|   |   |   |   |   |   |   |   |   maxc <= 95.49394: defective (5.0/1.0)
|   |   |   |   |   |   |   |   |   maxc > 95.49394: clean (42.0)
|   |   |   |   |   |   cchm > 0.081108
|   |   |   |   |   |   |   cchm <= 0.894509: defective (8.0)
|   |   |   |   |   |   |   cchm > 0.894509
|   |   |   |   |   |   |   |   revi <= 2.980718
|   |   |   |   |   |   |   |   |   remm <= 4.005186: clean (10.0/1.0)
|   |   |   |   |   |   |   |   |   remm > 4.005186: defective (4.0)
|   |   |   |   |   |   |   |   revi > 2.980718: clean (52.0/1.0)
|   |   |   |   |   cchl > 0.03653
|   |   |   |   |   |   cchm <= 0.993371: defective (40.0)
|   |   |   |   |   |   cchm > 0.993371
|   |   |   |   |   |   |   adda <= 0.947735
|   |   |   |   |   |   |   |   aage <= 54.037784: clean (3.0/1.0)
|   |   |   |   |   |   |   |   aage > 54.037784: defective (43.0/1.0)
|   |   |   |   |   |   |   adda > 0.947735
|   |   |   |   |   |   |   |   bugf <= 1.026754
|   |   |   |   |   |   |   |   |   auth <= 2.054547: clean (112.0/1.0)
|   |   |   |   |   |   |   |   |   auth > 2.054547
|   |   |   |   |   |   |   |   |   |   auth <= 2.991494: defective (3.0)
|   |   |   |   |   |   |   |   |   |   auth > 2.991494: clean (11.0/1.0)
|   |   |   |   |   |   |   |   bugf > 1.026754
|   |   |   |   |   |   |   |   |   bugf <= 1.995715: defective (17.0)
|   |   |   |   |   |   |   |   |   bugf > 1.995715: clean (34.0/5.0)
|   |   |   |   avgc > 86.36731
|   |   |   |   |   maxc <= 98.430116: defective (1331.0/14.0)
|   |   |   |   |   maxc > 98.430116
|   |   |   |   |   |   avgc <= 1190: clean (519.0/3.0)
|   |   |   |   |   |   avgc > 1190
|   |   |   |   |   |   |   maxc <= 2422.09936: defective (147.0)
|   |   |   |   |   |   |   maxc > 2422.09936
|   |   |   |   |   |   |   |   avgc <= 1240.70334: clean (43.0)
|   |   |   |   |   |   |   |   avgc > 1240.70334: defective (85.0/1.0)
adda > 1
|   bugf <= 0
|   |   ccha <= 26.004917
|   |   |   adda <= 1.998754: defective (518.0)
|   |   |   adda > 1.998754
|   |   |   |   aage <= 58.120817
|   |   |   |   |   remm <= 0.000503
|   |   |   |   |   |   addm <= 13.035241
|   |   |   |   |   |   |   revi <= 2.048462
|   |   |   |   |   |   |   |   adda <= 2.106519: clean (413.0/1.0)
|   |   |   |   |   |   |   |   adda > 2.106519
|   |   |   |   |   |   |   |   |   aage <= 5.64
|   |   |   |   |   |   |   |   |   |   wage <= 5.009185
|   |   |   |   |   |   |   |   |   |   |   wage <= 0.984119
|   |   |   |   |   |   |   |   |   |   |   |   aage <= 0.5: clean (50.0)
|   |   |   |   |   |   |   |   |   |   |   |   aage > 0.5
|   |   |   |   |   |   |   |   |   |   |   |   |   aage <= 0.864929
|   |   |   |   |   |   |   |   |   |   |   |   |   |   cchm <= 5.084302: clean (15.0)
|   |   |   |   |   |   |   |   |   |   |   |   |   |   cchm > 5.084302
|   |   |   |   |   |   |   |   |   |   |   |   |   |   |   aage <= 0.802895
|   |   |   |   |   |   |   |   |   |   |   |   |   |   |   |   maxc <= 4.499755: clean (3.0)
|   |   |   |   |   |   |   |   |   |   |   |   |   |   |   |   maxc > 4.499755
|   |   |   |   |   |   |   |   |   |   |   |   |   |   |   |   |   maxc <= 5.946388: defective (9.0)
|   |   |   |   |   |   |   |   |   |   |   |   |   |   |   |   |   maxc > 5.946388
|   |   |   |   |   |   |   |   |   |   |   |   |   |   |   |   |   |   aage <= 0.63
|   |   |   |   |   |   |   |   |   |   |   |   |   |   |   |   |   |   |   maxc <= 6.396239: clean (2.0)
|   |   |   |   |   |   |   |   |   |   |   |   |   |   |   |   |   |   |   maxc > 6.396239: defective (3.0)
|   |   |   |   |   |   |   |   |   |   |   |   |   |   |   |   |   |   aage > 0.63: clean (2.0)
|   |   |   |   |   |   |   |   |   |   |   |   |   |   |   aage > 0.802895: clean (6.0)
|   |   |   |   |   |   |   |   |   |   |   |   |   aage > 0.864929: defective (9.0)
|   |   |   |   |   |   |   |   |   |   |   wage > 0.984119
|   |   |   |   |   |   |   |   |   |   |   |   revi <= 1.499825
|   |   |   |   |   |   |   |   |   |   |   |   |   avgc <= 5.993199
|   |   |   |   |   |   |   |   |   |   |   |   |   |   maxc <= 5.049161: clean (77.0/1.0)
|   |   |   |   |   |   |   |   |   |   |   |   |   |   maxc > 5.049161: defective (5.0)
|   |   |   |   |   |   |   |   |   |   |   |   |   avgc > 5.993199: clean (130.0)
|   |   |   |   |   |   |   |   |   |   |   |   revi > 1.499825: clean (38.0/2.0)
|   |   |   |   |   |   |   |   |   |   wage > 5.009185
|   |   |   |   |   |   |   |   |   |   |   addl <= 2.895595: defective (11.0)
|   |   |   |   |   |   |   |   |   |   |   addl > 2.895595
|   |   |   |   |   |   |   |   |   |   |   |   aage <= 3.622289: defective (2.0)
|   |   |   |   |   |   |   |   |   |   |   |   aage > 3.622289: clean (23.0/2.0)
|   |   |   |   |   |   |   |   |   aage > 5.64
|   |   |   |   |   |   |   |   |   |   maxc <= 8.499753
|   |   |   |   |   |   |   |   |   |   |   addm <= 4.000523: clean (135.0/3.0)
|   |   |   |   |   |   |   |   |   |   |   addm > 4.000523
|   |   |   |   |   |   |   |   |   |   |   |   addl <= 4.98971: defective (8.0)
|   |   |   |   |   |   |   |   |   |   |   |   addl > 4.98971
|   |   |   |   |   |   |   |   |   |   |   |   |   aage <= 12.604515
|   |   |   |   |   |   |   |   |   |   |   |   |   |   addm <= 5.019851: clean (18.0/1.0)
|   |   |   |   |   |   |   |   |   |   |   |   |   |   addm > 5.019851
|   |   |   |   |   |   |   |   |   |   |   |   |   |   |   adda <= 5.941706: defective (8.0)
|   |   |   |   |   |   |   |   |   |   |   |   |   |   |   adda > 5.941706: clean (53.0/1.0)
|   |   |   |   |   |   |   |   |   |   |   |   |   aage > 12.604515: clean (177.0/2.0)
|   |   |   |   |   |   |   |   |   |   maxc > 8.499753: clean (512.0/1.0)
|   |   |   |   |   |   |   revi > 2.048462
|   |   |   |   |   |   |   |   revi <= 2.990314: defective (9.0)
|   |   |   |   |   |   |   |   revi > 2.990314
|   |   |   |   |   |   |   |   |   maxc <= 9.497906
|   |   |   |   |   |   |   |   |   |   avgc <= 6.161852: clean (21.0/4.0)
|   |   |   |   |   |   |   |   |   |   avgc > 6.161852: defective (9.0/1.0)
|   |   |   |   |   |   |   |   |   maxc > 9.497906: clean (57.0)
|   |   |   |   |   |   addm > 13.035241
|   |   |   |   |   |   |   ccha <= 13.967485
|   |   |   |   |   |   |   |   revi <= 2.49918
|   |   |   |   |   |   |   |   |   ccha <= 8.003657
|   |   |   |   |   |   |   |   |   |   ccha <= 7.835966: defective (4.0)
|   |   |   |   |   |   |   |   |   |   ccha > 7.835966: clean (6.0)
|   |   |   |   |   |   |   |   |   ccha > 8.003657: defective (61.0/6.0)
|   |   |   |   |   |   |   |   revi > 2.49918: clean (4.0)
|   |   |   |   |   |   |   ccha > 13.967485
|   |   |   |   |   |   |   |   revi <= 1.049617
|   |   |   |   |   |   |   |   |   wage <= 22.894963: clean (229.0/7.0)
|   |   |   |   |   |   |   |   |   wage > 22.894963
|   |   |   |   |   |   |   |   |   |   aage <= 27.43
|   |   |   |   |   |   |   |   |   |   |   avgc <= 7.020579
|   |   |   |   |   |   |   |   |   |   |   |   wage <= 25.820841: clean (9.0)
|   |   |   |   |   |   |   |   |   |   |   |   wage > 25.820841
|   |   |   |   |   |   |   |   |   |   |   |   |   addm <= 19.770344: defective (2.0)
|   |   |   |   |   |   |   |   |   |   |   |   |   addm > 19.770344: clean (3.0/1.0)
|   |   |   |   |   |   |   |   |   |   |   avgc > 7.020579: defective (23.0/2.0)
|   |   |   |   |   |   |   |   |   |   aage > 27.43: clean (53.0)
|   |   |   |   |   |   |   |   revi > 1.049617
|   |   |   |   |   |   |   |   |   revi <= 1.967932: defective (11.0)
|   |   |   |   |   |   |   |   |   revi > 1.967932: clean (23.0/1.0)
|   |   |   |   |   remm > 0.000503
|   |   |   |   |   |   remm <= 0.999957: defective (289.0)
|   |   |   |   |   |   remm > 0.999957
|   |   |   |   |   |   |   rema <= 0.001304
|   |   |   |   |   |   |   |   maxc <= 6.49871
|   |   |   |   |   |   |   |   |   addm <= 16.491236: clean (75.0/3.0)
|   |   |   |   |   |   |   |   |   addm > 16.491236
|   |   |   |   |   |   |   |   |   |   addl <= 32
|   |   |   |   |   |   |   |   |   |   |   auth <= 1.172129: clean (4.0/1.0)
|   |   |   |   |   |   |   |   |   |   |   auth > 1.172129: defective (19.0)
|   |   |   |   |   |   |   |   |   |   addl > 32: clean (13.0)
|   |   |   |   |   |   |   |   maxc > 6.49871: clean (536.0/9.0)
|   |   |   |   |   |   |   rema > 0.001304
|   |   |   |   |   |   |   |   rema <= 0.997914: defective (233.0)
|   |   |   |   |   |   |   |   rema > 0.997914
|   |   |   |   |   |   |   |   |   adda <= 2.001168
|   |   |   |   |   |   |   |   |   |   reml <= 1.955959
|   |   |   |   |   |   |   |   |   |   |   wage <= 2.5
|   |   |   |   |   |   |   |   |   |   |   |   reml <= 1.067597: clean (39.0)
|   |   |   |   |   |   |   |   |   |   |   |   reml > 1.067597: defective (4.0)
|   |   |   |   |   |   |   |   |   |   |   wage > 2.5
|   |   |   |   |   |   |   |   |   |   |   |   aage <= 2.929858: defective (134.0/1.0)
|   |   |   |   |   |   |   |   |   |   |   |   aage > 2.929858
|   |   |   |   |   |   |   |   |   |   |   |   |   reml <= 1.010927: clean (158.0/3.0)
|   |   |   |   |   |   |   |   |   |   |   |   |   reml > 1.010927: defective (24.0)
|   |   |   |   |   |   |   |   |   |   reml > 1.955959
|   |   |   |   |   |   |   |   |   |   |   ccha <= -0.977252: clean (454.0/4.0)
|   |   |   |   |   |   |   |   |   |   |   ccha > -0.977252
|   |   |   |   |   |   |   |   |   |   |   |   avgc <= 6.997712
|   |   |   |   |   |   |   |   |   |   |   |   |   maxc <= 4.003265: clean (210.0/6.0)
|   |   |   |   |   |   |   |   |   |   |   |   |   maxc > 4.003265
|   |   |   |   |   |   |   |   |   |   |   |   |   |   maxc <= 4.967312: defective (21.0)
|   |   |   |   |   |   |   |   |   |   |   |   |   |   maxc > 4.967312
|   |   |   |   |   |   |   |   |   |   |   |   |   |   |   ccha <= -0.011655: defective (16.0)
|   |   |   |   |   |   |   |   |   |   |   |   |   |   |   ccha > -0.011655
|   |   |   |   |   |   |   |   |   |   |   |   |   |   |   |   avgc <= 6.026314
|   |   |   |   |   |   |   |   |   |   |   |   |   |   |   |   |   revi <= 1.050523: clean (42.0/1.0)
|   |   |   |   |   |   |   |   |   |   |   |   |   |   |   |   |   revi > 1.050523
|   |   |   |   |   |   |   |   |   |   |   |   |   |   |   |   |   |   addm <= 2.836509
|   |   |   |   |   |   |   |   |   |   |   |   |   |   |   |   |   |   |   auth <= 1.956809
|   |   |   |   |   |   |   |   |   |   |   |   |   |   |   |   |   |   |   |   rema <= 1.007769: clean (4.0)
|   |   |   |   |   |   |   |   |   |   |   |   |   |   |   |   |   |   |   |   rema > 1.007769
|   |   |   |   |   |   |   |   |   |   |   |   |   |   |   |   |   |   |   |   |   remm <= 2.744918
|   |   |   |   |   |   |   |   |   |   |   |   |   |   |   |   |   |   |   |   |   |   aage <= 8.476121: defective (23.0)
|   |   |   |   |   |   |   |   |   |   |   |   |   |   |   |   |   |   |   |   |   |   aage > 8.476121
|   |   |   |   |   |   |   |   |   |   |   |   |   |   |   |   |   |   |   |   |   |   |   addl <= 3.498656: clean (2.0)
|   |   |   |   |   |   |   |   |   |   |   |   |   |   |   |   |   |   |   |   |   |   |   addl > 3.498656: defective (11.0/1.0)
|   |   |   |   |   |   |   |   |   |   |   |   |   |   |   |   |   |   |   |   |   remm > 2.744918: clean (2.0)
|   |   |   |   |   |   |   |   |   |   |   |   |   |   |   |   |   |   |   auth > 1.956809: clean (15.0/1.0)
|   |   |   |   |   |   |   |   |   |   |   |   |   |   |   |   |   |   addm > 2.836509
|   |   |   |   |   |   |   |   |   |   |   |   |   |   |   |   |   |   |   revi <= 3.499954: clean (55.0)
|   |   |   |   |   |   |   |   |   |   |   |   |   |   |   |   |   |   |   revi > 3.499954
|   |   |   |   |   |   |   |   |   |   |   |   |   |   |   |   |   |   |   |   remm <= 3.499962
|   |   |   |   |   |   |   |   |   |   |   |   |   |   |   |   |   |   |   |   |   aage <= 7.24: defective (7.0)
|   |   |   |   |   |   |   |   |   |   |   |   |   |   |   |   |   |   |   |   |   aage > 7.24: clean (5.0/1.0)
|   |   |   |   |   |   |   |   |   |   |   |   |   |   |   |   |   |   |   |   remm > 3.499962: clean (10.0)
|   |   |   |   |   |   |   |   |   |   |   |   |   |   |   |   avgc > 6.026314: defective (15.0)
|   |   |   |   |   |   |   |   |   |   |   |   avgc > 6.997712
|   |   |   |   |   |   |   |   |   |   |   |   |   ccha <= 0.029653
|   |   |   |   |   |   |   |   |   |   |   |   |   |   revi <= 2.010518
|   |   |   |   |   |   |   |   |   |   |   |   |   |   |   refa <= 0.041871
|   |   |   |   |   |   |   |   |   |   |   |   |   |   |   |   auth <= 1.088034
|   |   |   |   |   |   |   |   |   |   |   |   |   |   |   |   |   revi <= 1.499825
|   |   |   |   |   |   |   |   |   |   |   |   |   |   |   |   |   |   maxc <= 56
|   |   |   |   |   |   |   |   |   |   |   |   |   |   |   |   |   |   |   maxc <= 50.49913
|   |   |   |   |   |   |   |   |   |   |   |   |   |   |   |   |   |   |   |   aage <= 16.07: clean (279.0/1.0)
|   |   |   |   |   |   |   |   |   |   |   |   |   |   |   |   |   |   |   |   aage > 16.07
|   |   |   |   |   |   |   |   |   |   |   |   |   |   |   |   |   |   |   |   |   aage <= 16.284981
|   |   |   |   |   |   |   |   |   |   |   |   |   |   |   |   |   |   |   |   |   |   maxc <= 15: defective (9.0/1.0)
|   |   |   |   |   |   |   |   |   |   |   |   |   |   |   |   |   |   |   |   |   |   maxc > 15: clean (2.0)
|   |   |   |   |   |   |   |   |   |   |   |   |   |   |   |   |   |   |   |   |   aage > 16.284981: clean (113.0/2.0)
|   |   |   |   |   |   |   |   |   |   |   |   |   |   |   |   |   |   |   maxc > 50.49913
|   |   |   |   |   |   |   |   |   |   |   |   |   |   |   |   |   |   |   |   addl <= 2.17811
|   |   |   |   |   |   |   |   |   |   |   |   |   |   |   |   |   |   |   |   |   aage <= 1.322026: clean (11.0/2.0)
|   |   |   |   |   |   |   |   |   |   |   |   |   |   |   |   |   |   |   |   |   aage > 1.322026
|   |   |   |   |   |   |   |   |   |   |   |   |   |   |   |   |   |   |   |   |   |   aage <= 11.04451: defective (6.0)
|   |   |   |   |   |   |   |   |   |   |   |   |   |   |   |   |   |   |   |   |   |   aage > 11.04451: clean (6.0/1.0)
|   |   |   |   |   |   |   |   |   |   |   |   |   |   |   |   |   |   |   |   addl > 2.17811: defective (11.0)
|   |   |   |   |   |   |   |   |   |   |   |   |   |   |   |   |   |   maxc > 56: clean (388.0/12.0)
|   |   |   |   |   |   |   |   |   |   |   |   |   |   |   |   |   revi > 1.499825: clean (402.0/8.0)
|   |   |   |   |   |   |   |   |   |   |   |   |   |   |   |   auth > 1.088034
|   |   |   |   |   |   |   |   |   |   |   |   |   |   |   |   |   auth <= 1.981509: defective (14.0)
|   |   |   |   |   |   |   |   |   |   |   |   |   |   |   |   |   auth > 1.981509: clean (253.0/4.0)
|   |   |   |   |   |   |   |   |   |   |   |   |   |   |   refa > 0.041871
|   |   |   |   |   |   |   |   |   |   |   |   |   |   |   |   refa <= 0.801458: defective (6.0)
|   |   |   |   |   |   |   |   |   |   |   |   |   |   |   |   refa > 0.801458: clean (35.0/1.0)
|   |   |   |   |   |   |   |   |   |   |   |   |   |   revi > 2.010518
|   |   |   |   |   |   |   |   |   |   |   |   |   |   |   revi <= 2.947384: defective (17.0)
|   |   |   |   |   |   |   |   |   |   |   |   |   |   |   revi > 2.947384
|   |   |   |   |   |   |   |   |   |   |   |   |   |   |   |   addm <= 2.964476
|   |   |   |   |   |   |   |   |   |   |   |   |   |   |   |   |   addm <= 2.033532
|   |   |   |   |   |   |   |   |   |   |   |   |   |   |   |   |   |   avgc <= 82.461224: clean (20.0)
|   |   |   |   |   |   |   |   |   |   |   |   |   |   |   |   |   |   avgc > 82.461224
|   |   |   |   |   |   |   |   |   |   |   |   |   |   |   |   |   |   |   avgc <= 126: defective (6.0/1.0)
|   |   |   |   |   |   |   |   |   |   |   |   |   |   |   |   |   |   |   avgc > 126: clean (10.0)
|   |   |   |   |   |   |   |   |   |   |   |   |   |   |   |   |   addm > 2.033532: defective (10.0)
|   |   |   |   |   |   |   |   |   |   |   |   |   |   |   |   addm > 2.964476: clean (180.0/9.0)
|   |   |   |   |   |   |   |   |   |   |   |   |   ccha > 0.029653
|   |   |   |   |   |   |   |   |   |   |   |   |   |   ccha <= 0.985017: defective (33.0)
|   |   |   |   |   |   |   |   |   |   |   |   |   |   ccha > 0.985017
|   |   |   |   |   |   |   |   |   |   |   |   |   |   |   aage <= -0.68
|   |   |   |   |   |   |   |   |   |   |   |   |   |   |   |   revi <= 2.49918: defective (7.0)
|   |   |   |   |   |   |   |   |   |   |   |   |   |   |   |   revi > 2.49918: clean (4.0)
|   |   |   |   |   |   |   |   |   |   |   |   |   |   |   aage > -0.68
|   |   |   |   |   |   |   |   |   |   |   |   |   |   |   |   ccha <= 1.052654: clean (169.0/3.0)
|   |   |   |   |   |   |   |   |   |   |   |   |   |   |   |   ccha > 1.052654
|   |   |   |   |   |   |   |   |   |   |   |   |   |   |   |   |   rema <= 1.181626: clean (25.0/2.0)
|   |   |   |   |   |   |   |   |   |   |   |   |   |   |   |   |   rema > 1.181626: defective (3.0)
|   |   |   |   |   |   |   |   |   adda > 2.001168
|   |   |   |   |   |   |   |   |   |   adda <= 2.998799: defective (505.0)
|   |   |   |   |   |   |   |   |   |   adda > 2.998799
|   |   |   |   |   |   |   |   |   |   |   wage <= 1.860579
|   |   |   |   |   |   |   |   |   |   |   |   aage <= 1.867781
|   |   |   |   |   |   |   |   |   |   |   |   |   refa <= 0.092512
|   |   |   |   |   |   |   |   |   |   |   |   |   |   maxc <= 7.911986
|   |   |   |   |   |   |   |   |   |   |   |   |   |   |   avgc <= 6.034019
|   |   |   |   |   |   |   |   |   |   |   |   |   |   |   |   wage <= 0.269428
|   |   |   |   |   |   |   |   |   |   |   |   |   |   |   |   |   rema <= 8.498833: clean (14.0)
|   |   |   |   |   |   |   |   |   |   |   |   |   |   |   |   |   rema > 8.498833
|   |   |   |   |   |   |   |   |   |   |   |   |   |   |   |   |   |   revi <= 1.499825
|   |   |   |   |   |   |   |   |   |   |   |   |   |   |   |   |   |   |   maxc <= 1.519285: clean (2.0)
|   |   |   |   |   |   |   |   |   |   |   |   |   |   |   |   |   |   |   maxc > 1.519285: defective (16.0/2.0)
|   |   |   |   |   |   |   |   |   |   |   |   |   |   |   |   |   |   revi > 1.499825: clean (2.0)
|   |   |   |   |   |   |   |   |   |   |   |   |   |   |   |   wage > 0.269428
|   |   |   |   |   |   |   |   |   |   |   |   |   |   |   |   |   aage <= 1.143087: clean (230.0/8.0)
|   |   |   |   |   |   |   |   |   |   |   |   |   |   |   |   |   aage > 1.143087
|   |   |   |   |   |   |   |   |   |   |   |   |   |   |   |   |   |   wage <= 1.837484
|   |   |   |   |   |   |   |   |   |   |   |   |   |   |   |   |   |   |   aage <= 1.712609
|   |   |   |   |   |   |   |   |   |   |   |   |   |   |   |   |   |   |   |   avgc <= 1.856406
|   |   |   |   |   |   |   |   |   |   |   |   |   |   |   |   |   |   |   |   |   addl <= 4.954093: defective (10.0)
|   |   |   |   |   |   |   |   |   |   |   |   |   |   |   |   |   |   |   |   |   addl > 4.954093
|   |   |   |   |   |   |   |   |   |   |   |   |   |   |   |   |   |   |   |   |   |   aage <= 1.702812
|   |   |   |   |   |   |   |   |   |   |   |   |   |   |   |   |   |   |   |   |   |   |   aage <= 1.584805
|   |   |   |   |   |   |   |   |   |   |   |   |   |   |   |   |   |   |   |   |   |   |   |   adda <= 33.484887: clean (11.0/1.0)
|   |   |   |   |   |   |   |   |   |   |   |   |   |   |   |   |   |   |   |   |   |   |   |   adda > 33.484887: defective (3.0/1.0)
|   |   |   |   |   |   |   |   |   |   |   |   |   |   |   |   |   |   |   |   |   |   |   aage > 1.584805: defective (4.0)
|   |   |   |   |   |   |   |   |   |   |   |   |   |   |   |   |   |   |   |   |   |   aage > 1.702812: clean (8.0)
|   |   |   |   |   |   |   |   |   |   |   |   |   |   |   |   |   |   |   |   avgc > 1.856406
|   |   |   |   |   |   |   |   |   |   |   |   |   |   |   |   |   |   |   |   |   revi <= 1.434869: clean (40.0/2.0)
|   |   |   |   |   |   |   |   |   |   |   |   |   |   |   |   |   |   |   |   |   revi > 1.434869
|   |   |   |   |   |   |   |   |   |   |   |   |   |   |   |   |   |   |   |   |   |   addm <= 11
|   |   |   |   |   |   |   |   |   |   |   |   |   |   |   |   |   |   |   |   |   |   |   adda <= 6.629049: clean (11.0/1.0)
|   |   |   |   |   |   |   |   |   |   |   |   |   |   |   |   |   |   |   |   |   |   |   adda > 6.629049: defective (4.0)
|   |   |   |   |   |   |   |   |   |   |   |   |   |   |   |   |   |   |   |   |   |   addm > 11: clean (7.0)
|   |   |   |   |   |   |   |   |   |   |   |   |   |   |   |   |   |   |   aage > 1.712609: defective (7.0/1.0)
|   |   |   |   |   |   |   |   |   |   |   |   |   |   |   |   |   |   wage > 1.837484: clean (14.0)
|   |   |   |   |   |   |   |   |   |   |   |   |   |   |   avgc > 6.034019
|   |   |   |   |   |   |   |   |   |   |   |   |   |   |   |   aage <= 0.870973: clean (13.0)
|   |   |   |   |   |   |   |   |   |   |   |   |   |   |   |   aage > 0.870973
|   |   |   |   |   |   |   |   |   |   |   |   |   |   |   |   |   cchl <= 0.101399: clean (5.0)
|   |   |   |   |   |   |   |   |   |   |   |   |   |   |   |   |   cchl > 0.101399: defective (18.0/2.0)
|   |   |   |   |   |   |   |   |   |   |   |   |   |   maxc > 7.911986
|   |   |   |   |   |   |   |   |   |   |   |   |   |   |   auth <= 1.007173: clean (851.0/5.0)
|   |   |   |   |   |   |   |   |   |   |   |   |   |   |   auth > 1.007173
|   |   |   |   |   |   |   |   |   |   |   |   |   |   |   |   auth <= 1.980064: defective (20.0)
|   |   |   |   |   |   |   |   |   |   |   |   |   |   |   |   auth > 1.980064
|   |   |   |   |   |   |   |   |   |   |   |   |   |   |   |   |   revi <= 2.49918
|   |   |   |   |   |   |   |   |   |   |   |   |   |   |   |   |   |   wage <= -1.427017: clean (31.0)
|   |   |   |   |   |   |   |   |   |   |   |   |   |   |   |   |   |   wage > -1.427017
|   |   |   |   |   |   |   |   |   |   |   |   |   |   |   |   |   |   |   wage <= -0.860679: defective (7.0/1.0)
|   |   |   |   |   |   |   |   |   |   |   |   |   |   |   |   |   |   |   wage > -0.860679
|   |   |   |   |   |   |   |   |   |   |   |   |   |   |   |   |   |   |   |   addm <= 62: clean (40.0)
|   |   |   |   |   |   |   |   |   |   |   |   |   |   |   |   |   |   |   |   addm > 62
|   |   |   |   |   |   |   |   |   |   |   |   |   |   |   |   |   |   |   |   |   addl <= 80.571112: defective (2.0)
|   |   |   |   |   |   |   |   |   |   |   |   |   |   |   |   |   |   |   |   |   addl > 80.571112: clean (2.0)
|   |   |   |   |   |   |   |   |   |   |   |   |   |   |   |   |   revi > 2.49918: clean (74.0/1.0)
|   |   |   |   |   |   |   |   |   |   |   |   |   refa > 0.092512
|   |   |   |   |   |   |   |   |   |   |   |   |   |   refa <= 0.989258: defective (17.0)
|   |   |   |   |   |   |   |   |   |   |   |   |   |   refa > 0.989258: clean (35.0/2.0)
|   |   |   |   |   |   |   |   |   |   |   |   aage > 1.867781: defective (31.0)
|   |   |   |   |   |   |   |   |   |   |   wage > 1.860579
|   |   |   |   |   |   |   |   |   |   |   |   rema <= 1.003542
|   |   |   |   |   |   |   |   |   |   |   |   |   cchl <= 22.318178
|   |   |   |   |   |   |   |   |   |   |   |   |   |   ccha <= 1.9822
|   |   |   |   |   |   |   |   |   |   |   |   |   |   |   remm <= 1.499657: defective (12.0)
|   |   |   |   |   |   |   |   |   |   |   |   |   |   |   remm > 1.499657: clean (14.0)
|   |   |   |   |   |   |   |   |   |   |   |   |   |   ccha > 1.9822
|   |   |   |   |   |   |   |   |   |   |   |   |   |   |   addl <= 11.940019
|   |   |   |   |   |   |   |   |   |   |   |   |   |   |   |   addl <= 10.498551
|   |   |   |   |   |   |   |   |   |   |   |   |   |   |   |   |   maxc <= 32.0005: clean (272.0/5.0)
|   |   |   |   |   |   |   |   |   |   |   |   |   |   |   |   |   maxc > 32.0005
|   |   |   |   |   |   |   |   |   |   |   |   |   |   |   |   |   |   cchl <= 1.828826: defective (7.0)
|   |   |   |   |   |   |   |   |   |   |   |   |   |   |   |   |   |   cchl > 1.828826: clean (107.0/12.0)
|   |   |   |   |   |   |   |   |   |   |   |   |   |   |   |   addl > 10.498551
|   |   |   |   |   |   |   |   |   |   |   |   |   |   |   |   |   addl <= 11.14013: clean (31.0/2.0)
|   |   |   |   |   |   |   |   |   |   |   |   |   |   |   |   |   addl > 11.14013: defective (9.0)
|   |   |   |   |   |   |   |   |   |   |   |   |   |   |   addl > 11.940019: clean (267.0/2.0)
|   |   |   |   |   |   |   |   |   |   |   |   |   cchl > 22.318178
|   |   |   |   |   |   |   |   |   |   |   |   |   |   maxc <= 3.499167
|   |   |   |   |   |   |   |   |   |   |   |   |   |   |   cchl <= 24.989203: defective (38.0/1.0)
|   |   |   |   |   |   |   |   |   |   |   |   |   |   |   cchl > 24.989203: clean (16.0/3.0)
|   |   |   |   |   |   |   |   |   |   |   |   |   |   maxc > 3.499167
|   |   |   |   |   |   |   |   |   |   |   |   |   |   |   aage <= 2.963038
|   |   |   |   |   |   |   |   |   |   |   |   |   |   |   |   revi <= 3.024246: clean (6.0)
|   |   |   |   |   |   |   |   |   |   |   |   |   |   |   |   revi > 3.024246: defective (6.0/1.0)
|   |   |   |   |   |   |   |   |   |   |   |   |   |   |   aage > 2.963038: clean (183.0/9.0)
|   |   |   |   |   |   |   |   |   |   |   |   rema > 1.003542
|   |   |   |   |   |   |   |   |   |   |   |   |   rema <= 1.996146: defective (278.0)
|   |   |   |   |   |   |   |   |   |   |   |   |   rema > 1.996146
|   |   |   |   |   |   |   |   |   |   |   |   |   |   cchm <= -1.008555
|   |   |   |   |   |   |   |   |   |   |   |   |   |   |   cchl <= -1.984216
|   |   |   |   |   |   |   |   |   |   |   |   |   |   |   |   cchm <= -1.992811
|   |   |   |   |   |   |   |   |   |   |   |   |   |   |   |   |   auth <= 1.003154
|   |   |   |   |   |   |   |   |   |   |   |   |   |   |   |   |   |   avgc <= 223.075095
|   |   |   |   |   |   |   |   |   |   |   |   |   |   |   |   |   |   |   remm <= 1052
|   |   |   |   |   |   |   |   |   |   |   |   |   |   |   |   |   |   |   |   reml <= 5.904392
|   |   |   |   |   |   |   |   |   |   |   |   |   |   |   |   |   |   |   |   |   rema <= 5.03834
|   |   |   |   |   |   |   |   |   |   |   |   |   |   |   |   |   |   |   |   |   |   maxc <= 3.499167
|   |   |   |   |   |   |   |   |   |   |   |   |   |   |   |   |   |   |   |   |   |   |   aage <= 12.07: defective (8.0)
|   |   |   |   |   |   |   |   |   |   |   |   |   |   |   |   |   |   |   |   |   |   |   aage > 12.07: clean (3.0)
|   |   |   |   |   |   |   |   |   |   |   |   |   |   |   |   |   |   |   |   |   |   maxc > 3.499167: clean (8.0)
|   |   |   |   |   |   |   |   |   |   |   |   |   |   |   |   |   |   |   |   |   rema > 5.03834: defective (23.0)
|   |   |   |   |   |   |   |   |   |   |   |   |   |   |   |   |   |   |   |   reml > 5.904392
|   |   |   |   |   |   |   |   |   |   |   |   |   |   |   |   |   |   |   |   |   refa <= 0.016856
|   |   |   |   |   |   |   |   |   |   |   |   |   |   |   |   |   |   |   |   |   |   aage <= 20.670235
|   |   |   |   |   |   |   |   |   |   |   |   |   |   |   |   |   |   |   |   |   |   |   addm <= 3.758808
|   |   |   |   |   |   |   |   |   |   |   |   |   |   |   |   |   |   |   |   |   |   |   |   addm <= 3.163016
|   |   |   |   |   |   |   |   |   |   |   |   |   |   |   |   |   |   |   |   |   |   |   |   |   comm <= 1
|   |   |   |   |   |   |   |   |   |   |   |   |   |   |   |   |   |   |   |   |   |   |   |   |   |   rema <= 12.027289
|   |   |   |   |   |   |   |   |   |   |   |   |   |   |   |   |   |   |   |   |   |   |   |   |   |   |   aage <= 13.5
|   |   |   |   |   |   |   |   |   |   |   |   |   |   |   |   |   |   |   |   |   |   |   |   |   |   |   |   maxc <= 5.056285
|   |   |   |   |   |   |   |   |   |   |   |   |   |   |   |   |   |   |   |   |   |   |   |   |   |   |   |   |   avgc <= 1.524688: defective (2.0)
|   |   |   |   |   |   |   |   |   |   |   |   |   |   |   |   |   |   |   |   |   |   |   |   |   |   |   |   |   avgc > 1.524688: clean (2.0)
|   |   |   |   |   |   |   |   |   |   |   |   |   |   |   |   |   |   |   |   |   |   |   |   |   |   |   |   maxc > 5.056285: defective (10.0)
|   |   |   |   |   |   |   |   |   |   |   |   |   |   |   |   |   |   |   |   |   |   |   |   |   |   |   aage > 13.5: clean (5.0)
|   |   |   |   |   |   |   |   |   |   |   |   |   |   |   |   |   |   |   |   |   |   |   |   |   |   rema > 12.027289: clean (6.0)
|   |   |   |   |   |   |   |   |   |   |   |   |   |   |   |   |   |   |   |   |   |   |   |   |   comm > 1: clean (3.0)
|   |   |   |   |   |   |   |   |   |   |   |   |   |   |   |   |   |   |   |   |   |   |   |   addm > 3.163016: defective (2.0)
|   |   |   |   |   |   |   |   |   |   |   |   |   |   |   |   |   |   |   |   |   |   |   addm > 3.758808
|   |   |   |   |   |   |   |   |   |   |   |   |   |   |   |   |   |   |   |   |   |   |   |   avgc <= 6.916515
|   |   |   |   |   |   |   |   |   |   |   |   |   |   |   |   |   |   |   |   |   |   |   |   |   remm <= 24.8746: clean (38.0)
|   |   |   |   |   |   |   |   |   |   |   |   |   |   |   |   |   |   |   |   |   |   |   |   |   remm > 24.8746
|   |   |   |   |   |   |   |   |   |   |   |   |   |   |   |   |   |   |   |   |   |   |   |   |   |   avgc <= 1.002814: clean (17.0)
|   |   |   |   |   |   |   |   |   |   |   |   |   |   |   |   |   |   |   |   |   |   |   |   |   |   avgc > 1.002814
|   |   |   |   |   |   |   |   |   |   |   |   |   |   |   |   |   |   |   |   |   |   |   |   |   |   |   avgc <= 1.958967: defective (8.0)
|   |   |   |   |   |   |   |   |   |   |   |   |   |   |   |   |   |   |   |   |   |   |   |   |   |   |   avgc > 1.958967
|   |   |   |   |   |   |   |   |   |   |   |   |   |   |   |   |   |   |   |   |   |   |   |   |   |   |   |   maxc <= 1.963602: defective (4.0)
|   |   |   |   |   |   |   |   |   |   |   |   |   |   |   |   |   |   |   |   |   |   |   |   |   |   |   |   maxc > 1.963602
|   |   |   |   |   |   |   |   |   |   |   |   |   |   |   |   |   |   |   |   |   |   |   |   |   |   |   |   |   avgc <= 6.184633
|   |   |   |   |   |   |   |   |   |   |   |   |   |   |   |   |   |   |   |   |   |   |   |   |   |   |   |   |   |   reml <= 60.873197
|   |   |   |   |   |   |   |   |   |   |   |   |   |   |   |   |   |   |   |   |   |   |   |   |   |   |   |   |   |   |   aage <= 3.04: defective (4.0)
|   |   |   |   |   |   |   |   |   |   |   |   |   |   |   |   |   |   |   |   |   |   |   |   |   |   |   |   |   |   |   aage > 3.04
|   |   |   |   |   |   |   |   |   |   |   |   |   |   |   |   |   |   |   |   |   |   |   |   |   |   |   |   |   |   |   |   rema <= 30.82627: defective (3.0/1.0)
|   |   |   |   |   |   |   |   |   |   |   |   |   |   |   |   |   |   |   |   |   |   |   |   |   |   |   |   |   |   |   |   rema > 30.82627: clean (10.0/1.0)
|   |   |   |   |   |   |   |   |   |   |   |   |   |   |   |   |   |   |   |   |   |   |   |   |   |   |   |   |   |   reml > 60.873197: clean (19.0)
|   |   |   |   |   |   |   |   |   |   |   |   |   |   |   |   |   |   |   |   |   |   |   |   |   |   |   |   |   avgc > 6.184633: defective (4.0)
|   |   |   |   |   |   |   |   |   |   |   |   |   |   |   |   |   |   |   |   |   |   |   |   avgc > 6.916515: clean (170.0/4.0)
|   |   |   |   |   |   |   |   |   |   |   |   |   |   |   |   |   |   |   |   |   |   aage > 20.670235
|   |   |   |   |   |   |   |   |   |   |   |   |   |   |   |   |   |   |   |   |   |   |   reml <= 22.213782
|   |   |   |   |   |   |   |   |   |   |   |   |   |   |   |   |   |   |   |   |   |   |   |   reml <= 8.613822
|   |   |   |   |   |   |   |   |   |   |   |   |   |   |   |   |   |   |   |   |   |   |   |   |   cchl <= -3.509445: clean (3.0)
|   |   |   |   |   |   |   |   |   |   |   |   |   |   |   |   |   |   |   |   |   |   |   |   |   cchl > -3.509445: defective (2.0)
|   |   |   |   |   |   |   |   |   |   |   |   |   |   |   |   |   |   |   |   |   |   |   |   reml > 8.613822: clean (29.0)
|   |   |   |   |   |   |   |   |   |   |   |   |   |   |   |   |   |   |   |   |   |   |   reml > 22.213782
|   |   |   |   |   |   |   |   |   |   |   |   |   |   |   |   |   |   |   |   |   |   |   |   revi <= 1.953436
|   |   |   |   |   |   |   |   |   |   |   |   |   |   |   |   |   |   |   |   |   |   |   |   |   aage <= 34.86
|   |   |   |   |   |   |   |   |   |   |   |   |   |   |   |   |   |   |   |   |   |   |   |   |   |   cchl <= -2.054194: defective (60.0/6.0)
|   |   |   |   |   |   |   |   |   |   |   |   |   |   |   |   |   |   |   |   |   |   |   |   |   |   cchl > -2.054194: clean (3.0)
|   |   |   |   |   |   |   |   |   |   |   |   |   |   |   |   |   |   |   |   |   |   |   |   |   aage > 34.86
|   |   |   |   |   |   |   |   |   |   |   |   |   |   |   |   |   |   |   |   |   |   |   |   |   |   maxc <= 142.944885: clean (17.0/2.0)
|   |   |   |   |   |   |   |   |   |   |   |   |   |   |   |   |   |   |   |   |   |   |   |   |   |   maxc > 142.944885: defective (9.0/2.0)
|   |   |   |   |   |   |   |   |   |   |   |   |   |   |   |   |   |   |   |   |   |   |   |   revi > 1.953436: clean (9.0/1.0)
|   |   |   |   |   |   |   |   |   |   |   |   |   |   |   |   |   |   |   |   |   refa > 0.016856
|   |   |   |   |   |   |   |   |   |   |   |   |   |   |   |   |   |   |   |   |   |   refa <= 0.978548: defective (18.0)
|   |   |   |   |   |   |   |   |   |   |   |   |   |   |   |   |   |   |   |   |   |   refa > 0.978548
|   |   |   |   |   |   |   |   |   |   |   |   |   |   |   |   |   |   |   |   |   |   |   adda <= 17: clean (9.0)
|   |   |   |   |   |   |   |   |   |   |   |   |   |   |   |   |   |   |   |   |   |   |   adda > 17: defective (3.0/1.0)
|   |   |   |   |   |   |   |   |   |   |   |   |   |   |   |   |   |   |   remm > 1052
|   |   |   |   |   |   |   |   |   |   |   |   |   |   |   |   |   |   |   |   reml <= 2178
|   |   |   |   |   |   |   |   |   |   |   |   |   |   |   |   |   |   |   |   |   remm <= 2151
|   |   |   |   |   |   |   |   |   |   |   |   |   |   |   |   |   |   |   |   |   |   revi <= 3.424876
|   |   |   |   |   |   |   |   |   |   |   |   |   |   |   |   |   |   |   |   |   |   |   aage <= 21.839665: defective (6.0)
|   |   |   |   |   |   |   |   |   |   |   |   |   |   |   |   |   |   |   |   |   |   |   aage > 21.839665
|   |   |   |   |   |   |   |   |   |   |   |   |   |   |   |   |   |   |   |   |   |   |   |   maxc <= 34: clean (2.0)
|   |   |   |   |   |   |   |   |   |   |   |   |   |   |   |   |   |   |   |   |   |   |   |   maxc > 34
|   |   |   |   |   |   |   |   |   |   |   |   |   |   |   |   |   |   |   |   |   |   |   |   |   ccha <= -739: clean (4.0)
|   |   |   |   |   |   |   |   |   |   |   |   |   |   |   |   |   |   |   |   |   |   |   |   |   ccha > -739
|   |   |   |   |   |   |   |   |   |   |   |   |   |   |   |   |   |   |   |   |   |   |   |   |   |   reml <= 2126.513743: defective (13.0)
|   |   |   |   |   |   |   |   |   |   |   |   |   |   |   |   |   |   |   |   |   |   |   |   |   |   reml > 2126.513743
|   |   |   |   |   |   |   |   |   |   |   |   |   |   |   |   |   |   |   |   |   |   |   |   |   |   |   rema <= 2154.489533
|   |   |   |   |   |   |   |   |   |   |   |   |   |   |   |   |   |   |   |   |   |   |   |   |   |   |   |   addl <= 1760.729593: clean (8.0/1.0)
|   |   |   |   |   |   |   |   |   |   |   |   |   |   |   |   |   |   |   |   |   |   |   |   |   |   |   |   addl > 1760.729593: defective (5.0/1.0)
|   |   |   |   |   |   |   |   |   |   |   |   |   |   |   |   |   |   |   |   |   |   |   |   |   |   |   rema > 2154.489533: defective (7.0)
|   |   |   |   |   |   |   |   |   |   |   |   |   |   |   |   |   |   |   |   |   |   revi > 3.424876: defective (4.0)
|   |   |   |   |   |   |   |   |   |   |   |   |   |   |   |   |   |   |   |   |   remm > 2151: defective (35.0)
|   |   |   |   |   |   |   |   |   |   |   |   |   |   |   |   |   |   |   |   reml > 2178
|   |   |   |   |   |   |   |   |   |   |   |   |   |   |   |   |   |   |   |   |   adda <= 6374.636853: clean (14.0)
|   |   |   |   |   |   |   |   |   |   |   |   |   |   |   |   |   |   |   |   |   adda > 6374.636853: defective (9.0)
|   |   |   |   |   |   |   |   |   |   |   |   |   |   |   |   |   |   avgc > 223.075095
|   |   |   |   |   |   |   |   |   |   |   |   |   |   |   |   |   |   |   adda <= 18.567902
|   |   |   |   |   |   |   |   |   |   |   |   |   |   |   |   |   |   |   |   cchl <= -15.289294: clean (4.0)
|   |   |   |   |   |   |   |   |   |   |   |   |   |   |   |   |   |   |   |   cchl > -15.289294
|   |   |   |   |   |   |   |   |   |   |   |   |   |   |   |   |   |   |   |   |   cchl <= -2.092215: defective (42.0/11.0)
|   |   |   |   |   |   |   |   |   |   |   |   |   |   |   |   |   |   |   |   |   cchl > -2.092215: clean (4.0)
|   |   |   |   |   |   |   |   |   |   |   |   |   |   |   |   |   |   |   adda > 18.567902: defective (86.0/5.0)
|   |   |   |   |   |   |   |   |   |   |   |   |   |   |   |   |   auth > 1.003154
|   |   |   |   |   |   |   |   |   |   |   |   |   |   |   |   |   |   ccha <= -81.899071: clean (5.0/1.0)
|   |   |   |   |   |   |   |   |   |   |   |   |   |   |   |   |   |   ccha > -81.899071
|   |   |   |   |   |   |   |   |   |   |   |   |   |   |   |   |   |   |   addm <= 6.299941
|   |   |   |   |   |   |   |   |   |   |   |   |   |   |   |   |   |   |   |   auth <= 1.551859: defective (2.0)
|   |   |   |   |   |   |   |   |   |   |   |   |   |   |   |   |   |   |   |   auth > 1.551859: clean (3.0)
|   |   |   |   |   |   |   |   |   |   |   |   |   |   |   |   |   |   |   addm > 6.299941: defective (63.0)
|   |   |   |   |   |   |   |   |   |   |   |   |   |   |   |   cchm > -1.992811: defective (31.0)
|   |   |   |   |   |   |   |   |   |   |   |   |   |   |   cchl > -1.984216: defective (90.0)
|   |   |   |   |   |   |   |   |   |   |   |   |   |   cchm > -1.008555
|   |   |   |   |   |   |   |   |   |   |   |   |   |   |   remm <= 1.994652: defective (74.0)
|   |   |   |   |   |   |   |   |   |   |   |   |   |   |   remm > 1.994652
|   |   |   |   |   |   |   |   |   |   |   |   |   |   |   |   remm <= 2
|   |   |   |   |   |   |   |   |   |   |   |   |   |   |   |   |   maxc <= 1.983288
|   |   |   |   |   |   |   |   |   |   |   |   |   |   |   |   |   |   aage <= 18.57: clean (30.0)
|   |   |   |   |   |   |   |   |   |   |   |   |   |   |   |   |   |   aage > 18.57
|   |   |   |   |   |   |   |   |   |   |   |   |   |   |   |   |   |   |   aage <= 23.074843
|   |   |   |   |   |   |   |   |   |   |   |   |   |   |   |   |   |   |   |   addl <= 11: defective (15.0)
|   |   |   |   |   |   |   |   |   |   |   |   |   |   |   |   |   |   |   |   addl > 11: clean (5.0)
|   |   |   |   |   |   |   |   |   |   |   |   |   |   |   |   |   |   |   aage > 23.074843: clean (13.0)
|   |   |   |   |   |   |   |   |   |   |   |   |   |   |   |   |   maxc > 1.983288
|   |   |   |   |   |   |   |   |   |   |   |   |   |   |   |   |   |   reml <= 3.453002: clean (315.0/9.0)
|   |   |   |   |   |   |   |   |   |   |   |   |   |   |   |   |   |   reml > 3.453002
|   |   |   |   |   |   |   |   |   |   |   |   |   |   |   |   |   |   |   addl <= 9.497557
|   |   |   |   |   |   |   |   |   |   |   |   |   |   |   |   |   |   |   |   aage <= 21.75: clean (15.0/1.0)
|   |   |   |   |   |   |   |   |   |   |   |   |   |   |   |   |   |   |   |   aage > 21.75
|   |   |   |   |   |   |   |   |   |   |   |   |   |   |   |   |   |   |   |   |   maxc <= 132.994971: defective (10.0/1.0)
|   |   |   |   |   |   |   |   |   |   |   |   |   |   |   |   |   |   |   |   |   maxc > 132.994971: clean (2.0)
|   |   |   |   |   |   |   |   |   |   |   |   |   |   |   |   |   |   |   addl > 9.497557: clean (161.0/9.0)
|   |   |   |   |   |   |   |   |   |   |   |   |   |   |   |   remm > 2
|   |   |   |   |   |   |   |   |   |   |   |   |   |   |   |   |   remm <= 2.996714: defective (182.0)
|   |   |   |   |   |   |   |   |   |   |   |   |   |   |   |   |   remm > 2.996714
|   |   |   |   |   |   |   |   |   |   |   |   |   |   |   |   |   |   adda <= 4.000531
|   |   |   |   |   |   |   |   |   |   |   |   |   |   |   |   |   |   |   cchm <= -0.017853
|   |   |   |   |   |   |   |   |   |   |   |   |   |   |   |   |   |   |   |   cchm <= -0.984429: clean (51.0)
|   |   |   |   |   |   |   |   |   |   |   |   |   |   |   |   |   |   |   |   cchm > -0.984429: defective (23.0)
|   |   |   |   |   |   |   |   |   |   |   |   |   |   |   |   |   |   |   cchm > -0.017853
|   |   |   |   |   |   |   |   |   |   |   |   |   |   |   |   |   |   |   |   adda <= 3.989672
|   |   |   |   |   |   |   |   |   |   |   |   |   |   |   |   |   |   |   |   |   adda <= 3.00701
|   |   |   |   |   |   |   |   |   |   |   |   |   |   |   |   |   |   |   |   |   |   aage <= 5.014186
|   |   |   |   |   |   |   |   |   |   |   |   |   |   |   |   |   |   |   |   |   |   |   maxc <= 14.928425
|   |   |   |   |   |   |   |   |   |   |   |   |   |   |   |   |   |   |   |   |   |   |   |   avgc <= 12.430543
|   |   |   |   |   |   |   |   |   |   |   |   |   |   |   |   |   |   |   |   |   |   |   |   |   aage <= 2.144455: defective (2.0)
|   |   |   |   |   |   |   |   |   |   |   |   |   |   |   |   |   |   |   |   |   |   |   |   |   aage > 2.144455: clean (35.0/1.0)
|   |   |   |   |   |   |   |   |   |   |   |   |   |   |   |   |   |   |   |   |   |   |   |   avgc > 12.430543: defective (21.0)
|   |   |   |   |   |   |   |   |   |   |   |   |   |   |   |   |   |   |   |   |   |   |   maxc > 14.928425: clean (82.0)
|   |   |   |   |   |   |   |   |   |   |   |   |   |   |   |   |   |   |   |   |   |   aage > 5.014186
|   |   |   |   |   |   |   |   |   |   |   |   |   |   |   |   |   |   |   |   |   |   |   avgc <= 772: clean (577.0/10.0)
|   |   |   |   |   |   |   |   |   |   |   |   |   |   |   |   |   |   |   |   |   |   |   avgc > 772
|   |   |   |   |   |   |   |   |   |   |   |   |   |   |   |   |   |   |   |   |   |   |   |   auth <= 2.499692: clean (19.0)
|   |   |   |   |   |   |   |   |   |   |   |   |   |   |   |   |   |   |   |   |   |   |   |   auth > 2.499692: defective (10.0)
|   |   |   |   |   |   |   |   |   |   |   |   |   |   |   |   |   |   |   |   |   adda > 3.00701: defective (90.0)
|   |   |   |   |   |   |   |   |   |   |   |   |   |   |   |   |   |   |   |   adda > 3.989672
|   |   |   |   |   |   |   |   |   |   |   |   |   |   |   |   |   |   |   |   |   cchm <= 9.097784
|   |   |   |   |   |   |   |   |   |   |   |   |   |   |   |   |   |   |   |   |   |   avgc <= 393.04008
|   |   |   |   |   |   |   |   |   |   |   |   |   |   |   |   |   |   |   |   |   |   |   remm <= 8.044686: clean (614.0/18.0)
|   |   |   |   |   |   |   |   |   |   |   |   |   |   |   |   |   |   |   |   |   |   |   remm > 8.044686
|   |   |   |   |   |   |   |   |   |   |   |   |   |   |   |   |   |   |   |   |   |   |   |   remm <= 8.870615: defective (7.0)
|   |   |   |   |   |   |   |   |   |   |   |   |   |   |   |   |   |   |   |   |   |   |   |   remm > 8.870615: clean (59.0/1.0)
|   |   |   |   |   |   |   |   |   |   |   |   |   |   |   |   |   |   |   |   |   |   avgc > 393.04008
|   |   |   |   |   |   |   |   |   |   |   |   |   |   |   |   |   |   |   |   |   |   |   revi <= 1.499825: defective (14.0/4.0)
|   |   |   |   |   |   |   |   |   |   |   |   |   |   |   |   |   |   |   |   |   |   |   revi > 1.499825: clean (50.0)
|   |   |   |   |   |   |   |   |   |   |   |   |   |   |   |   |   |   |   |   |   cchm > 9.097784
|   |   |   |   |   |   |   |   |   |   |   |   |   |   |   |   |   |   |   |   |   |   ccha <= 1.499905
|   |   |   |   |   |   |   |   |   |   |   |   |   |   |   |   |   |   |   |   |   |   |   cchl <= 8.28862: clean (10.0/2.0)
|   |   |   |   |   |   |   |   |   |   |   |   |   |   |   |   |   |   |   |   |   |   |   cchl > 8.28862: defective (6.0)
|   |   |   |   |   |   |   |   |   |   |   |   |   |   |   |   |   |   |   |   |   |   ccha > 1.499905: clean (13.0/1.0)
|   |   |   |   |   |   |   |   |   |   |   |   |   |   |   |   |   |   adda > 4.000531
|   |   |   |   |   |   |   |   |   |   |   |   |   |   |   |   |   |   |   adda <= 4.998649: defective (168.0)
|   |   |   |   |   |   |   |   |   |   |   |   |   |   |   |   |   |   |   adda > 4.998649
|   |   |   |   |   |   |   |   |   |   |   |   |   |   |   |   |   |   |   |   refa <= 0.002681
|   |   |   |   |   |   |   |   |   |   |   |   |   |   |   |   |   |   |   |   |   ccha <= 15.014402
|   |   |   |   |   |   |   |   |   |   |   |   |   |   |   |   |   |   |   |   |   |   addl <= 4.969435: defective (32.0)
|   |   |   |   |   |   |   |   |   |   |   |   |   |   |   |   |   |   |   |   |   |   addl > 4.969435
|   |   |   |   |   |   |   |   |   |   |   |   |   |   |   |   |   |   |   |   |   |   |   auth <= 1.002062
|   |   |   |   |   |   |   |   |   |   |   |   |   |   |   |   |   |   |   |   |   |   |   |   revi <= 2.986939
|   |   |   |   |   |   |   |   |   |   |   |   |   |   |   |   |   |   |   |   |   |   |   |   |   revi <= 2.029497
|   |   |   |   |   |   |   |   |   |   |   |   |   |   |   |   |   |   |   |   |   |   |   |   |   |   avgc <= 393.04008
|   |   |   |   |   |   |   |   |   |   |   |   |   |   |   |   |   |   |   |   |   |   |   |   |   |   |   ccha <= -0.007505
|   |   |   |   |   |   |   |   |   |   |   |   |   |   |   |   |   |   |   |   |   |   |   |   |   |   |   |   cchl <= -0.974409
|   |   |   |   |   |   |   |   |   |   |   |   |   |   |   |   |   |   |   |   |   |   |   |   |   |   |   |   |   cchm <= -0.91575: clean (93.0/4.0)
|   |   |   |   |   |   |   |   |   |   |   |   |   |   |   |   |   |   |   |   |   |   |   |   |   |   |   |   |   cchm > -0.91575
|   |   |   |   |   |   |   |   |   |   |   |   |   |   |   |   |   |   |   |   |   |   |   |   |   |   |   |   |   |   revi <= 1.993047: defective (36.0)
|   |   |   |   |   |   |   |   |   |   |   |   |   |   |   |   |   |   |   |   |   |   |   |   |   |   |   |   |   |   revi > 1.993047
|   |   |   |   |   |   |   |   |   |   |   |   |   |   |   |   |   |   |   |   |   |   |   |   |   |   |   |   |   |   |   cchl <= -6.50095: clean (61.0)
|   |   |   |   |   |   |   |   |   |   |   |   |   |   |   |   |   |   |   |   |   |   |   |   |   |   |   |   |   |   |   cchl > -6.50095
|   |   |   |   |   |   |   |   |   |   |   |   |   |   |   |   |   |   |   |   |   |   |   |   |   |   |   |   |   |   |   |   maxc <= 9.072283
|   |   |   |   |   |   |   |   |   |   |   |   |   |   |   |   |   |   |   |   |   |   |   |   |   |   |   |   |   |   |   |   |   aage <= 16.68: defective (28.0)
|   |   |   |   |   |   |   |   |   |   |   |   |   |   |   |   |   |   |   |   |   |   |   |   |   |   |   |   |   |   |   |   |   aage > 16.68: clean (3.0)
|   |   |   |   |   |   |   |   |   |   |   |   |   |   |   |   |   |   |   |   |   |   |   |   |   |   |   |   |   |   |   |   maxc > 9.072283: clean (18.0/1.0)
|   |   |   |   |   |   |   |   |   |   |   |   |   |   |   |   |   |   |   |   |   |   |   |   |   |   |   |   cchl > -0.974409: defective (63.0)
|   |   |   |   |   |   |   |   |   |   |   |   |   |   |   |   |   |   |   |   |   |   |   |   |   |   |   ccha > -0.007505
|   |   |   |   |   |   |   |   |   |   |   |   |   |   |   |   |   |   |   |   |   |   |   |   |   |   |   |   adda <= 8
|   |   |   |   |   |   |   |   |   |   |   |   |   |   |   |   |   |   |   |   |   |   |   |   |   |   |   |   |   adda <= 5.981318
|   |   |   |   |   |   |   |   |   |   |   |   |   |   |   |   |   |   |   |   |   |   |   |   |   |   |   |   |   |   adda <= 5.005102
|   |   |   |   |   |   |   |   |   |   |   |   |   |   |   |   |   |   |   |   |   |   |   |   |   |   |   |   |   |   |   avgc <= 5.86682
|   |   |   |   |   |   |   |   |   |   |   |   |   |   |   |   |   |   |   |   |   |   |   |   |   |   |   |   |   |   |   |   reml <= 4.00985: clean (32.0/1.0)
|   |   |   |   |   |   |   |   |   |   |   |   |   |   |   |   |   |   |   |   |   |   |   |   |   |   |   |   |   |   |   |   reml > 4.00985
|   |   |   |   |   |   |   |   |   |   |   |   |   |   |   |   |   |   |   |   |   |   |   |   |   |   |   |   |   |   |   |   |   reml <= 4.94854: defective (14.0)
|   |   |   |   |   |   |   |   |   |   |   |   |   |   |   |   |   |   |   |   |   |   |   |   |   |   |   |   |   |   |   |   |   reml > 4.94854
|   |   |   |   |   |   |   |   |   |   |   |   |   |   |   |   |   |   |   |   |   |   |   |   |   |   |   |   |   |   |   |   |   |   maxc <= 5.49758
|   |   |   |   |   |   |   |   |   |   |   |   |   |   |   |   |   |   |   |   |   |   |   |   |   |   |   |   |   |   |   |   |   |   |   aage <= 9.854548
|   |   |   |   |   |   |   |   |   |   |   |   |   |   |   |   |   |   |   |   |   |   |   |   |   |   |   |   |   |   |   |   |   |   |   |   revi <= 1.499825
|   |   |   |   |   |   |   |   |   |   |   |   |   |   |   |   |   |   |   |   |   |   |   |   |   |   |   |   |   |   |   |   |   |   |   |   |   aage <= 6.284901: clean (4.0)
|   |   |   |   |   |   |   |   |   |   |   |   |   |   |   |   |   |   |   |   |   |   |   |   |   |   |   |   |   |   |   |   |   |   |   |   |   aage > 6.284901: defective (16.0/2.0)
|   |   |   |   |   |   |   |   |   |   |   |   |   |   |   |   |   |   |   |   |   |   |   |   |   |   |   |   |   |   |   |   |   |   |   |   revi > 1.499825: clean (3.0)
|   |   |   |   |   |   |   |   |   |   |   |   |   |   |   |   |   |   |   |   |   |   |   |   |   |   |   |   |   |   |   |   |   |   |   aage > 9.854548: clean (19.0)
|   |   |   |   |   |   |   |   |   |   |   |   |   |   |   |   |   |   |   |   |   |   |   |   |   |   |   |   |   |   |   |   |   |   maxc > 5.49758: defective (7.0)
|   |   |   |   |   |   |   |   |   |   |   |   |   |   |   |   |   |   |   |   |   |   |   |   |   |   |   |   |   |   |   avgc > 5.86682: clean (183.0/4.0)
|   |   |   |   |   |   |   |   |   |   |   |   |   |   |   |   |   |   |   |   |   |   |   |   |   |   |   |   |   |   adda > 5.005102: defective (32.0)
|   |   |   |   |   |   |   |   |   |   |   |   |   |   |   |   |   |   |   |   |   |   |   |   |   |   |   |   |   adda > 5.981318
|   |   |   |   |   |   |   |   |   |   |   |   |   |   |   |   |   |   |   |   |   |   |   |   |   |   |   |   |   |   addm <= 5.966777
|   |   |   |   |   |   |   |   |   |   |   |   |   |   |   |   |   |   |   |   |   |   |   |   |   |   |   |   |   |   |   revi <= 1.827101: defective (9.0/1.0)
|   |   |   |   |   |   |   |   |   |   |   |   |   |   |   |   |   |   |   |   |   |   |   |   |   |   |   |   |   |   |   revi > 1.827101
|   |   |   |   |   |   |   |   |   |   |   |   |   |   |   |   |   |   |   |   |   |   |   |   |   |   |   |   |   |   |   |   ccha <= 0.49959
|   |   |   |   |   |   |   |   |   |   |   |   |   |   |   |   |   |   |   |   |   |   |   |   |   |   |   |   |   |   |   |   |   maxc <= 45.497162: defective (2.0)
|   |   |   |   |   |   |   |   |   |   |   |   |   |   |   |   |   |   |   |   |   |   |   |   |   |   |   |   |   |   |   |   |   maxc > 45.497162: clean (4.0)
|   |   |   |   |   |   |   |   |   |   |   |   |   |   |   |   |   |   |   |   |   |   |   |   |   |   |   |   |   |   |   |   ccha > 0.49959: clean (29.0)
|   |   |   |   |   |   |   |   |   |   |   |   |   |   |   |   |   |   |   |   |   |   |   |   |   |   |   |   |   |   addm > 5.966777
|   |   |   |   |   |   |   |   |   |   |   |   |   |   |   |   |   |   |   |   |   |   |   |   |   |   |   |   |   |   |   remm <= 5.972881
|   |   |   |   |   |   |   |   |   |   |   |   |   |   |   |   |   |   |   |   |   |   |   |   |   |   |   |   |   |   |   |   rema <= 4.026183: clean (163.0/7.0)
|   |   |   |   |   |   |   |   |   |   |   |   |   |   |   |   |   |   |   |   |   |   |   |   |   |   |   |   |   |   |   |   rema > 4.026183
|   |   |   |   |   |   |   |   |   |   |   |   |   |   |   |   |   |   |   |   |   |   |   |   |   |   |   |   |   |   |   |   |   reml <= 4.578013: defective (4.0)
|   |   |   |   |   |   |   |   |   |   |   |   |   |   |   |   |   |   |   |   |   |   |   |   |   |   |   |   |   |   |   |   |   reml > 4.578013
|   |   |   |   |   |   |   |   |   |   |   |   |   |   |   |   |   |   |   |   |   |   |   |   |   |   |   |   |   |   |   |   |   |   remm <= 5.07074: clean (48.0/4.0)
|   |   |   |   |   |   |   |   |   |   |   |   |   |   |   |   |   |   |   |   |   |   |   |   |   |   |   |   |   |   |   |   |   |   remm > 5.07074: defective (3.0)
|   |   |   |   |   |   |   |   |   |   |   |   |   |   |   |   |   |   |   |   |   |   |   |   |   |   |   |   |   |   |   remm > 5.972881: clean (355.0/5.0)
|   |   |   |   |   |   |   |   |   |   |   |   |   |   |   |   |   |   |   |   |   |   |   |   |   |   |   |   adda > 8
|   |   |   |   |   |   |   |   |   |   |   |   |   |   |   |   |   |   |   |   |   |   |   |   |   |   |   |   |   ddev <= 2.030148
|   |   |   |   |   |   |   |   |   |   |   |   |   |   |   |   |   |   |   |   |   |   |   |   |   |   |   |   |   |   ccha <= 0.000104
|   |   |   |   |   |   |   |   |   |   |   |   |   |   |   |   |   |   |   |   |   |   |   |   |   |   |   |   |   |   |   addl <= 28.499761
|   |   |   |   |   |   |   |   |   |   |   |   |   |   |   |   |   |   |   |   |   |   |   |   |   |   |   |   |   |   |   |   rema <= 19.004053
|   |   |   |   |   |   |   |   |   |   |   |   |   |   |   |   |   |   |   |   |   |   |   |   |   |   |   |   |   |   |   |   |   remm <= 8.63726
|   |   |   |   |   |   |   |   |   |   |   |   |   |   |   |   |   |   |   |   |   |   |   |   |   |   |   |   |   |   |   |   |   |   revi <= 1.998783: defective (7.0)
|   |   |   |   |   |   |   |   |   |   |   |   |   |   |   |   |   |   |   |   |   |   |   |   |   |   |   |   |   |   |   |   |   |   revi > 1.998783: clean (7.0/1.0)
|   |   |   |   |   |   |   |   |   |   |   |   |   |   |   |   |   |   |   |   |   |   |   |   |   |   |   |   |   |   |   |   |   remm > 8.63726
|   |   |   |   |   |   |   |   |   |   |   |   |   |   |   |   |   |   |   |   |   |   |   |   |   |   |   |   |   |   |   |   |   |   aage <= 2.5
|   |   |   |   |   |   |   |   |   |   |   |   |   |   |   |   |   |   |   |   |   |   |   |   |   |   |   |   |   |   |   |   |   |   |   maxc <= 17: defective (5.0)
|   |   |   |   |   |   |   |   |   |   |   |   |   |   |   |   |   |   |   |   |   |   |   |   |   |   |   |   |   |   |   |   |   |   |   maxc > 17: clean (18.0)
|   |   |   |   |   |   |   |   |   |   |   |   |   |   |   |   |   |   |   |   |   |   |   |   |   |   |   |   |   |   |   |   |   |   aage > 2.5
|   |   |   |   |   |   |   |   |   |   |   |   |   |   |   |   |   |   |   |   |   |   |   |   |   |   |   |   |   |   |   |   |   |   |   addm <= 20.165161: clean (191.0/10.0)
|   |   |   |   |   |   |   |   |   |   |   |   |   |   |   |   |   |   |   |   |   |   |   |   |   |   |   |   |   |   |   |   |   |   |   addm > 20.165161
|   |   |   |   |   |   |   |   |   |   |   |   |   |   |   |   |   |   |   |   |   |   |   |   |   |   |   |   |   |   |   |   |   |   |   |   revi <= 1.499825: defective (5.0)
|   |   |   |   |   |   |   |   |   |   |   |   |   |   |   |   |   |   |   |   |   |   |   |   |   |   |   |   |   |   |   |   |   |   |   |   revi > 1.499825: clean (12.0)
|   |   |   |   |   |   |   |   |   |   |   |   |   |   |   |   |   |   |   |   |   |   |   |   |   |   |   |   |   |   |   |   rema > 19.004053
|   |   |   |   |   |   |   |   |   |   |   |   |   |   |   |   |   |   |   |   |   |   |   |   |   |   |   |   |   |   |   |   |   addm <= 19.742831: defective (9.0)
|   |   |   |   |   |   |   |   |   |   |   |   |   |   |   |   |   |   |   |   |   |   |   |   |   |   |   |   |   |   |   |   |   addm > 19.742831
|   |   |   |   |   |   |   |   |   |   |   |   |   |   |   |   |   |   |   |   |   |   |   |   |   |   |   |   |   |   |   |   |   |   remm <= 25.380853
|   |   |   |   |   |   |   |   |   |   |   |   |   |   |   |   |   |   |   |   |   |   |   |   |   |   |   |   |   |   |   |   |   |   |   addl <= 19.457868: defective (2.0)
|   |   |   |   |   |   |   |   |   |   |   |   |   |   |   |   |   |   |   |   |   |   |   |   |   |   |   |   |   |   |   |   |   |   |   addl > 19.457868: clean (29.0/2.0)
|   |   |   |   |   |   |   |   |   |   |   |   |   |   |   |   |   |   |   |   |   |   |   |   |   |   |   |   |   |   |   |   |   |   remm > 25.380853
|   |   |   |   |   |   |   |   |   |   |   |   |   |   |   |   |   |   |   |   |   |   |   |   |   |   |   |   |   |   |   |   |   |   |   addl <= 26.828649
|   |   |   |   |   |   |   |   |   |   |   |   |   |   |   |   |   |   |   |   |   |   |   |   |   |   |   |   |   |   |   |   |   |   |   |   remm <= 26.008513
|   |   |   |   |   |   |   |   |   |   |   |   |   |   |   |   |   |   |   |   |   |   |   |   |   |   |   |   |   |   |   |   |   |   |   |   |   maxc <= 12.499878: defective (3.0/1.0)
|   |   |   |   |   |   |   |   |   |   |   |   |   |   |   |   |   |   |   |   |   |   |   |   |   |   |   |   |   |   |   |   |   |   |   |   |   maxc > 12.499878: clean (3.0)
|   |   |   |   |   |   |   |   |   |   |   |   |   |   |   |   |   |   |   |   |   |   |   |   |   |   |   |   |   |   |   |   |   |   |   |   remm > 26.008513: defective (8.0)
|   |   |   |   |   |   |   |   |   |   |   |   |   |   |   |   |   |   |   |   |   |   |   |   |   |   |   |   |   |   |   |   |   |   |   addl > 26.828649: clean (10.0/2.0)
|   |   |   |   |   |   |   |   |   |   |   |   |   |   |   |   |   |   |   |   |   |   |   |   |   |   |   |   |   |   |   addl > 28.499761: clean (131.0/5.0)
|   |   |   |   |   |   |   |   |   |   |   |   |   |   |   |   |   |   |   |   |   |   |   |   |   |   |   |   |   |   ccha > 0.000104
|   |   |   |   |   |   |   |   |   |   |   |   |   |   |   |   |   |   |   |   |   |   |   |   |   |   |   |   |   |   |   cchl <= 0.993331: defective (59.0)
|   |   |   |   |   |   |   |   |   |   |   |   |   |   |   |   |   |   |   |   |   |   |   |   |   |   |   |   |   |   |   cchl > 0.993331
|   |   |   |   |   |   |   |   |   |   |   |   |   |   |   |   |   |   |   |   |   |   |   |   |   |   |   |   |   |   |   |   cchm <= 1.976018
|   |   |   |   |   |   |   |   |   |   |   |   |   |   |   |   |   |   |   |   |   |   |   |   |   |   |   |   |   |   |   |   |   cchl <= 1.009362
|   |   |   |   |   |   |   |   |   |   |   |   |   |   |   |   |   |   |   |   |   |   |   |   |   |   |   |   |   |   |   |   |   |   addl <= 22: clean (44.0)
|   |   |   |   |   |   |   |   |   |   |   |   |   |   |   |   |   |   |   |   |   |   |   |   |   |   |   |   |   |   |   |   |   |   addl > 22
|   |   |   |   |   |   |   |   |   |   |   |   |   |   |   |   |   |   |   |   |   |   |   |   |   |   |   |   |   |   |   |   |   |   |   addl <= 25.493488: defective (12.0)
|   |   |   |   |   |   |   |   |   |   |   |   |   |   |   |   |   |   |   |   |   |   |   |   |   |   |   |   |   |   |   |   |   |   |   addl > 25.493488: clean (5.0)
|   |   |   |   |   |   |   |   |   |   |   |   |   |   |   |   |   |   |   |   |   |   |   |   |   |   |   |   |   |   |   |   |   cchl > 1.009362: defective (51.0/4.0)
|   |   |   |   |   |   |   |   |   |   |   |   |   |   |   |   |   |   |   |   |   |   |   |   |   |   |   |   |   |   |   |   cchm > 1.976018
|   |   |   |   |   |   |   |   |   |   |   |   |   |   |   |   |   |   |   |   |   |   |   |   |   |   |   |   |   |   |   |   |   rema <= 6.95292
|   |   |   |   |   |   |   |   |   |   |   |   |   |   |   |   |   |   |   |   |   |   |   |   |   |   |   |   |   |   |   |   |   |   remm <= 5.021683
|   |   |   |   |   |   |   |   |   |   |   |   |   |   |   |   |   |   |   |   |   |   |   |   |   |   |   |   |   |   |   |   |   |   |   remm <= 4.989431
|   |   |   |   |   |   |   |   |   |   |   |   |   |   |   |   |   |   |   |   |   |   |   |   |   |   |   |   |   |   |   |   |   |   |   |   remm <= 4.011847
|   |   |   |   |   |   |   |   |   |   |   |   |   |   |   |   |   |   |   |   |   |   |   |   |   |   |   |   |   |   |   |   |   |   |   |   |   remm <= 3.97822
|   |   |   |   |   |   |   |   |   |   |   |   |   |   |   |   |   |   |   |   |   |   |   |   |   |   |   |   |   |   |   |   |   |   |   |   |   |   remm <= 3.002472: clean (54.0/3.0)
|   |   |   |   |   |   |   |   |   |   |   |   |   |   |   |   |   |   |   |   |   |   |   |   |   |   |   |   |   |   |   |   |   |   |   |   |   |   remm > 3.002472: defective (17.0)
|   |   |   |   |   |   |   |   |   |   |   |   |   |   |   |   |   |   |   |   |   |   |   |   |   |   |   |   |   |   |   |   |   |   |   |   |   remm > 3.97822: clean (63.0/2.0)
|   |   |   |   |   |   |   |   |   |   |   |   |   |   |   |   |   |   |   |   |   |   |   |   |   |   |   |   |   |   |   |   |   |   |   |   remm > 4.011847: defective (16.0)
|   |   |   |   |   |   |   |   |   |   |   |   |   |   |   |   |   |   |   |   |   |   |   |   |   |   |   |   |   |   |   |   |   |   |   remm > 4.989431: clean (62.0/2.0)
|   |   |   |   |   |   |   |   |   |   |   |   |   |   |   |   |   |   |   |   |   |   |   |   |   |   |   |   |   |   |   |   |   |   remm > 5.021683
|   |   |   |   |   |   |   |   |   |   |   |   |   |   |   |   |   |   |   |   |   |   |   |   |   |   |   |   |   |   |   |   |   |   |   remm <= 5.983441: defective (28.0)
|   |   |   |   |   |   |   |   |   |   |   |   |   |   |   |   |   |   |   |   |   |   |   |   |   |   |   |   |   |   |   |   |   |   |   remm > 5.983441
|   |   |   |   |   |   |   |   |   |   |   |   |   |   |   |   |   |   |   |   |   |   |   |   |   |   |   |   |   |   |   |   |   |   |   |   remm <= 6.029548: clean (51.0/3.0)
|   |   |   |   |   |   |   |   |   |   |   |   |   |   |   |   |   |   |   |   |   |   |   |   |   |   |   |   |   |   |   |   |   |   |   |   remm > 6.029548
|   |   |   |   |   |   |   |   |   |   |   |   |   |   |   |   |   |   |   |   |   |   |   |   |   |   |   |   |   |   |   |   |   |   |   |   |   revi <= 1.996147: defective (36.0)
|   |   |   |   |   |   |   |   |   |   |   |   |   |   |   |   |   |   |   |   |   |   |   |   |   |   |   |   |   |   |   |   |   |   |   |   |   revi > 1.996147
|   |   |   |   |   |   |   |   |   |   |   |   |   |   |   |   |   |   |   |   |   |   |   |   |   |   |   |   |   |   |   |   |   |   |   |   |   |   avgc <= 13
|   |   |   |   |   |   |   |   |   |   |   |   |   |   |   |   |   |   |   |   |   |   |   |   |   |   |   |   |   |   |   |   |   |   |   |   |   |   |   aage <= 19.214891
|   |   |   |   |   |   |   |   |   |   |   |   |   |   |   |   |   |   |   |   |   |   |   |   |   |   |   |   |   |   |   |   |   |   |   |   |   |   |   |   addm <= 9.497879: clean (5.0/1.0)
|   |   |   |   |   |   |   |   |   |   |   |   |   |   |   |   |   |   |   |   |   |   |   |   |   |   |   |   |   |   |   |   |   |   |   |   |   |   |   |   addm > 9.497879
|   |   |   |   |   |   |   |   |   |   |   |   |   |   |   |   |   |   |   |   |   |   |   |   |   |   |   |   |   |   |   |   |   |   |   |   |   |   |   |   |   avgc <= 2.491285: clean (3.0/1.0)
|   |   |   |   |   |   |   |   |   |   |   |   |   |   |   |   |   |   |   |   |   |   |   |   |   |   |   |   |   |   |   |   |   |   |   |   |   |   |   |   |   avgc > 2.491285: defective (29.0/1.0)
|   |   |   |   |   |   |   |   |   |   |   |   |   |   |   |   |   |   |   |   |   |   |   |   |   |   |   |   |   |   |   |   |   |   |   |   |   |   |   aage > 19.214891: clean (6.0)
|   |   |   |   |   |   |   |   |   |   |   |   |   |   |   |   |   |   |   |   |   |   |   |   |   |   |   |   |   |   |   |   |   |   |   |   |   |   avgc > 13: clean (23.0)
|   |   |   |   |   |   |   |   |   |   |   |   |   |   |   |   |   |   |   |   |   |   |   |   |   |   |   |   |   |   |   |   |   rema > 6.95292
|   |   |   |   |   |   |   |   |   |   |   |   |   |   |   |   |   |   |   |   |   |   |   |   |   |   |   |   |   |   |   |   |   |   aage <= 49.29
|   |   |   |   |   |   |   |   |   |   |   |   |   |   |   |   |   |   |   |   |   |   |   |   |   |   |   |   |   |   |   |   |   |   |   reml <= 109
|   |   |   |   |   |   |   |   |   |   |   |   |   |   |   |   |   |   |   |   |   |   |   |   |   |   |   |   |   |   |   |   |   |   |   |   addm <= 47.747771
|   |   |   |   |   |   |   |   |   |   |   |   |   |   |   |   |   |   |   |   |   |   |   |   |   |   |   |   |   |   |   |   |   |   |   |   |   adda <= 36.103588
|   |   |   |   |   |   |   |   |   |   |   |   |   |   |   |   |   |   |   |   |   |   |   |   |   |   |   |   |   |   |   |   |   |   |   |   |   |   ddev <= 0.268543
|   |   |   |   |   |   |   |   |   |   |   |   |   |   |   |   |   |   |   |   |   |   |   |   |   |   |   |   |   |   |   |   |   |   |   |   |   |   |   reml <= 7.604615
|   |   |   |   |   |   |   |   |   |   |   |   |   |   |   |   |   |   |   |   |   |   |   |   |   |   |   |   |   |   |   |   |   |   |   |   |   |   |   |   rema <= 7.055037: clean (33.0/1.0)
|   |   |   |   |   |   |   |   |   |   |   |   |   |   |   |   |   |   |   |   |   |   |   |   |   |   |   |   |   |   |   |   |   |   |   |   |   |   |   |   rema > 7.055037: defective (6.0)
|   |   |   |   |   |   |   |   |   |   |   |   |   |   |   |   |   |   |   |   |   |   |   |   |   |   |   |   |   |   |   |   |   |   |   |   |   |   |   reml > 7.604615: clean (250.0/13.0)
|   |   |   |   |   |   |   |   |   |   |   |   |   |   |   |   |   |   |   |   |   |   |   |   |   |   |   |   |   |   |   |   |   |   |   |   |   |   ddev > 0.268543
|   |   |   |   |   |   |   |   |   |   |   |   |   |   |   |   |   |   |   |   |   |   |   |   |   |   |   |   |   |   |   |   |   |   |   |   |   |   |   addm <= 40.551263: clean (13.0)
|   |   |   |   |   |   |   |   |   |   |   |   |   |   |   |   |   |   |   |   |   |   |   |   |   |   |   |   |   |   |   |   |   |   |   |   |   |   |   addm > 40.551263: defective (3.0)
|   |   |   |   |   |   |   |   |   |   |   |   |   |   |   |   |   |   |   |   |   |   |   |   |   |   |   |   |   |   |   |   |   |   |   |   |   adda > 36.103588
|   |   |   |   |   |   |   |   |   |   |   |   |   |   |   |   |   |   |   |   |   |   |   |   |   |   |   |   |   |   |   |   |   |   |   |   |   |   remm <= 25.968787: defective (10.0)
|   |   |   |   |   |   |   |   |   |   |   |   |   |   |   |   |   |   |   |   |   |   |   |   |   |   |   |   |   |   |   |   |   |   |   |   |   |   remm > 25.968787
|   |   |   |   |   |   |   |   |   |   |   |   |   |   |   |   |   |   |   |   |   |   |   |   |   |   |   |   |   |   |   |   |   |   |   |   |   |   |   remm <= 36: clean (7.0)
|   |   |   |   |   |   |   |   |   |   |   |   |   |   |   |   |   |   |   |   |   |   |   |   |   |   |   |   |   |   |   |   |   |   |   |   |   |   |   remm > 36
|   |   |   |   |   |   |   |   |   |   |   |   |   |   |   |   |   |   |   |   |   |   |   |   |   |   |   |   |   |   |   |   |   |   |   |   |   |   |   |   maxc <= 33.494329: clean (5.0/1.0)
|   |   |   |   |   |   |   |   |   |   |   |   |   |   |   |   |   |   |   |   |   |   |   |   |   |   |   |   |   |   |   |   |   |   |   |   |   |   |   |   maxc > 33.494329: defective (2.0)
|   |   |   |   |   |   |   |   |   |   |   |   |   |   |   |   |   |   |   |   |   |   |   |   |   |   |   |   |   |   |   |   |   |   |   |   addm > 47.747771: clean (53.0)
|   |   |   |   |   |   |   |   |   |   |   |   |   |   |   |   |   |   |   |   |   |   |   |   |   |   |   |   |   |   |   |   |   |   |   reml > 109
|   |   |   |   |   |   |   |   |   |   |   |   |   |   |   |   |   |   |   |   |   |   |   |   |   |   |   |   |   |   |   |   |   |   |   |   maxc <= 7.182163
|   |   |   |   |   |   |   |   |   |   |   |   |   |   |   |   |   |   |   |   |   |   |   |   |   |   |   |   |   |   |   |   |   |   |   |   |   maxc <= 2.128773
|   |   |   |   |   |   |   |   |   |   |   |   |   |   |   |   |   |   |   |   |   |   |   |   |   |   |   |   |   |   |   |   |   |   |   |   |   |   aage <= 21.635302: clean (2.0)
|   |   |   |   |   |   |   |   |   |   |   |   |   |   |   |   |   |   |   |   |   |   |   |   |   |   |   |   |   |   |   |   |   |   |   |   |   |   aage > 21.635302: defective (2.0)
|   |   |   |   |   |   |   |   |   |   |   |   |   |   |   |   |   |   |   |   |   |   |   |   |   |   |   |   |   |   |   |   |   |   |   |   |   maxc > 2.128773: defective (8.0)
|   |   |   |   |   |   |   |   |   |   |   |   |   |   |   |   |   |   |   |   |   |   |   |   |   |   |   |   |   |   |   |   |   |   |   |   maxc > 7.182163: clean (9.0)
|   |   |   |   |   |   |   |   |   |   |   |   |   |   |   |   |   |   |   |   |   |   |   |   |   |   |   |   |   |   |   |   |   |   aage > 49.29
|   |   |   |   |   |   |   |   |   |   |   |   |   |   |   |   |   |   |   |   |   |   |   |   |   |   |   |   |   |   |   |   |   |   |   maxc <= 49.946459: clean (10.0)
|   |   |   |   |   |   |   |   |   |   |   |   |   |   |   |   |   |   |   |   |   |   |   |   |   |   |   |   |   |   |   |   |   |   |   maxc > 49.946459
|   |   |   |   |   |   |   |   |   |   |   |   |   |   |   |   |   |   |   |   |   |   |   |   |   |   |   |   |   |   |   |   |   |   |   |   wage <= 51.86
|   |   |   |   |   |   |   |   |   |   |   |   |   |   |   |   |   |   |   |   |   |   |   |   |   |   |   |   |   |   |   |   |   |   |   |   |   maxc <= 168.2229: defective (9.0/2.0)
|   |   |   |   |   |   |   |   |   |   |   |   |   |   |   |   |   |   |   |   |   |   |   |   |   |   |   |   |   |   |   |   |   |   |   |   |   maxc > 168.2229: clean (11.0)
|   |   |   |   |   |   |   |   |   |   |   |   |   |   |   |   |   |   |   |   |   |   |   |   |   |   |   |   |   |   |   |   |   |   |   |   wage > 51.86: defective (16.0)
|   |   |   |   |   |   |   |   |   |   |   |   |   |   |   |   |   |   |   |   |   |   |   |   |   |   |   |   |   ddev > 2.030148
|   |   |   |   |   |   |   |   |   |   |   |   |   |   |   |   |   |   |   |   |   |   |   |   |   |   |   |   |   |   freml <= 33
|   |   |   |   |   |   |   |   |   |   |   |   |   |   |   |   |   |   |   |   |   |   |   |   |   |   |   |   |   |   |   maxc <= 29
|   |   |   |   |   |   |   |   |   |   |   |   |   |   |   |   |   |   |   |   |   |   |   |   |   |   |   |   |   |   |   |   nloc <= 588.660372: clean (11.0)
|   |   |   |   |   |   |   |   |   |   |   |   |   |   |   |   |   |   |   |   |   |   |   |   |   |   |   |   |   |   |   |   nloc > 588.660372: defective (4.0)
|   |   |   |   |   |   |   |   |   |   |   |   |   |   |   |   |   |   |   |   |   |   |   |   |   |   |   |   |   |   |   maxc > 29: defective (26.0)
|   |   |   |   |   |   |   |   |   |   |   |   |   |   |   |   |   |   |   |   |   |   |   |   |   |   |   |   |   |   freml > 33
|   |   |   |   |   |   |   |   |   |   |   |   |   |   |   |   |   |   |   |   |   |   |   |   |   |   |   |   |   |   |   revi <= 1.070783: clean (12.0)
|   |   |   |   |   |   |   |   |   |   |   |   |   |   |   |   |   |   |   |   |   |   |   |   |   |   |   |   |   |   |   revi > 1.070783: defective (5.0/2.0)
|   |   |   |   |   |   |   |   |   |   |   |   |   |   |   |   |   |   |   |   |   |   |   |   |   |   avgc > 393.04008
|   |   |   |   |   |   |   |   |   |   |   |   |   |   |   |   |   |   |   |   |   |   |   |   |   |   |   revi <= 1.499825: defective (63.0/10.0)
|   |   |   |   |   |   |   |   |   |   |   |   |   |   |   |   |   |   |   |   |   |   |   |   |   |   |   revi > 1.499825: clean (8.0)
|   |   |   |   |   |   |   |   |   |   |   |   |   |   |   |   |   |   |   |   |   |   |   |   |   revi > 2.029497: defective (46.0)
|   |   |   |   |   |   |   |   |   |   |   |   |   |   |   |   |   |   |   |   |   |   |   |   revi > 2.986939
|   |   |   |   |   |   |   |   |   |   |   |   |   |   |   |   |   |   |   |   |   |   |   |   |   rema <= 13.244017
|   |   |   |   |   |   |   |   |   |   |   |   |   |   |   |   |   |   |   |   |   |   |   |   |   |   comm <= 1.499942
|   |   |   |   |   |   |   |   |   |   |   |   |   |   |   |   |   |   |   |   |   |   |   |   |   |   |   wage <= 5.033314
|   |   |   |   |   |   |   |   |   |   |   |   |   |   |   |   |   |   |   |   |   |   |   |   |   |   |   |   aage <= 4.844978
|   |   |   |   |   |   |   |   |   |   |   |   |   |   |   |   |   |   |   |   |   |   |   |   |   |   |   |   |   avgc <= 1.945929
|   |   |   |   |   |   |   |   |   |   |   |   |   |   |   |   |   |   |   |   |   |   |   |   |   |   |   |   |   |   addm <= 8.874154: defective (3.0)
|   |   |   |   |   |   |   |   |   |   |   |   |   |   |   |   |   |   |   |   |   |   |   |   |   |   |   |   |   |   addm > 8.874154: clean (3.0)
|   |   |   |   |   |   |   |   |   |   |   |   |   |   |   |   |   |   |   |   |   |   |   |   |   |   |   |   |   avgc > 1.945929: clean (30.0)
|   |   |   |   |   |   |   |   |   |   |   |   |   |   |   |   |   |   |   |   |   |   |   |   |   |   |   |   aage > 4.844978: defective (3.0)
|   |   |   |   |   |   |   |   |   |   |   |   |   |   |   |   |   |   |   |   |   |   |   |   |   |   |   wage > 5.033314: clean (401.0/8.0)
|   |   |   |   |   |   |   |   |   |   |   |   |   |   |   |   |   |   |   |   |   |   |   |   |   |   comm > 1.499942
|   |   |   |   |   |   |   |   |   |   |   |   |   |   |   |   |   |   |   |   |   |   |   |   |   |   |   rema <= 2.499975
|   |   |   |   |   |   |   |   |   |   |   |   |   |   |   |   |   |   |   |   |   |   |   |   |   |   |   |   freml <= 3.492565: clean (5.0)
|   |   |   |   |   |   |   |   |   |   |   |   |   |   |   |   |   |   |   |   |   |   |   |   |   |   |   |   freml > 3.492565: defective (4.0)
|   |   |   |   |   |   |   |   |   |   |   |   |   |   |   |   |   |   |   |   |   |   |   |   |   |   |   rema > 2.499975: clean (23.0)
|   |   |   |   |   |   |   |   |   |   |   |   |   |   |   |   |   |   |   |   |   |   |   |   |   rema > 13.244017
|   |   |   |   |   |   |   |   |   |   |   |   |   |   |   |   |   |   |   |   |   |   |   |   |   |   maxc <= 14.498219: clean (74.0/2.0)
|   |   |   |   |   |   |   |   |   |   |   |   |   |   |   |   |   |   |   |   |   |   |   |   |   |   maxc > 14.498219
|   |   |   |   |   |   |   |   |   |   |   |   |   |   |   |   |   |   |   |   |   |   |   |   |   |   |   ccha <= 13.051412
|   |   |   |   |   |   |   |   |   |   |   |   |   |   |   |   |   |   |   |   |   |   |   |   |   |   |   |   avgc <= 9.967425
|   |   |   |   |   |   |   |   |   |   |   |   |   |   |   |   |   |   |   |   |   |   |   |   |   |   |   |   |   remm <= 7.936045: defective (12.0/1.0)
|   |   |   |   |   |   |   |   |   |   |   |   |   |   |   |   |   |   |   |   |   |   |   |   |   |   |   |   |   remm > 7.936045: clean (12.0/2.0)
|   |   |   |   |   |   |   |   |   |   |   |   |   |   |   |   |   |   |   |   |   |   |   |   |   |   |   |   avgc > 9.967425
|   |   |   |   |   |   |   |   |   |   |   |   |   |   |   |   |   |   |   |   |   |   |   |   |   |   |   |   |   avgc <= 147.148946: clean (75.0/3.0)
|   |   |   |   |   |   |   |   |   |   |   |   |   |   |   |   |   |   |   |   |   |   |   |   |   |   |   |   |   avgc > 147.148946
|   |   |   |   |   |   |   |   |   |   |   |   |   |   |   |   |   |   |   |   |   |   |   |   |   |   |   |   |   |   maxc <= 1364.126786: defective (4.0)
|   |   |   |   |   |   |   |   |   |   |   |   |   |   |   |   |   |   |   |   |   |   |   |   |   |   |   |   |   |   maxc > 1364.126786: clean (4.0)
|   |   |   |   |   |   |   |   |   |   |   |   |   |   |   |   |   |   |   |   |   |   |   |   |   |   |   ccha > 13.051412: defective (6.0)
|   |   |   |   |   |   |   |   |   |   |   |   |   |   |   |   |   |   |   |   |   |   |   auth > 1.002062
|   |   |   |   |   |   |   |   |   |   |   |   |   |   |   |   |   |   |   |   |   |   |   |   auth <= 1.999039: defective (425.0)
|   |   |   |   |   |   |   |   |   |   |   |   |   |   |   |   |   |   |   |   |   |   |   |   auth > 1.999039
|   |   |   |   |   |   |   |   |   |   |   |   |   |   |   |   |   |   |   |   |   |   |   |   |   auth <= 2.001588
|   |   |   |   |   |   |   |   |   |   |   |   |   |   |   |   |   |   |   |   |   |   |   |   |   |   reml <= 4.995593
|   |   |   |   |   |   |   |   |   |   |   |   |   |   |   |   |   |   |   |   |   |   |   |   |   |   |   maxc <= 23.494467: clean (9.0)
|   |   |   |   |   |   |   |   |   |   |   |   |   |   |   |   |   |   |   |   |   |   |   |   |   |   |   maxc > 23.494467
|   |   |   |   |   |   |   |   |   |   |   |   |   |   |   |   |   |   |   |   |   |   |   |   |   |   |   |   aage <= 17.241186: defective (26.0/1.0)
|   |   |   |   |   |   |   |   |   |   |   |   |   |   |   |   |   |   |   |   |   |   |   |   |   |   |   |   aage > 17.241186: clean (5.0)
|   |   |   |   |   |   |   |   |   |   |   |   |   |   |   |   |   |   |   |   |   |   |   |   |   |   reml > 4.995593
|   |   |   |   |   |   |   |   |   |   |   |   |   |   |   |   |   |   |   |   |   |   |   |   |   |   |   adev <= 1.891381
|   |   |   |   |   |   |   |   |   |   |   |   |   |   |   |   |   |   |   |   |   |   |   |   |   |   |   |   comm <= 1.045874
|   |   |   |   |   |   |   |   |   |   |   |   |   |   |   |   |   |   |   |   |   |   |   |   |   |   |   |   |   adev <= 0.499776
|   |   |   |   |   |   |   |   |   |   |   |   |   |   |   |   |   |   |   |   |   |   |   |   |   |   |   |   |   |   adda <= 8.026615
|   |   |   |   |   |   |   |   |   |   |   |   |   |   |   |   |   |   |   |   |   |   |   |   |   |   |   |   |   |   |   ccha <= 4.157131
|   |   |   |   |   |   |   |   |   |   |   |   |   |   |   |   |   |   |   |   |   |   |   |   |   |   |   |   |   |   |   |   remm <= 17.32495: clean (252.0/7.0)
|   |   |   |   |   |   |   |   |   |   |   |   |   |   |   |   |   |   |   |   |   |   |   |   |   |   |   |   |   |   |   |   remm > 17.32495
|   |   |   |   |   |   |   |   |   |   |   |   |   |   |   |   |   |   |   |   |   |   |   |   |   |   |   |   |   |   |   |   |   ccha <= -3.926661: clean (16.0)
|   |   |   |   |   |   |   |   |   |   |   |   |   |   |   |   |   |   |   |   |   |   |   |   |   |   |   |   |   |   |   |   |   ccha > -3.926661
|   |   |   |   |   |   |   |   |   |   |   |   |   |   |   |   |   |   |   |   |   |   |   |   |   |   |   |   |   |   |   |   |   |   adda <= 6.965108: defective (4.0)
|   |   |   |   |   |   |   |   |   |   |   |   |   |   |   |   |   |   |   |   |   |   |   |   |   |   |   |   |   |   |   |   |   |   adda > 6.965108
|   |   |   |   |   |   |   |   |   |   |   |   |   |   |   |   |   |   |   |   |   |   |   |   |   |   |   |   |   |   |   |   |   |   |   cchm <= 0.499742: clean (5.0)
|   |   |   |   |   |   |   |   |   |   |   |   |   |   |   |   |   |   |   |   |   |   |   |   |   |   |   |   |   |   |   |   |   |   |   cchm > 0.499742
|   |   |   |   |   |   |   |   |   |   |   |   |   |   |   |   |   |   |   |   |   |   |   |   |   |   |   |   |   |   |   |   |   |   |   |   adda <= 7.903943: defective (2.0)
|   |   |   |   |   |   |   |   |   |   |   |   |   |   |   |   |   |   |   |   |   |   |   |   |   |   |   |   |   |   |   |   |   |   |   |   adda > 7.903943: clean (3.0/1.0)
|   |   |   |   |   |   |   |   |   |   |   |   |   |   |   |   |   |   |   |   |   |   |   |   |   |   |   |   |   |   |   ccha > 4.157131
|   |   |   |   |   |   |   |   |   |   |   |   |   |   |   |   |   |   |   |   |   |   |   |   |   |   |   |   |   |   |   |   cchl <= 10.923787: defective (4.0)
|   |   |   |   |   |   |   |   |   |   |   |   |   |   |   |   |   |   |   |   |   |   |   |   |   |   |   |   |   |   |   |   cchl > 10.923787
|   |   |   |   |   |   |   |   |   |   |   |   |   |   |   |   |   |   |   |   |   |   |   |   |   |   |   |   |   |   |   |   |   remm <= 3.499962
|   |   |   |   |   |   |   |   |   |   |   |   |   |   |   |   |   |   |   |   |   |   |   |   |   |   |   |   |   |   |   |   |   |   aage <= 11.37: defective (2.0)
|   |   |   |   |   |   |   |   |   |   |   |   |   |   |   |   |   |   |   |   |   |   |   |   |   |   |   |   |   |   |   |   |   |   aage > 11.37: clean (4.0)
|   |   |   |   |   |   |   |   |   |   |   |   |   |   |   |   |   |   |   |   |   |   |   |   |   |   |   |   |   |   |   |   |   remm > 3.499962: clean (11.0)
|   |   |   |   |   |   |   |   |   |   |   |   |   |   |   |   |   |   |   |   |   |   |   |   |   |   |   |   |   |   adda > 8.026615
|   |   |   |   |   |   |   |   |   |   |   |   |   |   |   |   |   |   |   |   |   |   |   |   |   |   |   |   |   |   |   maxc <= 25
|   |   |   |   |   |   |   |   |   |   |   |   |   |   |   |   |   |   |   |   |   |   |   |   |   |   |   |   |   |   |   |   remm <= 24.494133
|   |   |   |   |   |   |   |   |   |   |   |   |   |   |   |   |   |   |   |   |   |   |   |   |   |   |   |   |   |   |   |   |   reml <= 17.499805
|   |   |   |   |   |   |   |   |   |   |   |   |   |   |   |   |   |   |   |   |   |   |   |   |   |   |   |   |   |   |   |   |   |   addm <= 21.861787
|   |   |   |   |   |   |   |   |   |   |   |   |   |   |   |   |   |   |   |   |   |   |   |   |   |   |   |   |   |   |   |   |   |   |   addm <= 7.49926: clean (11.0/1.0)
|   |   |   |   |   |   |   |   |   |   |   |   |   |   |   |   |   |   |   |   |   |   |   |   |   |   |   |   |   |   |   |   |   |   |   addm > 7.49926
|   |   |   |   |   |   |   |   |   |   |   |   |   |   |   |   |   |   |   |   |   |   |   |   |   |   |   |   |   |   |   |   |   |   |   |   addm <= 8.916139: defective (7.0/1.0)
|   |   |   |   |   |   |   |   |   |   |   |   |   |   |   |   |   |   |   |   |   |   |   |   |   |   |   |   |   |   |   |   |   |   |   |   addm > 8.916139
|   |   |   |   |   |   |   |   |   |   |   |   |   |   |   |   |   |   |   |   |   |   |   |   |   |   |   |   |   |   |   |   |   |   |   |   |   aage <= 14.223514: clean (6.0)
|   |   |   |   |   |   |   |   |   |   |   |   |   |   |   |   |   |   |   |   |   |   |   |   |   |   |   |   |   |   |   |   |   |   |   |   |   aage > 14.223514
|   |   |   |   |   |   |   |   |   |   |   |   |   |   |   |   |   |   |   |   |   |   |   |   |   |   |   |   |   |   |   |   |   |   |   |   |   |   aage <= 19.281577: defective (5.0)
|   |   |   |   |   |   |   |   |   |   |   |   |   |   |   |   |   |   |   |   |   |   |   |   |   |   |   |   |   |   |   |   |   |   |   |   |   |   aage > 19.281577: clean (3.0/1.0)
|   |   |   |   |   |   |   |   |   |   |   |   |   |   |   |   |   |   |   |   |   |   |   |   |   |   |   |   |   |   |   |   |   |   addm > 21.861787: clean (16.0)
|   |   |   |   |   |   |   |   |   |   |   |   |   |   |   |   |   |   |   |   |   |   |   |   |   |   |   |   |   |   |   |   |   reml > 17.499805: clean (72.0)
|   |   |   |   |   |   |   |   |   |   |   |   |   |   |   |   |   |   |   |   |   |   |   |   |   |   |   |   |   |   |   |   remm > 24.494133
|   |   |   |   |   |   |   |   |   |   |   |   |   |   |   |   |   |   |   |   |   |   |   |   |   |   |   |   |   |   |   |   |   rema <= 12.499586
|   |   |   |   |   |   |   |   |   |   |   |   |   |   |   |   |   |   |   |   |   |   |   |   |   |   |   |   |   |   |   |   |   |   aage <= 17.3: defective (18.0)
|   |   |   |   |   |   |   |   |   |   |   |   |   |   |   |   |   |   |   |   |   |   |   |   |   |   |   |   |   |   |   |   |   |   aage > 17.3: clean (2.0)
|   |   |   |   |   |   |   |   |   |   |   |   |   |   |   |   |   |   |   |   |   |   |   |   |   |   |   |   |   |   |   |   |   rema > 12.499586
|   |   |   |   |   |   |   |   |   |   |   |   |   |   |   |   |   |   |   |   |   |   |   |   |   |   |   |   |   |   |   |   |   |   avgc <= 9.499634: clean (53.0/3.0)
|   |   |   |   |   |   |   |   |   |   |   |   |   |   |   |   |   |   |   |   |   |   |   |   |   |   |   |   |   |   |   |   |   |   avgc > 9.499634
|   |   |   |   |   |   |   |   |   |   |   |   |   |   |   |   |   |   |   |   |   |   |   |   |   |   |   |   |   |   |   |   |   |   |   avgc <= 13
|   |   |   |   |   |   |   |   |   |   |   |   |   |   |   |   |   |   |   |   |   |   |   |   |   |   |   |   |   |   |   |   |   |   |   |   aage <= 11.571662: clean (2.0)
|   |   |   |   |   |   |   |   |   |   |   |   |   |   |   |   |   |   |   |   |   |   |   |   |   |   |   |   |   |   |   |   |   |   |   |   aage > 11.571662: defective (11.0)
|   |   |   |   |   |   |   |   |   |   |   |   |   |   |   |   |   |   |   |   |   |   |   |   |   |   |   |   |   |   |   |   |   |   |   avgc > 13: clean (10.0/1.0)
|   |   |   |   |   |   |   |   |   |   |   |   |   |   |   |   |   |   |   |   |   |   |   |   |   |   |   |   |   |   |   maxc > 25
|   |   |   |   |   |   |   |   |   |   |   |   |   |   |   |   |   |   |   |   |   |   |   |   |   |   |   |   |   |   |   |   adda <= 568.49589
|   |   |   |   |   |   |   |   |   |   |   |   |   |   |   |   |   |   |   |   |   |   |   |   |   |   |   |   |   |   |   |   |   avgc <= 1213
|   |   |   |   |   |   |   |   |   |   |   |   |   |   |   |   |   |   |   |   |   |   |   |   |   |   |   |   |   |   |   |   |   |   rema <= 5.499344
|   |   |   |   |   |   |   |   |   |   |   |   |   |   |   |   |   |   |   |   |   |   |   |   |   |   |   |   |   |   |   |   |   |   |   cchl <= 13: defective (14.0)
|   |   |   |   |   |   |   |   |   |   |   |   |   |   |   |   |   |   |   |   |   |   |   |   |   |   |   |   |   |   |   |   |   |   |   cchl > 13: clean (48.0/5.0)
|   |   |   |   |   |   |   |   |   |   |   |   |   |   |   |   |   |   |   |   |   |   |   |   |   |   |   |   |   |   |   |   |   |   rema > 5.499344: clean (217.0/5.0)
|   |   |   |   |   |   |   |   |   |   |   |   |   |   |   |   |   |   |   |   |   |   |   |   |   |   |   |   |   |   |   |   |   avgc > 1213
|   |   |   |   |   |   |   |   |   |   |   |   |   |   |   |   |   |   |   |   |   |   |   |   |   |   |   |   |   |   |   |   |   |   avgc <= 1623: clean (12.0)
|   |   |   |   |   |   |   |   |   |   |   |   |   |   |   |   |   |   |   |   |   |   |   |   |   |   |   |   |   |   |   |   |   |   avgc > 1623: defective (8.0)
|   |   |   |   |   |   |   |   |   |   |   |   |   |   |   |   |   |   |   |   |   |   |   |   |   |   |   |   |   |   |   |   adda > 568.49589
|   |   |   |   |   |   |   |   |   |   |   |   |   |   |   |   |   |   |   |   |   |   |   |   |   |   |   |   |   |   |   |   |   remm <= 5.665766: defective (7.0)
|   |   |   |   |   |   |   |   |   |   |   |   |   |   |   |   |   |   |   |   |   |   |   |   |   |   |   |   |   |   |   |   |   remm > 5.665766: clean (11.0/1.0)
|   |   |   |   |   |   |   |   |   |   |   |   |   |   |   |   |   |   |   |   |   |   |   |   |   |   |   |   |   adev > 0.499776
|   |   |   |   |   |   |   |   |   |   |   |   |   |   |   |   |   |   |   |   |   |   |   |   |   |   |   |   |   |   cchl <= 2.498703
|   |   |   |   |   |   |   |   |   |   |   |   |   |   |   |   |   |   |   |   |   |   |   |   |   |   |   |   |   |   |   exp <= 175.946886: defective (7.0)
|   |   |   |   |   |   |   |   |   |   |   |   |   |   |   |   |   |   |   |   |   |   |   |   |   |   |   |   |   |   |   exp > 175.946886: clean (6.0)
|   |   |   |   |   |   |   |   |   |   |   |   |   |   |   |   |   |   |   |   |   |   |   |   |   |   |   |   |   |   cchl > 2.498703: clean (17.0)
|   |   |   |   |   |   |   |   |   |   |   |   |   |   |   |   |   |   |   |   |   |   |   |   |   |   |   |   comm > 1.045874
|   |   |   |   |   |   |   |   |   |   |   |   |   |   |   |   |   |   |   |   |   |   |   |   |   |   |   |   |   aage <= 12.8
|   |   |   |   |   |   |   |   |   |   |   |   |   |   |   |   |   |   |   |   |   |   |   |   |   |   |   |   |   |   addl <= 13.823729: clean (2.0)
|   |   |   |   |   |   |   |   |   |   |   |   |   |   |   |   |   |   |   |   |   |   |   |   |   |   |   |   |   |   addl > 13.823729: defective (21.0)
|   |   |   |   |   |   |   |   |   |   |   |   |   |   |   |   |   |   |   |   |   |   |   |   |   |   |   |   |   aage > 12.8: clean (5.0)
|   |   |   |   |   |   |   |   |   |   |   |   |   |   |   |   |   |   |   |   |   |   |   |   |   |   |   adev > 1.891381: clean (53.0)
|   |   |   |   |   |   |   |   |   |   |   |   |   |   |   |   |   |   |   |   |   |   |   |   |   auth > 2.001588
|   |   |   |   |   |   |   |   |   |   |   |   |   |   |   |   |   |   |   |   |   |   |   |   |   |   auth <= 2.991115: defective (126.0)
|   |   |   |   |   |   |   |   |   |   |   |   |   |   |   |   |   |   |   |   |   |   |   |   |   |   auth > 2.991115
|   |   |   |   |   |   |   |   |   |   |   |   |   |   |   |   |   |   |   |   |   |   |   |   |   |   |   auth <= 3.004728: clean (263.0/17.0)
|   |   |   |   |   |   |   |   |   |   |   |   |   |   |   |   |   |   |   |   |   |   |   |   |   |   |   auth > 3.004728
|   |   |   |   |   |   |   |   |   |   |   |   |   |   |   |   |   |   |   |   |   |   |   |   |   |   |   |   auth <= 3.991801: defective (70.0)
|   |   |   |   |   |   |   |   |   |   |   |   |   |   |   |   |   |   |   |   |   |   |   |   |   |   |   |   auth > 3.991801
|   |   |   |   |   |   |   |   |   |   |   |   |   |   |   |   |   |   |   |   |   |   |   |   |   |   |   |   |   maxc <= 33.957469
|   |   |   |   |   |   |   |   |   |   |   |   |   |   |   |   |   |   |   |   |   |   |   |   |   |   |   |   |   |   auth <= 4.004928
